-0.00259093
0.0160159
-0.0149896
0.00174768
0.00119264
-0.00302023
0.00458181
0.00188985
0.00394975
-0.0236984
0.000441968
-0.00664492
-0.00636256
-0.00171248
0.0173126
-0.00764852
0.00703151
0.0014535
0.000936702
0.0120412
0.00261021
-0.0069196
0.0168143
-0.00702026
0.00175199
0.00274173
-0.00863064
0.0118623
0.0131654
0.00681032
0.00942564
0.00828367
-0.00589718
0.00209104
0.00860456
0.00294421
-0.00466873
-0.0166878
-0.00131742
0.0157662
-0.00791712
-0.00922316
-0.010473
-0.00441963
0.00955371
-0.000323921
0.000102804
0.00919759
-0.0200411
0.00180425
-4.06748e-05
0.00328624
-0.00421684
-0.00240951
-0.0241841
0.000147597
0.00437689
-0.00235778
-0.0236553
0.0197919
0.00767131
0.00742458
-0.000997097
0.000872492
0.00330197
0.00939931
0.00907331
0.00948618
-0.00757401
-0.0104266
0.0019672
-0.021871
0.0111955
0.00294854
0.011447
-0.00282293
-0.0056632
-0.0158177
-0.0198578
0.0230897
-0.00849881
-0.005622
0.00238523
-0.0115269
-0.00144153
0.0326738
0.00964104
0.0013468
0.0105803
0.00386196
-0.00439241
-0.00520273
-0.00683598
0.00403876
-0.00245874
-0.00449153
-0.00525131
-0.0093118
0.00339171
0.00833293
0.00479838
-0.00838841
-0.0145443
-0.0147877
-0.0115113
0.000116395
0.011325
0.00285126
0.00534473
0.00105752
-0.0114965
0.00183454
-0.000475864
0.00252087
0.00200894
-0.0110875
-0.000773849
-0.0167223
0.00556809
-0.000431669
-0.00252645
-0.00311476
0.0108189
-0.014047
0.00429949
-0.00796876
0.012767
0.00564531
-0.000756281
-0.0154471
-0.0116263
-0.00379911
-0.0102555
-0.002013
-0.00107042
0.0059662
-0.00195308
-0.00622133
-0.00589057
-0.00398649
-0.00232575
0.0147349
-0.00648918
-0.0204702
-0.0116788
0.00625327
0.00630507
0.00295968
0.00625245
-0.0035641
0.00779695
-0.0317371
0.0133697
0.0047485
-0.00155847
0.0169456
0.00245338
0.00602036
0.0139682
-0.00127186
0.0121022
0.0111147
-0.00420538
0.00824072
0.0117306
0.0296737
-0.00193626
-0.0089315
0.0100537
0.00204822
0.0166996
-0.00434297
0.00404693
0.00705347
0.00672647
0.00985943
0.00123448
0.0109202
-0.00604813
0.00116877
0.000445468
0.0194076
0.0132343
0.0122165
-0.0101325
0.00255851
0.00367403
0.00124617
-0.000467384
-0.0125645
0.00301044
-0.0191421
-0.00147303
0.0100059
0.0138258
-0.00146402
-0.0121701
-0.00568854
0.0136443
0.0153884
0.00755753
0.0092913
-0.00723253
-0.0160341
0.0123507
0.012646
0.00672738
-0.00259548
0.00960159
0.00647909
0.0075189
0.0140516
-0.00551971
-0.00545627
-0.00034391
-0.00479376
-0.0120999
-0.00479702
-0.00955328
0.0102238
0.00685293
0.00667941
-0.0165619
-0.00588953
0.00697458
-0.00558326
-0.00285771
-0.00999783
-0.0117059
0.00414901
-0.00235484
0.00486528
-0.00189977
-0.00055861
0.00806448
-0.0100496
0.0115484
0.00862716
0.0129361
0.0104621
0.0133459
0.016866
0.00455049
-0.0017553
-0.00322044
-0.0083558
-0.00613357
0.00340683
0.00141434
0.0157604
0.0214194
0.013124
0.0122079
-0.0102439
-0.00176623
-0.00174057
0.0116117
0.000163493
0.00360111
0.0153562
-0.00636577
0.0138535
0.003567
-0.0083475
0.0111641
-0.012987
-0.0236249
0.00954962
-0.0047266
-0.0103926
-0.00639276
-0.0163654
-0.0185865
-0.00184859
-0.00293256
-0.00214468
-0.0137524
-0.00734482
0.0120567
0.0117523
0.0176392
0.00107532
0.0014951
0.000842491
0.00723327
0.000542578
-0.00210558
-0.0164266
0.0239513
0.00548449
0.0199446
-0.011558
-0.00823878
0.016428
0.0171347
0.0286124
0.010807
-0.0100494
0.0128003
0.00590652
0.0112306
-0.00136704
-0.00257958
0.0189821
0.00498033
-0.00827238
-0.00532471
0.0174652
0.0151509
0.00496108
0.00951127
-0.00817491
-0.00780976
0.00153012
0.00984448
0.011539
0.00145958
0.00223719
0.0081939
0.0283588
0.00399567
-0.00436406
-0.0114903
-0.00334552
0.0180316
-0.0103433
0.0166838
0.0139359
-0.0140883
0.00582041
-0.00324232
0.0118346
-0.0113493
0.0111286
0.015341
0.00116554
-0.00953786
0.0105146
-0.000188268
-0.00626998
0.0136374
-0.026164
-0.00903146
0.00142744
0.0105928
-0.00351854
0.00878606
0.0195632
-0.00927409
0.0135347
-0.000862337
-0.0218566
0.0181422
0.00786347
0.00720326
0.0230636
0.0154413
-0.0137267
-0.00830263
0.00325377
0.00594933
0.000692905
0.0102368
-0.00433194
-0.00471503
-0.0154836
0.00807084
-0.0077946
-0.00412618
0.0199336
0.0102649
-0.0092376
0.000218075
-0.00132837
0.00336812
-0.00794959
-0.0122415
0.0206173
0.00367115
-0.00338777
0.0128228
-0.00109818
0.0189412
0.00281907
0.015466
-0.00488401
0.018226
0.000520474
0.0121055
0.0114411
-0.00725943
-0.00702731
0.0194853
0.00799244
-0.0152371
0.0138237
-0.00657475
-0.00646785
-0.00864286
0.00677734
-0.00402263
0.0075531
0.00374965
-0.00195777
0.0249143
-0.0018505
0.017879
0.00916408
-0.0041061
0.00337111
0.0124206
-0.023455
0.00698567
0.00133602
-0.018708
-0.00361404
0.0163071
-0.00364695
-0.00525787
-0.00471497
0.00570179
-0.001653
-0.012339
0.000974514
-0.00912914
0.00115877
-0.0032352
0.0125005
-0.0146714
-0.00436596
0.00861645
0.0187324
0.0055008
0.00727028
0.00715069
0.0111815
0.0104365
0.00322055
-0.0113659
0.0170656
-0.0183835
0.0213445
-0.0132419
-0.00537835
-0.00146215
-0.00797891
-0.0183633
-0.00241289
-0.0019443
-0.00270812
0.00127959
0.0141367
0.00878765
0.00462723
0.00903999
-0.00832531
-0.00429002
-0.0112659
0.00189767
-0.00558688
0.00998657
-0.00343244
0.00142743
0.00368932
0.0133616
-0.00671275
-0.00774804
0.00134677
0.00652654
-0.00985836
-0.00104312
-0.00505706
0.0011206
-0.0185731
0.00397177
0.00365588
-0.00906416
0.0120336
0.00516238
0.0118349
0.0046213
-0.00552606
0.00112427
-0.00616686
0.0122186
0.011809
-0.0156841
0.00138896
-0.00604016
0.0172736
-0.00311639
-0.00304733
-0.00782634
-0.020905
-0.00147683
0.00234435
-0.0032894
0.00129362
0.00586322
0.015009
-0.00492897
0.0102053
0.00228044
-0.0155233
-0.0194622
-0.0140047
-0.00837875
-0.00429922
0.00776072
-0.000348415
0.00981172
0.00619831
0.0235826
0.0137247
-0.00266129
0.0044726
0.000520325
-0.00111737
-0.00149289
0.00309437
0.0146236
0.00520815
0.0228208
0.00389362
0.0102718
0.0112296
-0.0115148
0.0131418
0.0129488
-0.0179026
0.0106311
0.00774664
-0.00415502
0.00210069
0.00731002
0.00211898
-0.000649682
0.00767456
0.0132963
0.000648464
0.00217497
0.00773183
0.0020865
0.0190817
-0.0103508
0.00181348
0.00288532
0.00592777
0.00543976
-0.0149372
0.0118493
0.0141787
0.00274022
-0.00842453
0.0160875
0.01055
0.0278617
-0.00187988
-0.013703
0.0207548
7.82768e-05
-0.012002
0.000322567
-0.00610242
-0.000339443
0.000403109
-0.00310657
-0.0013939
0.0102791
-0.0211645
0.0176201
0.0167906
-0.0233619
0.0276512
0.0151355
0.012901
-0.0005583
-0.023479
0.0199236
-8.68705e-05
-0.015856
0.00344666
-0.015058
0.00735362
0.00279506
0.0186434
0.0173456
-0.0153934
0.00960138
0.00542556
-0.0155666
0.00189452
0.00802874
-0.0114535
0.00882484
-0.00244047
-0.0093308
0.00135205
0.0191214
-0.00391337
-0.00678338
0.000754043
-0.000871236
0.00530154
-0.0169242
-0.00571996
0.0113785
-0.00668629
-0.0113613
-0.0115433
0.00122926
-0.00639575
-0.0143756
-0.000710956
-0.000251342
0.0112316
0.0117146
-0.00509465
-0.00289934
-0.00272055
-0.0226353
-0.00557845
-0.000920687
0.0108672
0.019004
-0.00749215
-0.000127076
0.00150939
-0.00395932
0.00701905
-0.00205261
0.00298739
0.00273345
0.0149499
-0.00367515
0.00784923
0.00331419
0.0106061
0.0123564
-0.00426362
0.00709921
0.000414298
0.0172352
-0.0172566
0.00513667
0.0033609
-0.0105847
-0.00552046
0.00875616
0.00979836
0.00689903
0.00449694
-0.00568741
0.000490411
-3.36038e-05
-0.00980671
0.00425389
-0.00491608
0.0146943
0.00393843
0.00395487
0.00479301
0.00834717
0.00366765
0.000304373
0.0108935
-0.00243588
-0.00854462
0.0153475
-0.00957897
-0.000725016
-0.0115662
-0.00990607
0.00788717
0.00301122
-0.000689928
0.0146795
0.0104359
-0.00237005
0.00799552
0.00511409
0.00716817
-0.00542363
-0.000570888
-0.0359188
-0.00223434
0.000757606
-0.0293102
0.00214728
0.00113817
-0.00739523
-0.00365178
-0.000272814
0.00404632
-0.00409393
0.00499944
-0.00259232
-0.0031982
0.00865672
-0.0184027
0.0205306
-0.0143138
-0.019669
-0.0100172
0.0140448
-0.0164753
-0.0111699
-0.00143048
-0.00636803
0.0181176
0.00393792
0.00381801
-0.00495553
0.0126329
0.000513718
-0.00232487
0.0138712
0.0131113
0.0119452
0.00630838
-0.0149139
-0.0128795
-0.0158753
-0.0106464
-0.0080871
0.00440879
0.00989794
-0.0123667
-0.00438057
0.0083773
0.00302725
-0.0105357
0.00332353
-0.023644
-0.0120987
-0.0071791
0.00910588
-0.00513038
0.00333168
-0.00861403
-0.000267385
-0.00603495
-0.0102951
-0.0037
0.00766536
0.0117979
-0.0169749
0.00563366
-0.0174058
-0.00820626
0.018093
0.00120498
-0.00461963
0.00589365
-0.022286
-0.006158
0.00305476
-0.0137339
-0.0028206
0.0120739
-0.00497911
0.00849986
-0.00431427
-0.0101819
0.00203422
0.00680401
-0.00609215
-0.021738
0.00549247
0.0015654
-0.00568021
-0.00118621
0.0212936
-0.0122421
0.00586745
0.00400073
0.00973884
0.00482908
0.0180778
0.00926553
0.000252222
0.00511301
0.00968624
-0.00974835
0.0115821
0.00310814
0.00471109
0.0098617
0.00824845
0.0132901
0.00489443
-0.0211167
-0.0125107
0.0116304
-0.00166473
0.0106646
-0.00218271
0.00408495
0.0117414
-0.00293181
-0.000874553
0.00242119
0.0251494
0.0183126
-0.0119097
0.00755538
0.0013614
0.00621323
-0.00357912
-0.00528984
-0.00158911
0.00202272
0.00313764
-0.0031474
0.0164095
0.013635
0.00474349
0.00935938
0.00972685
-0.00284104
-0.00769903
0.0029718
-0.0114299
0.0205725
-0.004939
0.000729744
0.00942536
-0.00403184
0.0141222
-0.0121913
-0.00662044
0.00114987
-0.0086594
0.00959967
-0.012758
-0.00226214
0.0275276
-0.00507685
-0.00153312
0.00926287
-0.0100136
0.00636202
-0.0176551
-0.00141797
-0.000316055
0.00621589
-0.00379419
0.00471353
0.00940271
0.0169071
-0.00937584
0.00296954
-0.0145814
0.00872767
-0.0175181
-0.00776815
-0.0059813
0.00186579
-0.0142335
-0.0194837
0.0102279
-0.00303973
-0.00412375
-0.00271892
0.00848843
0.0130878
0.00443128
-0.00379699
-0.00502443
-0.011276
0.00720356
0.00919906
0.00872673
0.0179291
-0.00991209
-0.00461063
-0.0102683
-0.00774273
-0.00111031
-0.0209068
0.00152794
-0.00238528
-0.0268123
-0.00301056
0.00303198
-0.0278352
-0.0236529
-0.0100803
-0.0139336
0.0063387
-0.00978307
-0.0056316
-0.0079623
0.000573168
0.014539
-0.00398557
-0.00327634
-0.0142035
-0.00302015
-0.00475375
0.0148283
0.000681527
-0.00603486
-0.00604185
-0.0104508
-0.0134767
-0.00472475
0.0156233
-0.0159767
0.00581179
-0.00724715
-0.021784
-0.0205739
-0.0292015
-0.0435685
-0.0285923
-0.0207889
-0.0148429
-0.0085863
-0.0128397
-0.00317134
0.0144209
0.00774161
0.00527837
0.0047712
-0.0016899
-0.0139263
-0.0106006
0.00649024
-0.00099934
0.0113789
0.00172178
0.00734725
-0.00464894
-0.0210363
0.00804448
-0.0132625
-0.0173628
-0.00854698
-0.0203991
-0.0161043
-0.0181444
-0.0231596
-0.0314798
-0.0184521
-0.0237974
-0.00503958
0.0107655
-0.00697742
0.00641451
-0.00951548
-0.00328305
-0.00584981
-0.00372506
0.00680112
-0.00494821
0.00543957
0.00282404
0.0150323
-0.00560285
0.00232122
0.00899929
0.00909977
0.0135904
0.0238673
0.00217115
0.0115884
-0.00170388
-0.0109442
-0.0125638
0.00940725
0.0251283
-0.00185016
0.00493069
0.0145417
0.0270289
-0.00197237
-0.00420287
0.0068652
-0.00142867
0.000120631
-0.00426746
0.0100811
-0.00230469
0.00679178
0.0209674
0.0134015
-0.01376
0.0177941
0.0267048
0.0243292
0.0175541
-0.0129757
0.0108393
0.00976607
0.0106472
0.0140981
0.0203939
0.0371134
0.0428509
0.0298948
0.013151
0.0171222
0.0109648
0.0161045
0.00936358
-0.00148697
0.0121104
0.0138051
0.0100953
-0.00132433
0.0143962
-0.00341634
-0.00654452
0.000620171
0.00803904
0.0155092
-0.00670804
0.00533271
-0.00899716
0.0119064
0.00697921
0.0124376
-0.00675904
0.00697023
0.0140309
0.0448497
0.0653371
0.0404109
0.0519713
0.038141
0.0393722
0.0391873
0.0173053
-0.014408
0.0122531
-0.00899459
-0.0324851
-0.0196248
0.00394871
-0.0162318
-0.00519628
0.0281816
0.013384
0.0164794
0.0270695
-0.00575161
0.0120751
0.00698396
0.0322103
0.00811287
-0.00321929
0.0140616
0.0535508
0.0556808
0.063642
0.0373808
0.0397524
0.0353483
0.0251283
0.02822
-0.00657071
0.0126605
-0.0115244
-0.00358558
0.00803384
0.00459891
-0.00588029
-0.00541119
0.0306962
0.0327932
0.0432133
0.0506218
0.0120727
-0.00745504
0.00812041
-0.00217382
0.0267288
-0.00322993
0.0188417
0.0410379
0.0502297
0.0322723
0.0358585
0.0308544
0.0305523
0.0093923
0.0386328
0.00938484
-0.000735348
0.00846313
0.0182987
0.00092319
0.0107754
-0.00958831
-7.66141e-05
0.00617008
0.0158649
0.0164355
0.0258601
0.0221298
0.0242636
0.036741
0.0286311
0.0390425
0.0202562
0.0199272
0.0170725
0.0468296
0.041845
0.0244126
0.031435
0.00980297
0.00259677
0.00326807
-0.00285574
0.0013238
0.00556641
-0.0168396
-0.00273951
-0.0234924
-0.0134991
-0.00291768
0.00494014
0.0205272
0.00713343
0.0291794
0.0381766
0.0454136
0.0429047
0.0383534
0.0565173
0.0532976
0.035245
0.00435282
0.0184266
0.0472635
0.0250346
0.0078119
0.0242667
-0.0137386
-0.0307471
-0.0154464
-0.0116955
-0.00319125
0.0104715
0.00412021
-0.00945075
-0.0110376
0.0059991
0.00881291
-0.018225
0.00833763
0.0233562
0.0257059
0.0193202
0.0465063
0.0483357
0.0644399
0.0501205
0.0314776
0.00793857
-0.021786
0.0215824
0.043829
0.0181741
0.00975813
0.0107388
-0.00175143
-0.00579351
0.0060191
-0.011333
0.00741436
-0.0248675
-0.00892602
0.000558949
0.013611
-0.00464433
-0.00874443
-0.00568841
0.01598
0.00686473
0.0368518
0.0364977
0.00289841
-0.00710812
0.00575948
-0.00265305
-0.00304825
-0.0107659
-0.017457
0.00948499
0.0170329
0.0107128
0.0105541
-0.000900439
-0.021979
-0.0256417
-0.0157946
-0.0105631
0.0148843
-0.0156913
-0.00465336
0.0010084
-0.00586074
-0.00228642
-0.00329545
0.0369649
0.000599123
0.00662688
0.0351035
0.00505409
0.00280619
-0.01395
-0.0295756
-0.0257196
-0.0217388
-0.0348841
-0.0537456
-0.0158426
-0.00819553
0.0178317
0.0171417
0.00930654
0.00434946
0.00876136
-0.0100939
-0.00168217
-0.00383602
-0.00256645
-0.00753395
-0.0139325
0.0104579
-0.00851952
0.0233169
-0.00363481
-0.00296378
0.0104783
-0.00217853
-0.014119
-0.00385044
-0.0319176
-0.0474982
-0.0223387
-0.0233944
-0.0477036
-0.0347121
-0.0152169
-0.00899266
0.0248692
0.0248929
-0.0150824
-0.0182758
-0.0091847
-0.0214241
-0.0143507
-0.00116435
0.00325018
-0.000443162
-0.0176208
0.0109988
0.00849331
0.00576264
0.00873526
-0.00260394
0.00791827
0.00224704
-0.0023078
-0.0146942
-0.0260756
-0.044166
-0.0323741
-0.0411497
-0.0418931
-0.0437544
-0.0228782
-0.00210934
0.0260098
-0.0176183
-0.00501843
-0.0103014
-0.00842123
-0.00655868
-0.0339923
-0.010109
-0.00183151
-0.0226878
-0.0112891
0.00811086
-0.0102055
0.0117835
-0.00576717
-0.014299
-0.0102889
-0.0165773
-0.00646739
-0.0150151
-0.0266424
-0.0368962
-0.0308441
-0.0449641
-0.046547
-0.0344194
-0.0316899
-0.0139743
0.00745457
0.00223599
-0.00781171
-0.0353464
-0.000833138
-0.0223666
-0.0143607
-0.0028563
-0.0278047
0.00146354
0.00326333
-0.00152438
0.000279508
-0.00386996
-0.00585077
0.00612518
0.00850984
-0.0174787
-0.0011414
-0.00608813
-0.00736619
-0.0192294
-0.0355892
-0.0153423
-0.0475537
-0.0391245
-0.0249929
-0.0255104
0.00879119
0.00465649
-0.013312
-0.00804441
-0.00685475
-0.0195217
-0.014419
-0.0138669
-0.0249304
0.00454172
-0.0172399
-0.0113189
0.00165192
0.000262918
0.0412539
-0.00887023
-0.00643291
-0.0142513
-0.0133705
-0.015189
-0.014472
-0.0102261
-0.0109549
-0.022616
-0.0291641
-0.0241577
-0.00353193
0.00390677
-0.0236031
-0.000338653
0.0211513
-0.0168638
-0.00023671
-0.00633368
0.00194777
-0.00870903
0.00181823
0.0127347
0.0036921
-0.00522516
-0.00104176
-0.0104231
-0.00286698
-0.00527827
-0.0133506
-0.0236481
-0.00553343
-0.00670172
-0.00286676
-0.0182794
-0.0157488
-0.0310268
-0.0155173
-0.0182718
0.0042021
-0.000712667
-0.00747588
-0.0277154
-0.00325236
-0.0106509
-0.0127758
-0.016089
-0.0118016
-0.00158176
-7.69687e-06
-0.00598253
-0.00652547
0.00104754
0.0160441
0.0098791
-0.00516905
0.00642219
-0.0273933
-0.00488823
-0.00568826
-0.0106461
0.0115873
0.00200662
0.0245585
-0.00325173
0.0262309
0.0183454
0.0362208
0.0145763
0.00255266
-0.0315651
-0.00483242
-0.0142586
0.0185971
-0.00196864
0.0114985
-0.00195447
-0.0169071
0.000173514
-0.00865039
0.0115361
0.0123219
0.00782287
0.0111852
-0.0101781
0.00262302
0.00325818
-0.0094445
-0.00561177
-0.0127883
0.015874
0.0326382
0.0354762
0.046702
0.026028
0.0162859
0.0285587
0.000394732
-0.00381531
-0.0112991
0.00846068
0.00572174
0.000842124
0.0199514
0.0203782
-0.0103514
0.0128822
0.00783223
-0.00535543
0.00774394
-0.00606042
0.00545443
0.00222319
-0.00293394
0.0138658
0.0118842
0.0215607
0.0207877
0.0334611
0.0300435
0.0150771
0.0346976
0.0380697
0.0259055
0.0224095
0.0113066
0.0224995
0.00984137
0.00474021
-0.00738088
0.000120532
-0.00433578
0.0137319
-0.00402236
-0.00329709
0.0125707
0.0057918
0.00817267
-0.0231957
-0.0112917
0.0169419
0.0154218
-0.00826879
0.00800936
0.011895
0.0225223
0.00644642
0.00542894
0.0282956
0.00880111
0.0105634
0.0123415
0.0166754
0.0182899
-0.000410149
0.00402317
-0.00120424
0.00373868
0.008798
-0.00698986
0.0104159
0.00882584
-0.00581672
-0.00623001
-0.00754809
0.00699686
-0.0160545
-0.00558737
0.00929007
0.00489388
0.00147213
-0.0048962
-0.00646352
0.0219024
0.00427771
-0.00434214
0.000591423
0.00341376
-0.00316532
0.00421641
-0.00712373
0.0198715
0.0115958
-0.0138051
0.00825032
-0.0214866
-0.000307046
0.000317739
-0.00126534
-0.0134512
-0.00461934
0.00967861
0.00993702
-0.00369762
-0.00693949
0.00898514
0.00580906
0.00906312
-0.0123806
-0.00340385
0.0142412
0.025065
0.0130927
-0.00860562
-0.00400242
-0.00550353
0.00538539
0.00483449
0.0100703
-0.00270953
-0.00463858
0.00103726
-0.000781235
0.0163737
-0.00749287
0.00515684
-0.00364308
0.00727721
-0.00878979
0.00446452
0.00520572
-0.00271544
0.000622462
-0.00324302
-0.0140675
0.00331924
0.000751775
-0.00429934
-0.0100199
0.00411456
-0.00192977
-0.00432863
-0.019052
0.0107746
0.00912757
-0.00757788
-0.0146975
-0.00937883
0.0027948
-0.000870681
0.0148838
0.00920017
-0.00966363
-0.00428999
0.0275028
0.00672613
0.0108011
0.0112257
-0.00183104
0.0136871
-0.00719337
0.00502238
0.0135188
-0.0026269
0.00105798
0.00721791
0.0189971
0.0169455
0.00106949
-0.00911382
-0.0119231
-0.0263854
0.0227646
0.0120758
0.00459835
-0.00713611
-0.0205202
0.00541871
-0.00275497
0.00101971
0.00196534
0.00311861
-0.0259885
0.00227899
-0.0123723
-0.00134882
-0.00900543
0.0052879
0.00742956
0.00565017
-0.0097613
-0.0123235
0.0104676
0.00557233
-0.0147
-0.0176225
-0.00320673
0.00168672
0.0209789
-0.00582969
-0.0103749
0.0086795
0.0139135
0.0161668
-0.0153342
0.00807551
-0.00727663
0.000801599
0.0125606
-0.0031202
0.000460476
-0.00472906
0.00339629
-0.00560079
0.00792328
0.0210562
0.0187512
0.000984499
0.0180385
0.00105094
-0.00043102
0.0082318
-0.00577096
0.0158063
-0.00644245
0.0160661
0.0367846
0.0336951
0.020777
0.0342018
0.0206087
0.0281683
0.00889728
0.0140339
0.0111433
0.00262438
0.000610861
0.00881579
0.0171749
-0.0064383
0.00385556
-0.0124496
0.0108563
-0.00483181
-0.00607657
-0.0012972
-0.0013976
-0.00119788
-0.00622796
0.00238071
0.00733371
0.0143956
0.0118085
0.0240551
0.0503891
0.0387652
0.0149885
0.0373482
0.0414932
0.0338175
0.0428894
0.0293132
0.0127592
0.0302491
0.00840213
0.00965145
0.00290458
-0.00480488
0.00361408
-0.0127948
0.00486246
-0.00333029
-0.00223735
-0.00900863
0.00837078
-0.00525527
0.00697063
-0.0234053
-0.00157776
0.0115515
0.00630341
0.00368316
-0.000931786
0.011923
0.00206427
0.0102477
-0.017074
-0.0160804
-0.0268146
-0.0162532
-0.00916114
0.0119656
-0.0155524
-0.00992687
-0.0255407
-0.0170285
0.00650071
-0.0116231
0.00940655
-0.0131552
-0.0117243
-0.00508318
-0.0153462
-0.00547647
-0.0217276
-0.0224877
-0.0120002
-0.0241806
-0.0221863
-0.0155698
0.00917276
0.0243193
0.0349769
0.0340017
0.0230503
0.0257256
-0.00731798
-0.0635257
-0.0345111
-0.028035
-0.0273042
-0.035086
-0.0431502
-0.00647186
-0.00284616
-0.0089002
0.00570713
-0.00933396
-0.0128793
-0.00686522
-0.000397496
-0.0313603
-0.0330562
-0.0287748
-0.0200492
-0.00515347
-0.0241793
0.0108895
0.0291771
0.0716635
0.100977
0.0976182
0.0464332
0.0604896
0.010266
-0.00620977
-0.0420681
-0.0315781
-0.0461798
-0.0678709
-0.0207752
-0.0247556
0.000494244
0.00158859
0.0218207
0.00415632
-0.0117614
0.00680084
-0.00939158
-0.0152348
-0.0010251
-0.0184833
-0.0144969
-0.0166095
-0.00392941
-3.87114e-05
0.0430027
0.065411
0.082241
0.0870892
0.0374076
-0.0132822
0.0090058
-0.00289184
-0.0352923
-0.0226607
-0.00964247
-0.0377827
-0.0093378
-0.0228172
0.0319488
0.0198918
-0.0170052
-0.00344402
-0.012102
-0.0196672
-0.00924181
0.00231582
0.00199669
0.0193976
0.00110148
0.0145686
0.0271791
0.00761183
0.0437744
0.0564669
0.0694285
0.0550314
-0.0074558
-0.0187731
-0.0166183
-0.00642069
-0.0199493
-0.0097375
0.00234181
-0.00767174
-0.0172827
-0.01833
-0.00101666
0.00700481
-0.00697766
0.00120859
-0.00676426
-0.010639
-0.00231844
0.00363203
0.0139101
0.0098097
0.00952701
0.00842551
0.0332426
0.00255665
0.00542973
0.0272172
-0.00519897
0.0130097
-0.0184853
-0.0276686
-0.00672554
0.0269294
0.00454052
0.00406957
-0.00388427
0.0108764
-0.0333492
0.000852959
0.0254738
-0.00979787
-0.00621604
0.00556601
-0.00357206
-0.00191462
0.0232908
0.0408586
0.00817804
0.00976217
-0.0108465
-0.0123967
-0.00433572
-0.0365292
-0.0308523
-0.0419452
-0.00149628
0.00159173
-0.0141696
0.00301273
0.0445359
0.0498042
0.0173127
0.043371
0.0175478
0.0114478
-0.0315399
0.00658543
-0.00681928
0.00612367
0.00168115
-0.0105019
0.0182395
0.00780545
-0.00109619
0.0271112
0.00389168
-0.0105459
-0.0382553
-0.0411237
-0.0507776
-0.0739487
-0.0755951
-0.0438008
0.012649
0.042453
-0.00606978
0.0118239
0.0269722
0.0330901
0.00428944
0.032867
0.00903168
0.00913842
0.00354988
0.00632277
-0.010595
-0.007275
-0.00964681
0.00469388
0.00627776
-0.00852354
0.00506905
0.0108961
0.00550307
-0.00884334
-0.0373861
-0.0599854
-0.0697293
-0.0671882
-0.0222657
0.00408512
0.0383005
0.0317367
0.00148238
0.0108951
0.00348049
0.0136569
0.0218779
0.0247313
0.00374633
-0.00916779
-0.0138613
0.00280472
0.00311385
-0.0101767
0.00491772
0.0017973
-0.00249341
-0.0127545
-0.0032402
0.00046363
-0.0149695
-0.0132237
-0.0420688
-0.0613684
-0.0194148
-0.0102868
-0.0344625
0.0159143
0.0413688
-0.00386865
0.0161307
0.0068907
0.000854846
-0.0435394
-0.00587716
0.0172212
0.00126643
-0.00334999
0.00485319
0.0259272
-0.00220492
0.00561449
0.0179337
-0.00215111
-0.00612689
0.00335234
0.0227175
-0.00883201
-0.0108653
-0.00099423
-0.033425
-0.0483939
-0.0323696
-0.0184214
-0.0099993
-0.00110735
-0.00230168
-0.0132848
-0.0116335
-0.0176803
-0.0209154
-0.0236183
0.00459779
0.00659033
0.00781324
-0.00788218
-0.00616938
0.0197621
-0.0179812
-0.00703203
0.00529577
-0.00261531
0.000527667
-0.0182544
-0.00684044
-0.0233621
-0.0218211
0.0118586
-0.0175866
-0.0380069
-0.0251323
-0.0279811
0.000663384
0.011796
-0.0215965
-0.0381872
-0.00716876
-0.0407315
-0.01427
-0.0599453
-0.028354
0.00325303
-0.0144795
0.00351339
0.005756
0.0237155
-0.0052983
-0.000967744
0.000916051
0.00523805
0.00983525
0.0150179
0.00578847
-0.0199748
-0.0239755
-0.000849225
0.0168832
-0.010671
0.0207793
0.0418804
0.0260729
-0.0173823
-0.0184864
-0.0043346
-0.046263
-0.0332892
-0.0238079
-0.0174705
-0.0189679
0.00732005
0.00484353
-0.00346013
0.00154633
0.00256586
-0.00120965
-2.88129e-05
0.0187735
-0.0145882
-0.00344015
0.00673923
-0.00713963
0.00020846
-0.0211046
-0.00239916
0.00289228
0.0406761
0.0734224
0.0505019
0.0225537
-0.0112523
0.0196137
0.0146093
-0.00945233
-0.0181883
-0.0127915
-0.00744819
-0.0219675
0.0124443
-0.00029762
0.000433387
0.0196666
0.00994089
0.00983635
0.00975412
-0.00700159
0.00790525
-0.00509149
-0.00596872
0.0131206
-0.025312
-0.036657
0.00519345
0.00956545
0.0375712
0.0377036
0.0579949
0.0310774
0.00625874
0.0490912
0.0479654
0.0123182
-0.0139774
0.0187449
0.00769453
0.0103693
0.00661274
0.0111693
0.000333183
0.000156118
0.00390708
-0.0165586
-0.00880293
0.00617106
-0.017069
0.0103616
-0.00189653
-0.00817146
-0.00451147
-0.0139903
0.00721361
0.0173107
0.00203225
0.0292997
0.0171912
0.0119518
0.0297155
0.0304642
0.0233037
0.0155283
0.00604298
-0.00453505
0.0147056
0.0103049
0.00329369
0.0252034
0.024965
0.0188771
0.00152055
0.000668014
0.00477212
0.00477722
0.00510137
0.00830812
-0.00625224
0.0132467
-0.00945396
-0.0252369
-0.00280135
-0.0146567
-0.0122873
-0.00568153
-0.0101349
-0.00979878
0.000538664
-0.00648262
-0.00505588
-0.0198573
-0.00102942
0.00719155
0.00207223
0.02957
0.000482865
-0.0135945
-0.0126317
-0.00689643
-0.00808612
-0.00852073
0.0217949
-1.5634e-05
0.00202564
-0.00314663
0.00960616
-0.0130615
0.00258675
0.00119925
-0.0170291
-0.0249135
-0.0263376
-0.0442795
-0.0577653
-0.0517175
-0.0641128
-0.0255505
-0.0479126
-0.0102614
-0.0160671
-5.97051e-05
-0.0129831
-0.0337535
-0.000326957
-0.0140608
0.0235096
0.0135377
0.00925922
-0.00763544
-0.00432666
0.00321143
0.000895121
-0.0105074
-0.000629168
-0.0148295
0.000954719
-0.00417978
-0.0157625
-0.00969814
-0.014687
-0.0394934
-0.0274717
-0.0377395
-0.0407243
-0.0455124
-0.0253945
-0.00581574
-0.0306348
-0.00335112
0.00879084
-0.00788146
-0.00801243
0.00346966
-0.00266976
-0.0145739
-0.00350896
-0.0163987
-0.00191164
-0.00564324
0.00624401
0.00905525
-0.014561
-0.0073868
-0.00680821
-0.00743196
-0.00346865
0.00597973
-0.00331914
-0.00819661
0.00824455
0.0162006
-0.0048856
-0.0107895
0.0318673
0.0199908
0.0147795
0.0158617
0.018765
0.0199886
0.00848708
-0.00289735
-0.00187148
0.00591978
-0.00400737
0.0102916
-0.0280051
-0.0038194
0.0254098
-0.00723932
-0.00543067
0.00217466
0.0132266
0.0254989
0.0136467
0.0385573
0.0491387
0.042167
0.0420864
0.0557733
0.0336909
0.0319214
0.0202473
0.0383128
0.0468958
0.0283428
0.00689211
0.0249238
-0.00369712
-0.0250767
-0.00761105
0.00900789
0.0195346
-0.00114706
-0.00734654
0.023435
-0.0078323
-0.00502885
0.0234621
0.000543893
-0.0101674
0.00992088
0.00929249
0.00900481
0.0120197
0.0180283
0.0375133
0.00536286
0.0180742
0.0262531
0.0121348
0.0297618
0.00390147
0.00508007
-0.01824
-0.00278656
0.00066901
0.012899
0.0128294
0.00795437
-0.00719176
-0.0258886
0.0127368
-0.0120499
0.000969438
0.010685
0.017256
0.00201878
-0.0021494
0.00199651
0.00825319
-0.00833284
0.00723019
0.000172692
-0.00523494
0.0199981
-0.00577336
-0.00011659
0.0125422
0.00525492
-0.00152339
-0.00626401
-0.00517054
0.002817
0.0133924
-0.00814203
0.0291274
0.000409133
-0.00576451
0.00452846
0.01368
-0.0257161
0.00295917
-0.013718
-0.00615685
0.0124569
-0.00315829
-0.00165016
0.00392041
-0.0199798
0.00527698
0.00283033
0.00770602
-0.0223555
0.00522211
-0.00550644
-0.00435268
0.00518841
-0.013392
0.00363743
-0.0146941
-0.00330652
-0.0125806
0.0047591
-0.011302
0.00706646
0.0100907
0.0126276
0.0014993
0.0212344
-0.00541245
-0.00266486
0.00659349
0.00488646
0.000740468
0.000920794
0.00461171
-0.0039872
-0.000687503
0.0301639
-0.000130946
-0.00684242
0.0115508
0.000217131
-0.023935
-0.0177651
-0.00501051
0.0111683
-0.0080121
-0.000442951
0.00300408
-0.00133982
0.0108997
-0.0260603
-0.0113359
0.0130436
-0.0116857
0.000401663
-0.00370903
-0.00829366
-0.0167561
-0.000232168
0.0151086
-0.0183535
0.00294222
0.00889081
-0.0036482
-0.0161862
-0.0102271
0.0136132
0.00798052
0.000956818
0.0104581
0.0115044
-0.000418079
-0.00851239
0.0155022
-0.00604985
0.00819634
0.0187853
0.0207777
-0.00586367
-0.00265525
-0.0137642
0.00254644
0.00686986
-0.00161561
-0.000159501
-0.0111253
-0.00264553
-0.00771859
0.0154855
0.00630943
0.016517
-0.0178424
-0.0115325
-0.0197674
-0.0054556
-0.00168522
-0.0113125
-0.00993983
-8.8195e-05
0.00128494
0.00581406
-0.00432457
0.00532142
-0.00211559
0.00207004
-0.0071598
0.00111487
0.0166281
5.76059e-05
-0.00241958
-0.00195202
0.000437743
-0.00509043
-0.0169074
-0.00334472
-0.0296355
0.00350046
0.000162778
-0.00541437
-0.052544
-0.0334847
-0.0280625
-0.0253449
-0.0278909
-0.0250722
-0.031198
-0.0229233
-0.0205187
-0.0159122
-0.000613668
0.000609281
-0.00276704
0.0143693
-0.00476099
-0.0110246
0.0224987
-0.00435858
-0.0108201
-0.00716556
-0.00276748
0.019077
-0.00380149
-0.0128092
0.00137213
-0.0103257
-0.00388545
-0.0158965
-0.031392
-0.0497502
-0.0334716
-0.0647194
-0.0194859
-0.00428354
-0.0280712
-0.00420693
-0.0191908
-0.000460732
-0.00219543
0.0258303
0.0273182
0.0312117
0.0162751
0.0194553
-0.000521621
-0.0027502
-0.00774698
0.0123864
0.00799034
-0.0139759
0.00326799
-0.0127869
0.014163
-0.017227
-0.001043
-0.0225503
-0.0282292
-0.0308287
-0.0452951
-0.0326726
-0.019008
0.0104257
0.00202184
-0.0112219
-0.0138396
0.00156332
0.0337429
0.0149142
0.00914052
0.015249
0.0260793
0.0206255
-0.0160549
0.0165954
-0.00407504
-0.00886493
0.00797106
-0.0104343
0.00934966
-0.00372131
-0.0228458
-0.0234258
-0.0157071
-0.0405325
-0.0204887
-0.0243165
-0.01113
-0.004053
0.00811237
-0.000253849
0.0262661
0.00789212
0.0301676
0.0205399
0.012943
-0.0289049
-0.00255287
0.00234274
-0.012321
0.00727288
0.015025
0.0210677
0.0109208
-0.00279914
0.0124483
-0.012034
-0.0233937
-0.0122325
-0.0177559
-0.0523525
-0.0435196
0.00693621
-0.00810714
-0.0159126
-0.00750188
0.0210381
0.00314642
9.87254e-05
0.00463234
0.00704833
0.0121367
0.0248276
0.0163062
-0.0234634
-0.0172872
0.0049206
0.0129627
0.0210514
0.0179617
0.0102566
0.0013944
0.0153479
0.00340037
-0.0128825
0.00397902
-0.0111346
-0.0252126
-0.0248799
-0.0129276
0.00227808
0.0314309
0.00923367
-0.0048364
0.00863768
-0.000312684
-0.027626
-0.0212186
-0.0281308
-0.0333564
0.000365769
-0.00405977
-0.0132562
-0.0162485
0.00220153
0.0224003
0.0126733
1.24332e-05
0.00382081
-0.00463984
0.00180911
-0.0118225
0.00314784
-0.00584708
-0.0114451
0.0116703
-0.00470176
0.00042478
0.0378564
0.0250957
0.0229584
0.00698275
0.00426228
-0.0127277
-0.0322221
-0.0471375
-0.0197399
-0.0519452
-0.0121848
-0.0296817
-0.0268116
-0.001887
0.0131635
0.0119883
-0.00731973
0.00882817
-0.00932247
0.0119631
-0.0019526
0.0146955
0.00434582
-0.0102208
-0.0120263
0.0141071
0.0273674
0.0349699
0.0448297
0.0496626
0.0229249
0.0151419
0.0062196
0.0237637
0.0184609
-0.00411162
-0.0239774
-0.042413
-0.0296247
-0.0213667
0.00709616
0.0184747
0.0287049
-0.00143822
0.0232952
0.000632702
6.23279e-05
-0.000849784
0.00874972
-0.015721
-0.00460851
0.0101949
0.0166927
0.0127152
0.0149386
0.04388
0.0489205
0.0670957
0.0587986
0.0263266
0.0131995
0.0380483
0.0276186
0.0135191
-0.00956861
-0.0280941
-0.0248185
-0.00648955
0.0179855
0.0405321
0.0312109
0.0348431
-0.000211497
0.00740612
-0.00555705
-0.0202818
0.013379
0.00304528
0.000803719
-0.00194509
-0.000844734
0.00702937
0.0269473
0.0669465
0.0314154
0.0340922
0.0474124
0.0226729
0.00684198
0.0465524
0.0378293
0.0348472
0.0133949
-0.0111786
-0.010133
-0.0116927
0.00467163
0.0174497
0.0420433
0.0196825
0.0121137
0.0146247
-0.0221363
-0.00842468
-0.00576779
-0.00790255
-0.00101508
0.00534719
0.00130855
0.0180672
0.0473662
0.0413765
0.0187959
0.0166152
0.0410132
0.01267
0.000513944
0.0127582
0.0235091
0.00896689
0.0214519
-0.00787495
-0.0407314
-0.0163065
0.0123939
0.00745313
0.038582
0.025525
0.0114415
-0.0138826
-0.0155667
0.0215991
0.006378
0.0177525
-0.00624649
0.0043415
-0.0112029
-0.00265536
0.0107992
0.0101626
0.0246927
0.0500902
0.0318838
0.0215323
0.00474634
0.0249195
0.035219
0.014013
-0.0194251
-0.0271503
-0.0244508
-0.0339548
-0.0083656
0.00364904
0.0245842
0.0148134
-0.0114365
-0.0114357
-0.00193935
-0.00843082
-0.00887581
-0.00969918
-0.0102284
-0.0179879
-0.000977394
0.00700501
0.0285783
0.00182727
0.0516519
0.0324231
0.0351424
0.0391456
0.0347007
0.00911136
0.0308228
0.00736073
-0.0195991
-0.0139506
-0.0239758
-0.00612749
-0.0164296
-0.00513317
0.0155844
0.0262745
-0.000487941
-0.0103527
8.34162e-05
0.0138957
-0.0066006
0.00842152
0.00832349
-0.0131473
0.0101404
-0.00974105
0.0129879
0.0395937
0.0403413
0.0433738
0.0413783
0.0194315
-0.00730663
0.0007482
0.00817548
0.00460926
-0.00841186
-0.0434491
-0.0188963
0.00716092
-0.0152858
-0.00672789
-0.0285188
-0.00162978
-0.0286083
-0.020193
0.0101527
-0.00280097
0.0109504
0.00200459
-0.0106517
-0.022247
-0.0147194
-0.00308714
0.00817365
0.0168952
0.0150605
0.0230855
0.0168745
0.0254755
0.0124884
-0.0185358
0.00983152
-0.0129484
-0.00776467
-2.9357e-05
-0.0319554
-0.00529824
-0.00405676
-0.0196947
-0.0123311
-0.0249907
-0.015014
-0.0215669
-0.00737731
-0.000319075
-0.02787
0.0102487
-0.0132341
-0.0146122
-0.0205658
-0.0337802
-0.00459635
0.0199284
0.0278765
-0.00668996
0.0091764
-0.0203723
0.00413175
0.00197917
0.0122934
0.019095
-0.000304707
0.00643161
-0.0104721
-0.013896
-0.0206062
-0.033016
-0.01315
-0.0121005
-0.0239778
-0.0180739
0.0151471
-0.00821676
-0.00316415
-0.0160834
0.00474675
-0.00654195
-0.0424129
-0.0262487
-0.00754791
-0.0136715
0.0106664
0.0013254
0.0115083
-0.0234598
0.0328595
0.00367599
0.0136812
0.0295111
0.0218306
0.0137843
0.00459011
-0.0206951
-0.0252582
-0.027796
-0.0113949
-0.0296015
-0.0213778
-0.0134203
-0.0147351
0.0132324
-0.00184318
0.000504914
-0.000265589
-0.0174479
-0.0339449
-0.0108693
-0.008176
-0.00697654
0.00229299
-0.0120245
-0.00679136
-0.00558535
-0.0105672
0.0377461
0.00991368
0.0117617
0.00993318
0.00587596
0.00453256
-0.00609022
-0.0194575
-0.00827272
-0.0121319
-0.0186328
-0.0299113
0.00113209
-0.00537741
-0.0141458
0.00930613
0.00309883
-0.0075969
0.00127259
0.00131582
-0.0192055
-0.0111622
-0.00255781
-0.0100615
-0.0327502
-0.0165534
-0.0055576
0.013839
0.00764155
0.00909999
0.00192968
-0.0016244
0.0291574
0.0196729
0.00788433
-0.00727305
-0.0158923
-0.0357812
-0.00621818
-0.00704252
-0.0124467
-0.00130149
0.00879137
-0.00356938
-0.0169027
0.0156886
-0.00307853
-0.003785
-0.0177549
-0.0109003
-0.00658812
-0.00863822
-0.025891
0.0043547
-0.000393455
0.0239339
0.0179651
0.0147358
0.00613502
0.0370602
0.0365452
0.0189631
0.0389602
0.00713546
-0.0119676
-0.0205656
-0.00324807
-0.00801764
-0.00266543
-0.013467
-0.000526843
-0.0222099
-0.00253412
-0.0177088
0.00846321
-0.0199357
-0.0158233
-0.0241025
-0.0233798
-0.0182519
-0.0124825
-0.0293396
-0.0104708
-0.00642662
-0.020636
-0.0180051
-0.0207274
0.0219643
0.0417194
0.00565811
0.0312587
-0.00559499
-0.00204603
0.0259509
0.0067157
-0.00987408
0.00870927
0.00829076
-0.0139134
-0.000996787
-0.0138302
0.00278691
0.00551139
0.0134674
0.0118223
-0.0210497
-0.0165047
-0.0374783
-0.00685896
-0.023073
-0.0230069
-0.0526934
-0.0317916
-0.0321305
0.00116685
0.0175203
-0.00118963
0.0150866
0.0135384
-0.0114101
0.000764221
-0.0100512
0.00285962
0.000253269
-0.00728799
0.00655962
0.000453704
0.00205256
-0.00763714
0.00619418
-0.00557481
0.007195
-0.00998178
-0.005115
-0.0278636
-0.00839033
-0.00727681
-0.0264877
-0.0126204
-0.00942226
-0.0285922
-0.0225473
-0.00679503
0.0096499
0.0087433
0.00254511
0.00153662
0.00593017
0.00688317
-0.0058144
-0.00817314
-0.00311327
0.00512535
-0.00471872
-0.0112786
0.0113336
-0.00339332
0.004969
0.000825441
0.00319393
0.00595189
0.0144676
-0.0164273
-0.00940052
0.00873802
-0.00361693
0.00176957
0.0103815
-0.024562
-0.0185124
-0.0128656
-0.00290545
-0.00211231
-0.010988
-0.00360473
-0.000794107
-0.00872335
-0.00610552
0.00895587
-0.00911104
0.00513182
0.000715894
0.0107019
-0.00986181
-0.00602795
0.0188133
-0.0019305
-0.00162768
-0.00183815
0.00742599
0.00724084
0.0150285
-0.00554107
-0.00527669
-0.0122828
-0.0128398
0.0136875
-0.00622533
-0.00331695
-0.0231492
0.00524268
-0.0125263
-0.00537411
-0.0151691
-0.00419254
0.000954304
0.0172372
0.00960722
0.0219852
0.00731617
-0.000698269
0.00578846
-0.00282166
0.0111664
-0.00197775
-0.00578377
-0.00910246
0.00488427
0.00464626
0.00467237
-0.0128339
-0.0188762
-0.0120704
0.0115468
-0.00811458
0.0098416
-0.00476182
0.00640741
-0.0082235
-0.00518222
0.0024739
0.0167276
0.0151304
-0.0034788
-0.000439967
-0.00199505
0.0146641
-0.000169156
-0.0186677
0.00567978
0.00182375
0.0138705
0.00348263
-0.00775079
7.77847e-05
-0.0140826
-0.00911224
0.0093325
-0.00175273
-0.00097345
-0.00170258
0.00599204
0.00753263
-0.0157359
-0.022924
-0.0156198
-0.000775542
0.0175733
-0.00858776
-0.00705589
-0.00823889
0.0051763
-0.00068185
0.00179622
-0.0203982
0.0135808
-7.35154e-05
0.0114506
0.00166723
-0.0123212
0.0133974
-0.00360554
0.00129975
-0.00316217
-0.0137947
0.0164591
-0.0229381
0.0101872
0.0129762
-0.0163855
0.00338859
-0.01334
-0.0199359
-0.0429748
-0.0206344
-0.0290225
-0.0318187
-0.0049871
0.00387839
0.000651976
-0.000159659
0.0135053
0.0130393
0.00474082
0.0157596
-0.00629031
-0.014794
-0.0176239
0.0168121
0.00813734
-0.00725173
-0.00312001
0.00477563
-0.0145459
-0.00416335
-0.00221776
-0.00709839
0.00538643
0.0164309
0.00289426
-0.00871334
-0.0052002
-0.0160275
-0.0237603
-0.0110927
-0.0206066
-0.0182787
-0.00755692
-0.00618754
-0.00468439
0.015854
0.0272586
0.0113201
0.0198957
0.00713101
0.00349736
0.0215382
0.0123993
-0.00817226
-0.0079139
0.00244692
0.000209607
0.0138942
-0.00288474
0.0150053
0.0155849
0.0129739
0.0283145
0.0220763
0.0389022
0.0283428
0.0229226
0.0146311
0.0225406
0.00675812
0.017099
0.00673598
-0.000607818
0.00235787
0.00647616
-0.00272827
0.000713005
-0.00586506
-0.00259494
0.00599385
-0.000850431
-0.0100307
-0.00693198
0.00468241
0.00465075
0.019985
0.017836
0.0158129
0.0205766
0.0221044
0.0124324
0.00380889
0.00423899
-0.00256152
0.0305711
0.0265988
0.021261
0.00609381
0.00657977
-0.00311393
0.00732471
0.022441
0.00677078
0.012818
-0.00794822
-0.00567129
0.0079804
0.00758219
0.0188067
0.00260552
0.00342959
0.00672004
0.00966694
-0.00499099
0.0188327
0.0256433
0.0171159
0.000828125
-0.0118375
-0.0201877
0.014878
0.0142669
0.044602
0.0311537
0.0213663
0.0248717
0.0169881
0.028129
0.00747297
-0.00489113
-0.0122557
0.00451789
-0.00712631
-0.00782092
0.00224778
-0.00519859
0.0155863
0.0110203
0.0145639
0.0132163
0.00763487
0.012113
0.00424189
0.00139146
-0.00980969
-0.0135951
-0.00899126
0.025532
0.00992556
0.0100865
0.0219792
0.0200746
0.0237222
0.0106474
0.0186332
0.0188131
0.00620332
0.0201756
0.0204662
-0.000711401
0.00420795
-0.00711886
0.0105847
0.00707037
-0.0104017
0.023917
0.000946796
-0.00892477
-0.0152341
0.00368106
-0.0131627
-0.00846024
0.00587454
-0.0104763
0.0153454
0.0149427
0.0208733
-0.000568228
0.0132982
0.0307238
0.0105703
0.0208915
0.0127304
0.0267576
0.0395805
0.00808642
0.00197613
0.00536671
0.00660765
0.00136652
-0.00610822
-0.0022618
-0.0175438
-0.0179163
-0.0155547
0.00323879
0.00350383
0.00600617
-0.013146
-0.000592354
-0.0309028
0.00132856
0.0127683
0.00983222
-0.0102082
0.00288002
0.00224357
0.00253208
-0.0184006
0.00305359
0.00303465
0.0154398
0.0300956
-0.00206361
0.00731936
-0.00726576
-0.0287318
-0.00947572
-0.0044774
-0.000399277
0.00423052
-0.00611382
-0.0163854
0.00918445
0.00452103
-0.0173975
-0.000978259
-0.0108246
0.0106942
0.0277944
0.01497
-0.0143392
-0.0261439
-0.0255265
-0.014983
0.0180414
-0.00750985
-0.00907394
0.0112843
0.00156153
0.0282445
0.00943003
0.00344112
0.00262149
0.0146893
-0.0100333
0.0180264
-0.0104585
-0.00849736
-0.00698019
-0.0040005
-0.00539984
-0.0143533
-0.00346548
-0.00330759
0.0320812
0.0115923
-0.00475459
-0.00628871
-0.00370572
-0.0345773
-0.0271533
-0.0103203
-0.0179297
-0.0145883
-0.00715953
-0.0188342
0.0155261
0.0131753
-0.0211854
-0.0011755
0.00530846
-0.0168754
-0.0087424
-0.00292996
0.00908758
0.00365684
-0.0112219
-0.0102542
-0.000754726
-0.00977514
-0.016277
0.00345132
0.00249049
-0.0025677
-0.00954491
0.00970502
-0.0210503
-0.0381381
-0.0342477
-0.0386614
-0.0286093
-0.0315753
-0.00503926
-0.00497778
-0.00343907
-0.00795381
5.51641e-05
0.00210217
0.00863535
0.0134667
-0.00231516
0.00376601
-0.0191171
0.000737602
-0.0155811
-0.0131532
-0.00107971
-0.00698818
-0.00209101
-0.0093872
-0.00214756
0.0130153
-0.00273021
0.0126624
-0.0290502
-0.037617
-0.0442149
-0.0259771
-0.0350589
-0.00832081
-0.00628689
-0.00884348
-0.0152482
-0.00406863
0.00477675
0.0182467
-0.0163726
0.0095357
0.00815087
-0.00667064
-0.000759627
0.00601072
0.0058317
0.000914455
-0.031457
-0.0378716
-0.000953512
-0.00815287
-0.0109962
0.00393
0.0197678
-0.0136596
-0.0324668
-0.0255192
-0.0344307
-0.0389835
-0.0217264
-0.00259953
-0.00279738
-0.021339
0.0009354
0.00346309
0.0226235
0.0015301
-0.00893942
-0.00504358
-0.00319579
0.00355466
-0.000835047
-0.00886825
-0.000511202
-0.025247
-0.0193701
-0.0201826
-0.0174429
-0.0102023
-0.00300211
0.0185663
0.022267
-0.0110606
-0.0536028
-0.0574585
-0.0304185
-0.0291733
-0.0283722
-0.00915026
-0.0114847
-0.0375147
-0.0265121
0.0126788
-0.00152858
3.12957e-05
0.00120201
-0.00671968
0.000850904
0.00335426
-0.0130537
0.0199717
0.0120624
-0.010372
-0.0317221
-0.0259809
-0.0317202
-0.0133745
-0.0108912
0.021035
0.00656907
-0.0442147
-0.039856
0.00437091
-0.028681
-0.0242821
-0.023545
-0.00810814
0.00619388
-0.0036042
-0.00380464
-0.000305342
0.00222994
0.000794757
0.00200308
-0.0109495
-0.00608045
0.011301
0.00423475
0.00242119
-0.00509789
0.0157773
-0.011555
-0.00754239
-0.00311925
-0.0120827
-0.00854355
-0.00700089
0.00390226
-0.0299517
-0.00699252
-0.00385439
-0.00874928
-0.031375
-0.00103827
0.00894227
-0.0163836
0.00649455
0.031547
0.0230847
-0.00402413
-0.00565562
-0.0051622
0.00592896
-0.013363
0.00162695
0.00485336
0.0130111
0.0112463
0.0342739
0.0488373
0.0077922
0.0196412
0.00430821
-0.0276231
-1.47818e-05
-0.0014746
0.00647142
-0.0106682
0.0180038
0.0349279
-0.00457489
-0.00346011
0.0125017
0.00981296
0.018007
0.0222138
0.00809485
0.00713937
0.0283165
0.00439359
0.00526254
0.00902189
-0.000151038
0.00585787
-0.00822131
0.0170421
0.0155712
0.030209
0.0200235
0.0393603
0.00761095
-0.0123745
-0.00727962
0.00926532
-0.00540928
-0.00365036
0.00967875
-0.00881407
0.0181132
0.0104873
0.00528998
0.0142685
0.00647041
0.0167848
0.0123924
0.00544419
0.00606366
-0.000735123
-0.000221923
0.00960187
0.0113296
-0.00840416
0.00440965
0.0256911
0.0267798
0.0371734
0.00696988
0.0228863
0.0276947
-0.00103095
0.0152401
-0.00408814
0.00663603
0.00579699
0.0250084
0.0151627
0.0392659
-0.009156
0.00751367
0.00845015
0.0111764
0.0167671
0.000541095
-0.00577397
0.00204168
0.00182673
0.0022315
0.0102542
-0.0106326
-0.00375914
0.00484353
0.0173857
0.0271677
0.0311822
0.00181788
0.019679
0.0405119
0.0348495
0.0428707
0.0362744
0.00981846
0.0260293
0.00812841
0.0310448
0.0199207
0.0222029
0.0239727
-0.00151325
0.0159904
-0.010142
0.00313316
-0.00175105
-0.0075018
0.00206217
-0.00618838
-0.000129254
-0.00291042
-0.0132921
-0.0167412
0.00818474
0.00166693
0.00375193
0.0198711
0.0254791
0.0324256
0.0558706
0.0406122
0.0311715
0.0515501
0.0349751
0.0390426
0.0143809
0.00708884
-0.00183484
0.00218426
-0.0058696
0.00601889
0.00154873
0.0157312
-0.00707827
-0.0055595
-0.000367907
-0.022952
-0.0019428
0.0102852
-0.0131811
0.00746666
0.0120964
-0.00176539
-0.00654703
-0.0142091
0.00570243
-0.0148314
0.00655141
0.00341437
0.0187474
0.0120414
0.0182659
0.0219961
6.64119e-05
-0.0209873
-0.0133553
-0.0168924
0.00384968
0.00133456
-0.00831813
-0.0159855
-0.00030821
-0.00222969
0.0103276
0.000333829
0.00710464
0.00196634
-0.00504542
0.0126438
-0.00259963
0.000859629
-0.0141495
-0.000632162
-0.0244245
-0.023585
-0.0313815
-0.0190338
-0.00709818
0.0024382
-0.0224368
-0.0173214
-0.00730904
-0.0181613
-0.00393451
-0.00566826
0.00566495
-0.0097196
5.95173e-05
0.000948561
0.00918266
0.00379711
-0.00216227
-0.0154297
0.00747299
0.00586171
-0.0123781
0.00274196
0.00881602
-0.0150305
0.0161329
-0.0148115
0.00154849
-0.0226761
0.00774441
-0.0108595
-0.0130052
0.00820391
-0.0144743
-0.00678535
-0.0159696
-0.00115126
0.00433655
0.00464366
-0.0132035
0.00463624
0.012637
-0.00168744
-0.0113368
-0.0120779
0.0158063
-0.00616458
-0.0154458
0.00878361
-0.00375155
0.00912201
0.00302788
-3.95356e-05
-0.00010233
-0.000244256
-0.00286161
-0.0039099
0.00722793
-0.0198353
0.00431976
0.00632644
-0.0077433
-0.00473796
0.00531596
-0.0166523
-0.016165
-0.0330895
-0.00310904
-0.00254999
-0.0297365
-0.0112767
0.00735903
-0.00149419
0.00538987
-0.0127066
-0.00348278
-0.00971889
-0.00754967
0.00333586
0.00671537
0.0042864
0.00500564
9.32234e-05
-0.0018829
-0.0143841
-0.00799333
-0.00941163
-0.00473202
0.0177024
0.00023628
0.0143952
0.0139992
0.000450115
-0.000530032
0.0168183
0.00353109
-0.00356867
-0.00475355
-0.000335257
0.0162203
0.0133935
0.0235096
0.00396804
0.00128364
0.000372396
0.0129511
-0.00249985
-0.00147066
-0.00478783
-0.00511411
0.00913434
-0.00263417
0.00533863
0.00673586
-0.00782561
-0.000152445
-0.00963606
0.0112766
0.00235985
-0.0026323
-0.00225729
-0.000136417
-0.00402245
0.00830547
-0.00723199
0.00702744
0.0146979
0.00436912
0.0124869
0.00216617
0.0024589
-0.00813168
-0.00970575
-0.0102303
-0.00860194
-0.0018208
0.0116808
-0.0169561
-0.00543471
-0.0222766
0.015076
-0.00121415
0.00537287
-0.0110724
0.00599066
-0.0129013
-0.00438061
-0.00117438
0.0225814
0.00954256
0.0156878
-0.00185841
-0.00831559
-0.0083418
-0.0100047
-0.00081657
-0.00230059
0.00463429
-0.0262075
0.0018778
-0.00301124
-0.0246553
0.0107915
0.00349577
0.00211463
0.00894074
-0.00907166
0.00936334
-0.00670751
0.00713687
0.00436044
-0.000321428
-0.00339656
-0.000722536
0.0107511
-0.00534144
0.00831923
0.0164955
0.00689303
0.00457295
-0.039464
0.00861302
0.00477105
0.00224225
-0.0080411
0.0133957
0.00197868
-0.009354
-0.00132264
-0.00298897
-0.0145125
0.00327157
-0.0115459
-0.00711853
0.00827973
0.00162066
-0.00895805
0.00495611
-0.00258591
-0.00914985
0.0119921
0.00923808
-0.000656009
0.00374401
0.0214218
0.00565016
-0.0171155
0.0181305
-0.00916687
-0.00177367
-0.00109728
0.000124655
0.00295812
0.000377164
0.00772522
-0.00803891
-0.00733471
-0.000934527
0.00348029
-0.00160981
0.0121468
-0.0100485
-0.000356945
-0.00209652
0.0102436
0.000955579
0.00709793
0.00108605
-0.00930921
-0.0153226
-0.00525593
-0.0030082
-0.0206242
0.0136317
-0.00105389
0.00133113
-0.0111417
0.0178302
-0.00674705
-0.00560631
0.00772597
-0.00778709
0.00671773
0.00128199
-0.0034452
-0.00440172
0.00497545
-0.0108003
0.0113605
0.000936115
0.0143882
0.00511674
0.0188691
0.00971596
0.00428237
0.00777854
0.00340496
0.00356469
0.00898233
-0.0077187
-0.00297901
0.00389563
0.0191214
-0.00368
-0.00773829
-0.00536111
-0.0235324
-0.00376106
0.0110389
0.000568362
0.00211557
-0.00586528
-0.00746028
0.00404859
0.0152516
-0.0123347
0.00116553
0.00293174
0.0147965
0.00726372
-0.00453863
-0.0139977
0.00387453
0.0116992
-0.00167229
0.0180889
-0.000973714
0.0204285
-0.00497907
0.00399624
0.00369392
-0.00192535
0.00274465
-0.00169386
0.00404278
-0.00409436
0.00838778
0.0106876
0.0184389
0.00539011
-0.00699843
0.000468244
0.0159998
-0.00617557
0.00196859
0.0132286
-0.00564357
-0.015796
0.0237367
0.0231308
-0.00905034
0.00459293
0.00659733
-0.000650957
0.014858
0.00232131
-0.0114584
-0.00733497
0.0129597
-0.00267116
-0.00202996
-0.00169699
-0.00341174
-0.00465305
0.0131079
0.00661288
-0.0117048
0.012991
0.0216811
-0.0117232
0.0131065
-0.0120022
-0.0187899
-0.0152842
-0.0217114
0.0135882
0.0145358
-0.00428799
0.00605357
-0.0136815
-0.00347827
0.000900519
-0.00252118
0.0233809
0.0070008
0.00229038
0.00638405
-0.0010133
-0.00363965
0.0112048
0.021826
-0.000210644
-0.0167727
-0.00872999
0.000224177
-0.0093053
0.0206599
-0.00258971
-0.00284834
0.0110485
0.0140119
0.000373634
0.00907837
0.00131805
0.0177543
0.0170205
-0.00601709
-0.00903213
-0.0103201
0.0021376
-0.0113474
0.00821905
0.00718936
0.0142625
-0.00890353
-0.00795807
0.0164478
0.0154456
-0.00167648
-0.0124754
0.000499016
-0.0035463
-0.00902266
0.000797387
0.00629331
0.00727451
-0.0172531
0.00194102
0.00717411
-0.00638142
0.0261348
-0.0188984
0.00132276
-0.0148499
0.00432588
0.0107469
-0.000911483
0.000644768
-0.00651687
0.00926808
-0.00509666
-0.00519488
0.00361449
0.0146324
0.00810133
-0.0025556
0.0153982
0.0120608
-0.0152863
0.00347237
-0.00344207
-0.000527037
-0.00193367
0.00570256
-0.000677379
-0.0115768
0.0107777
0.00325237
8.41976e-05
0.0175783
0.00188679
-0.0024406
0.00550865
-0.0018266
-0.00487801
0.00983032
-0.0102787
0.0122769
0.0075779
0.00795331
0.0059711
0.000675223
-0.00243955
0.0038608
0.00809828
-0.00181755
-0.0121684
0.00118413
-0.00527792
-0.00678548
-0.0203488
-0.0107464
-0.0156206
-0.00945656
-0.00726335
-0.00215364
-0.00810719
-0.00253477
0.00573648
0.00262919
0.00458181
0.00290574
0.00460324
0.00939954
-0.00436937
0.00770082
-0.00549175
0.00759025
-0.0102528
-0.00320512
0.000226635
0.00212552
0.00149222
0.00680408
0.00215109
-0.0101957
-0.0197702
-0.00264524
0.00327419
0.00745183
-0.004054
-0.014896
0.00943562
0.00580649
0.00793616
0.00832519
0.011631
-3.83209e-05
-0.0103226
-0.00226587
0.00433399
-0.0054455
0.00368869
-0.00122661
0.00812016
0.00165582
0.00639509
-0.00656251
0.0118783
0.00895067
-0.0153939
-0.000459385
0.0126684
-0.0108
0.000175647
-0.00780146
-0.00539177
0.00222001
0.0162358
0.00185696
0.016322
0.00641333
0.0106064
-0.00832739
-0.0136993
-0.00657066
0.00676006
0.00152346
-0.0152408
0.00489768
0.00196064
0.00547794
-0.00282427
0.0187597
0.0139134
0.00735902
-0.00675477
-0.000577076
0.0186223
-0.00101908
-0.00486082
-0.015266
0.00399258
-0.000985003
0.00688754
0.0219333
0.00702132
-0.00862216
0.0136826
0.0137331
-0.00946096
-0.000803352
0.0203687
-0.00295286
0.0212152
0.0127466
-0.00657165
0.0139581
0.0233305
-0.0120846
0.0301195
0.00683631
-0.00070249
0.00937563
-0.0118819
-0.0132433
0.00474816
-0.00437448
0.0114702
0.000230239
0.021715
0.00196857
-0.000900616
-0.0189577
-0.0120666
-0.00109107
-0.00816534
0.00263866
0.00888903
-0.00980466
0.0202023
0.00830065
-0.00209259
0.00637315
0.00209091
0.0299917
-0.00394127
-0.000265468
-0.00826242
0.00255185
0.0101223
-0.0104993
0.00645743
0.00985181
-0.00517417
0.00884698
-0.00742957
0.0149122
0.00466855
0.0116919
0.00185264
-0.0175421
0.00624993
-0.0108826
0.0191014
-0.00544552
0.0141171
-0.00136046
-0.010417
0.00598168
-0.0226127
-0.00502936
0.0109688
0.0117394
-0.00435832
0.0111389
-0.000732432
0.00685498
0.00400085
0.00816351
0.00544359
0.00143544
-0.00511869
0.00977756
-0.0173301
-0.00477518
0.0126758
0.00855839
0.00974256
-0.015082
0.0055221
-0.00695793
-0.014006
-0.00640071
0.0107328
0.00688166
0.0158707
0.00407644
0.0054888
0.0135115
-0.00860266
0.0252785
0.0106984
-0.0156145
-0.006226
0.00419718
0.00492154
0.00912536
-0.00979306
-0.00405542
0.00381186
-0.00145596
0.00154105
-0.00185802
0.00864218
0.00476885
0.0178675
0.0104343
0.0177707
0.0133807
-0.0123152
0.00818386
-0.0164662
-0.00818754
-0.00410646
0.00860515
0.00110529
0.00868805
0.00440436
-0.00691552
-0.0110422
-0.00394442
0.0046207
-0.0134253
0.000713543
-0.0161294
0.00494927
-0.00401514
0.0102203
-0.0108949
0.00274991
0.00398606
0.00367954
-0.0256927
-0.0138976
0.0165086
0.0097885
0.00603349
-0.022089
0.0108366
-0.00509516
0.00254856
0.00272413
-0.00627432
-0.00183626
0.00760059
0.00473517
0.0106591
-0.0133936
0.0126514
-0.00765564
-0.00754778
0.00103571
0.00582116
-0.00762302
0.0172934
-0.000788992
-0.0056772
0.00852515
-0.00581555
0.00358536
0.00496205
-0.00104423
0.00965171
0.0046315
-0.00161611
-0.0134614
0.0171204
0.0030825
-0.00714016
0.00461011
0.0250798
0.00109303
0.00897356
0.00882337
-0.00476726
0.0245215
-0.00972304
-0.00657796
-0.00459445
0.00231387
0.021628
-0.0120097
-0.0029048
0.00473743
-0.0093428
-0.00461175
-0.0109342
0.00286705
0.004229
0.00113698
-0.0139235
0.013848
-0.0177454
0.00647411
0.00343504
0.00703103
0.000797977
0.0195702
0.00861945
-0.00329735
0.000479192
-0.0111321
0.00787742
-0.00121888
-0.00453949
0.0100079
-0.00206998
0.00976201
0.00127148
0.00386382
-0.0146682
-0.00746337
-0.0128808
-0.014358
0.00659267
-0.00267151
0.0131813
-0.0225222
0.000675991
-0.00227937
0.00253394
-0.008044
0.00497388
0.00276961
-0.0132516
-0.0036407
-0.00298371
-0.0121585
0.0222622
-0.00143218
-0.00825833
-0.00206319
0.0156851
0.0279973
-0.00908411
0.00911445
-0.0109729
-0.0104432
0.0216914
0.0102147
0.000409758
0.0142262
0.00606404
-0.000759953
-0.0043343
0.00230624
0.00177056
-0.00150997
0.0159349
0.00177354
-0.0170483
0.00540058
0.0186308
-0.00815009
0.00672979
0.00299171
0.00487643
-0.00160038
-0.0183326
0.0144135
-0.0145708
-0.0153705
0.0107254
-0.00643424
0.0108193
0.000392223
0.0141645
-0.0103359
-0.0133428
-0.00460139
0.0113064
-0.00528617
0.00694939
0.00721248
0.0046326
-0.010162
0.0020293
0.0130449
0.0233159
-0.00364346
0.0127801
0.00634017
0.00935203
0.00946578
0.00430632
-0.0125989
-0.0105396
-0.00508934
-0.0101303
0.00371954
0.00821115
-0.00121021
-0.00663313
-0.00666751
0.0256896
0.00505107
0.00193844
-0.00798056
-0.000427785
0.0184501
-0.00070992
-0.00419181
-0.00038193
0.00139184
-0.0168745
-0.00464512
0.00661363
0.00570162
-0.0125628
-0.0211471
-0.00131803
0.0105248
-0.0152622
-0.00793148
0.00262013
0.00632922
0.00601593
0.00437469
-0.00216522
-0.00789295
0.00785495
0.00851552
0.00560573
-0.0153106
-0.00294065
-0.00103693
-0.00312927
0.013417
0.00539341
0.00525757
-0.00323616
0.00584014
0.000383507
-0.00267926
0.0014659
-0.000114292
0.0137748
0.00343419
-0.00635029
0.0082894
0.00188633
0.00345837
0.0276611
-0.00330672
0.000317167
-0.00109123
-0.00690417
0.0188854
-0.0127573
0.000292594
-0.00999223
0.00799359
0.00646054
0.00887132
-0.00403854
-0.00775726
0.012008
-0.00172608
-0.00130432
0.0016895
0.00568587
-0.019681
0.00436546
-0.00994005
-0.0105284
0.0159847
-0.00385702
0.010304
0.00351803
-0.00571072
-0.0282298
0.00372251
-0.00213957
0.0022171
-0.0087304
0.0122909
0.0101227
0.00214517
-0.0208476
0.0140458
-0.00730946
-0.0364238
0.00762065
0.00589063
-0.000335904
-0.000333948
-0.00059692
0.0098896
-0.00339822
0.0109018
-0.0165262
0.00304162
-0.0103049
0.00204227
0.00501073
-0.000464655
0.00494764
0.00787901
0.00387999
-0.00133165
-0.0073849
-0.0071039
0.00428318
0.00753585
0.00221651
0.00146626
0.0230003
0.00540736
0.00307307
0.00587595
0.00664578
0.00854722
0.00912725
-0.000174055
0.00509138
-0.0178224
-0.00819024
-0.0109916
0.000585559
-0.0128324
0.00573322
0.00578047
0.0324679
0.0320809
0.00407692
0.014651
0.000238225
-0.0124706
0.0189096
-0.00863218
-0.000486475
0.00343546
-0.00936371
0.00119564
0.0120458
-0.0113477
0.00113141
0.00419691
0.0142104
0.000593456
0.00442493
-0.00324072
-0.0159735
-0.0153257
-0.001184
0.00466496
-0.0144579
5.09452e-05
0.0258192
0.0171169
0.00651655
-0.0164541
0.00608952
-0.00453867
0.00392406
-0.00288608
0.0184536
0.00364745
-0.0241412
-0.0124362
0.00349607
-0.00416041
-0.0112059
0.0050136
0.00302358
-0.00558327
0.00534746
0.00679685
0.0142132
-0.000282869
0.0180421
0.00370014
-0.00887178
0.00435753
0.00427938
0.012322
0.00881611
0.00314887
-0.00836362
-0.0289978
-0.00583137
0.00915697
0.00548972
0.0161885
0.0176358
0.0139627
0.00984485
-0.00598729
-0.0182623
-0.0287534
0.00697412
0.00152245
0.00116231
-0.000278042
0.00484703
-0.00520639
0.00129497
-0.0117063
0.0105338
-0.00575705
-0.00336972
0.0185526
0.00971664
0.0264002
0.00448097
0.00721602
-0.0162498
-0.00424468
-0.0227277
0.0191435
0.0335191
-0.00178546
0.0322016
0.0234694
-0.0145258
-0.01907
-0.00661457
-0.00139125
-0.003625
-0.00816259
0.00443141
-0.0107199
-0.005787
-0.00183533
0.00518116
-0.0083232
0.00103642
-0.0185673
0.0169811
0.00814345
0.0220915
0.00879422
0.0197304
0.0167882
0.00624075
0.00174162
0.042269
0.0340275
-0.0174277
0.013401
0.0414584
0.011495
0.00699596
0.00951487
-0.00961168
0.00532025
0.0176803
-0.00602114
0.00665497
-0.0013397
0.0250827
0.0221604
-0.00133978
0.00700021
0.0136759
-0.00146513
-0.00669259
0.0161918
0.0124439
0.00478515
0.0191412
0.0261037
0.0277768
0.0107319
0.0187344
0.0172543
-0.00736651
0.0135786
0.0274974
0.0113054
-0.00920141
0.00888886
0.00518204
0.00494125
0.0361831
0.00601113
-0.00647942
-0.00347718
-0.00830772
0.00618044
0.00780852
0.00812257
-0.0127814
-0.0140029
0.00600206
0.00415228
0.0140937
-0.00751706
0.0132385
0.0204738
0.0213563
0.00990323
-0.0146466
-0.00288825
-0.0272191
-0.000318153
0.0256529
0.0188591
0.0189054
-0.0076293
0.0304892
0.0089397
0.0146439
0.0108991
0.0193638
-0.00795302
-0.014307
-0.0262813
-0.0146168
0.00383856
-0.00385893
-0.00652241
-0.0221847
0.0121895
-0.00308433
0.0192237
0.00742074
0.0142077
0.00568805
-0.00122801
0.00574834
-0.0262336
-0.0293346
-0.00534098
0.0175127
0.0123468
0.0194449
0.0402582
0.0152026
-0.00162686
0.0100357
0.0144246
0.00857229
-0.00290753
-0.000745471
-0.0149805
-0.0127459
-0.0133084
-0.00341759
0.00443229
-0.00460813
0.00603066
0.0106296
0.00711352
0.0186452
0.0162423
0.00913953
-0.00141437
-0.014082
-0.0411672
-0.04643
-0.0168048
0.0168725
0.0170639
0.000974927
-0.00395104
-0.00143421
-0.00758821
0.00839861
0.00227646
-0.00590336
0.00066437
0.0106298
0.0138282
0.000375321
0.00475887
-0.00508513
0.00383581
0.00859184
-0.00130008
-0.000351402
0.0185481
0.0120053
0.0213104
0.0198252
0.00478118
0.00293501
-0.0495209
-0.0319174
-0.0140401
-0.00783788
0.0219291
0.00334543
0.0185978
-0.0218721
0.00760931
0.00259659
0.00210889
-0.00137947
-0.0111401
0.00705773
0.0115775
0.00244235
0.00616539
0.0123359
-0.0111079
0.00262388
0.0161948
0.00336835
0.0141906
0.0279342
0.0123008
0.0385473
0.0057762
-0.021419
-0.0253819
-0.0426512
-0.0279424
-0.000576845
0.0235287
0.00347321
0.00755698
0.0220037
-0.00796485
0.00462561
-0.00732878
-0.0140312
-0.0141158
-0.0125065
0.00806453
0.0161234
0.0111926
0.00467383
0.005011
-0.000641705
0.00903413
0.00303177
-0.00766801
0.0117378
0.0297255
0.0458169
0.0216468
-0.0225149
-0.0158081
-0.0211469
-0.0384844
0.0185803
0.00731567
0.000644481
0.0043314
-0.00340662
0.0083422
-0.000889768
0.00420239
-0.012013
0.00726786
-0.00200844
0.0177805
0.0243134
-0.00288012
0.00491
0.00059133
-0.00828663
0.00695471
-0.0105665
0.00256879
0.00654583
0.01455
0.0312786
0.0179484
-0.0181444
-0.0199753
-0.0307968
-0.0305661
0.0169436
0.0227027
-0.000645239
0.0271671
0.0195946
0.00603652
0.00350082
0.00570291
0.0104019
0.00262312
0.00360625
-0.00162657
-0.00603386
-0.0115517
0.0119474
0.000488267
0.00618962
0.00632219
0.00130348
0.025112
0.0197264
0.0251429
-0.0081203
-0.002369
-0.00847888
-0.019238
-0.010372
-0.00456699
0.033344
0.0193632
0.0331146
0.0122152
0.000985532
0.00958003
-0.00222572
0.00142837
-0.000685883
-0.0136218
-0.0049165
0.00173648
0.0151992
-0.00144011
0.0105919
0.00641522
0.00199539
0.0200326
0.0309329
0.0247005
0.02398
-0.00934465
0.0146773
-0.0139406
-0.0133015
-0.00966104
-0.00462945
0.0309808
0.0324931
0.0389402
0.0163664
-0.00523764
0.00939674
0.000156775
0.0170287
0.00816378
-0.0112735
0.00556509
0.0022861
-0.0112164
0.00475059
-0.00847303
0.00139127
0.0110625
-0.000321345
0.0169903
-0.000453918
0.000549505
0.0129285
0.0187828
-0.000706858
-0.0116976
-0.0262484
-0.0305786
-0.00737155
0.0278464
0.0161003
0.0141414
0.025941
0.0263131
0.00534678
0.00142981
-0.00391674
0.0145339
-0.00555152
-0.00692995
-0.0225215
-0.00184165
0.00227645
0.000985399
-0.00232287
0.00293827
0.0181964
0.00242416
0.0259295
0.0391898
0.024733
0.00595121
-0.00640113
0.00111402
-0.0208173
-0.0172008
-0.0052829
0.0141519
0.00606438
0.0245933
0.0136396
0.0150152
0.0182509
0.0176659
-0.0132607
0.00839487
0.0125233
-0.00560016
0.0141407
0.0111046
0.0101062
0.00828844
0.013775
0.0168648
-0.00705887
0.0163692
0.00473669
0.00224235
-0.00338427
-0.0132205
-0.00306168
0.00525709
0.0212634
0.0083306
0.00198264
0.00076341
0.00108127
-0.0156361
0.0210878
0.0106031
0.00490845
0.000517294
-0.00293621
0.000812537
0.00951876
0.00677075
0.0153947
0.00560712
-0.00403685
-0.00566281
-0.0105335
-0.000246696
-0.0129201
-0.006621
0.00435879
-0.00413003
0.00798351
0.0167065
0.00769491
0.00968179
0.00744725
0.0127499
-0.00215733
-0.00416494
-0.0214428
-0.00447839
-0.00795308
0.0129556
0.00100182
0.00357504
0.0181409
-0.0101388
0.00710204
-0.00845797
-0.00436742
0.017017
0.00970888
0.00981896
-0.00303597
0.0100059
-0.00387716
-0.0148344
-0.0109901
0.00491409
0.0121254
-0.00182752
0.0173775
0.0341111
0.0300627
-0.000875032
-0.000461117
-0.0183084
0.00228937
-0.00571862
-0.00283676
-0.00346235
0.00676374
-0.00562964
0.00151924
-0.0193168
-0.00202141
-0.000553242
-0.00699492
0.00191049
0.00294529
0.00262947
0.00770556
0.0080235
-0.0180316
-0.0169655
-0.0182325
0.00294452
-0.000148047
0.0112142
0.0244662
0.0219588
0.0302397
0.00719432
-0.00304616
-0.0224893
0.00123165
-0.0043395
0.0268867
-0.00402923
0.00428425
-0.00797181
0.00484294
-0.00218421
-0.0112856
-0.0176721
-0.0014727
0.00511427
0.00119842
0.013341
-0.000391268
0.00234696
-0.00280836
-0.0174232
-0.00335535
-0.0131232
0.0153431
0.0196647
0.0143557
0.0282697
0.0221287
0.0296013
0.00421681
-0.00116036
-0.000545316
0.00631252
-0.00116968
0.00214702
-0.00023911
0.0124813
0.00519556
-0.00524763
-0.00400198
-0.00783057
0.00120964
0.00442348
0.00617756
-0.0146008
-0.00333161
0.00534201
-0.00758564
-0.0192864
0.00595451
0.00210318
0.0130526
0.00507316
-0.00269436
0.00574457
0.0170334
0.0119393
0.0133844
-0.0169736
0.0103731
-0.00864357
0.0142155
0.0211512
-0.0142204
0.00374808
-0.00970753
0.00564165
-0.00153613
-0.00271041
-0.00840996
-0.00337412
0.0122476
-0.0121429
0.00203036
-0.00643663
-0.0154608
0.00998865
-0.0218628
-0.00182345
-0.00360218
-0.00258724
0.00711465
0.0182555
0.013537
-0.00542799
0.00639567
-0.00816896
-0.00326643
-0.00597818
-0.00596774
0.00217034
-0.0104667
0.00413193
-0.0017776
-0.00304645
-0.0136914
-0.0062479
-0.00160055
-0.0045293
0.0335301
-0.00635353
-0.00727929
-0.00861544
-0.000777473
0.00158502
-0.00334964
0.00108022
0.0122619
-0.0139569
0.0106467
-0.00186375
-0.00230138
0.0160129
0.00871489
0.0129422
0.0154101
-0.00456368
-0.00879328
-0.0141483
0.00270185
-0.00670207
0.00661969
-0.0133992
-0.00730588
0.00686016
-0.00749445
-0.0011952
0.00252275
0.0178966
-0.00678167
0.0107548
0.0171256
0.0214915
-0.0168129
0.019783
-0.0133387
-0.00760585
-0.00613767
-0.000104231
-0.00301944
-0.0197814
0.013801
-0.00302247
0.00441633
0.00392328
-0.00189089
-0.00544678
9.88186e-05
-0.00539544
0.00699613
-0.00127787
-0.0221634
0.0137914
-0.00420928
-0.00275419
0.00386219
-0.00509883
-0.0163917
-0.00480721
0.0185511
-0.0065482
-0.00748477
0.00315793
-0.00351177
-5.31695e-05
0.00242893
-0.00273702
-0.00909182
0.00456653
-0.00334834
0.0185019
-0.0102898
0.00522474
0.00798464
-0.0132499
-0.0105176
-0.0130743
0.00569269
0.0019811
0.00547099
-0.0117987
-0.000877735
-0.00771965
0.00319727
-0.00566372
-0.0110349
-0.0109261
-0.000242868
-0.00695934
0.0119714
0.00652751
-0.00519473
0.00708476
-0.0288618
-0.0162266
-0.0101982
-0.00896616
-0.0236186
0.00756809
0.00572736
-0.00470919
-0.00747285
-0.0124236
-0.00803955
-0.00380398
-0.0123457
-0.011415
-0.00374056
0.00513598
0.0108029
0.0129089
0.0106403
-0.0023291
0.00234241
-0.00198469
0.0159589
0.00684568
0.016185
-0.000609278
-0.00609777
-0.0135655
-0.0139372
-0.0156199
0.00845908
0.00946353
-0.00438226
-0.0137279
0.0045241
-0.0191892
-0.0187003
0.000955842
0.00193477
-0.0154823
-0.00943097
-0.0117537
-0.00161119
-0.00699102
0.00715783
-0.00444662
0.00731935
0.0075656
-0.00432711
0.0185202
0.00202032
-5.75956e-05
0.014761
0.0106313
0.0167899
0.00147466
0.0159976
0.0256407
0.042721
0.0401846
0.0417813
0.0328366
0.0108684
0.0131024
-0.0137879
-0.0129711
-0.0233924
-0.0149923
-0.0129603
-0.00217043
-0.0176671
-0.00811899
0.00615768
-0.00266697
-0.00988815
-0.00112191
0.00818766
0.00735187
0.0227988
0.00263026
0.0159288
0.0339957
0.00159553
0.020342
0.014766
0.0211235
0.0288151
0.0184679
0.0145144
0.011383
0.00361107
-0.0377852
-0.00898308
-0.0283066
-0.018697
-0.0181106
-0.00773178
-0.017014
3.35236e-05
0.00470927
0.0036714
0.00342579
0.00123523
0.00228833
0.0136967
0.0119227
0.0287499
0.0254114
0.0396909
0.0180177
0.0247746
-0.000120895
-0.00425776
0.00495144
0.0441354
0.0371927
0.0226315
0.0179644
-0.00128469
0.00645439
0.00144371
-0.0338286
-0.0250886
-0.0204583
-0.0137118
-0.00568354
-0.00255765
-0.00709731
-0.00270921
-0.0149847
-0.0146696
0.0114962
-0.011695
0.0033139
0.0219667
0.00869308
-0.0125327
0.0103639
-0.00302447
0.0106622
0.0285095
0.0266002
0.0481719
0.0567857
0.0416324
0.0340718
0.0214087
0.0226941
0.00990615
-0.0110512
-0.00520779
-0.0120422
-0.0186649
-0.016457
-0.00791692
0.00913599
0.0087795
-0.00299155
-0.0110893
0.00441575
0.00182798
0.0065306
0.0234452
0.0165887
0.00108596
-0.0217156
-0.0386439
-0.00671055
-0.00350761
0.00792792
0.0485237
0.0627501
0.0720363
0.0463794
0.0241092
0.0199266
0.0305188
0.0112997
0.00480307
0.00328767
-0.00418539
-0.0176446
-0.00562756
0.00388242
0.00195396
0.00199739
-0.00737256
0.0145989
0.00928297
-0.00860876
0.01483
-0.000321571
-0.0266054
-0.0352337
-0.049474
-0.0177088
-0.0129621
-0.0127847
0.0125164
0.0176377
0.0390037
0.0460966
0.062409
0.0395787
0.0232075
0.0112241
0.0133198
0.00981353
0.00260327
-0.000928022
-0.00618987
0.0137202
-0.00127613
-0.000145707
0.00642174
-0.00353762
0.0147491
-0.00584347
-0.00979936
0.00630383
-0.0283287
-0.0381718
-0.0263847
-0.0313837
-0.033564
-0.0276157
-0.0430058
-0.0253953
0.0277446
0.0504551
0.0303562
0.0406437
0.0079235
0.0258581
0.0248591
0.0190982
0.0110052
-0.00436754
-0.00901769
-0.00291341
-0.0163121
-0.00925511
-1.01011e-05
-0.00228541
0.00602503
0.00520283
-0.00559583
-0.0168765
-0.0441775
-0.0386156
-0.0441861
-0.0333646
-0.0284886
-0.0477491
-0.0577086
-0.0235717
-0.0130042
0.00279054
0.0232083
0.0178704
-0.00391841
-0.00624699
0.00678234
-0.00792604
0.00152035
-0.014065
-0.0264867
0.00723548
-0.006258
0.00439623
0.00850659
0.00912073
-0.00425625
0.001655
0.0145247
-0.014122
-0.0262859
-0.00482549
-0.0136486
-0.0172055
-0.0179898
-0.0473299
-0.0294362
-0.0476584
-0.0218683
-0.0098095
0.0184032
0.0150102
0.0115757
-0.0191306
-0.016492
-0.00293062
-0.0055902
-0.00768483
-0.0103822
-0.00913803
0.00592836
0.00508909
-0.0103773
-0.00257414
-0.00650825
0.0190359
-0.0150691
-0.0243851
-0.0219269
0.00707176
-0.0263448
-0.00828791
-0.0253435
-0.0262822
-0.0231363
-0.0345116
-0.0267379
0.00255695
-0.000823943
0.00393771
0.00929664
-0.0280934
-0.0337482
-0.0325737
-0.0297716
-0.000485406
-0.000210222
-0.0160704
-0.0107063
-0.00619936
-0.00820831
-0.0222756
0.00805914
0.0193938
-0.0222651
-0.0128824
-0.00534328
-0.000769292
0.0333635
0.018088
0.00164731
-0.00599162
-0.0359682
-0.0430853
-0.0459394
0.00514728
0.0254208
0.0114969
0.0115034
-0.0169066
-0.012087
-0.00787056
-0.0125279
-0.0128423
-0.0152631
0.00959036
0.000266727
0.0198938
0.0129221
0.0123286
-0.0010921
0.00252762
0.0123013
0.00841118
-0.0168242
-0.00435101
0.0238098
0.011899
0.0203949
0.00152173
-0.0410355
-0.0615491
-0.0415969
0.0176693
0.0226411
0.015449
-0.000620495
-0.0191032
-0.00676393
-0.0173805
-0.00750879
-0.00131748
0.00485126
0.0129808
-0.00765178
0.00569659
-0.00268707
0.00203354
-0.0138582
0.00466663
0.00114515
0.0177896
-0.0136788
-0.0059895
0.00635877
0.00238413
-0.00542842
-0.0161152
-0.0317796
-0.0345733
-0.0136461
0.0141079
0.0236282
0.0125255
-0.00388306
-0.0197974
-0.0101395
0.00171669
0.00941022
0.00508806
0.0121502
0.0196385
0.00646418
-0.000230383
0.0254358
0.0173315
-0.00425433
0.0217769
0.0201327
0.0236488
0.0105099
0.00835178
-0.024258
-0.00954244
-0.0330063
-0.0264293
-0.0208459
-0.025417
0.00384575
0.0307641
0.0424947
-0.012096
-0.0142029
-0.00986559
0.0133612
0.00790532
0.0103939
0.0261397
0.0122914
0.0214968
0.00572879
-0.00767237
0.00698147
-0.0152103
0.0117901
0.017268
0.0184564
0.0364103
0.0452596
-0.00859347
-0.0248992
-0.0357878
-0.0554274
-0.0362851
-0.0304598
-0.00525029
0.0114909
0.0295762
0.00644779
-0.00329196
-0.0156115
0.0161682
0.0315807
0.00763488
0.000975035
0.0276767
0.0196943
-0.0129176
-0.0151978
0.000815695
-0.0135947
0.00787373
-0.00844576
0.00230068
0.030323
0.0325425
0.0266112
-0.0117134
-0.0302225
-0.0455215
-0.0309055
-0.0326361
0.0118497
0.00644449
0.00503609
-0.0124795
0.0248006
0.00213002
0.0111707
0.0104846
0.0159686
0.0120878
0.0104267
0.00831829
-0.00570714
-0.0192962
0.00600961
-0.0016904
-0.00531898
0.0122644
-0.00826667
0.00217114
0.0131785
0.0215624
0.01212
-0.00815233
-0.0372813
-0.0190837
-0.0354708
-0.0301529
-0.00728436
0.00114636
0.00874415
0.0143685
0.023241
0.0102364
0.0257902
0.0233075
0.0163213
0.0121568
0.0147684
0.0190082
0.0150579
-0.00356374
9.21335e-05
0.00468294
0.016714
-0.00826755
0.0093955
0.0106378
0.0132543
0.0122104
0.00652453
0.00543289
0.00110102
-0.0147035
-0.0214255
-0.0120704
-0.0121202
-0.0055644
-0.0121454
0.0141958
0.0175875
0.0166546
0.0138177
0.0281333
0.0204567
0.000746292
0.0162897
0.00516481
0.00489182
-0.0124005
0.00278692
-0.00426881
0.0127296
0.0022806
0.00175817
0.0141051
0.0241009
0.00422478
0.000472059
-0.00516062
0.00454751
-0.0063493
-0.00233639
0.00992388
0.00620324
0.00233675
-0.0224747
0.000766702
-0.00314291
-0.0272392
-0.0131569
0.0247772
0.00679819
0.0150759
0.00612257
0.00219736
0.00950551
0.00586874
0.0219672
-0.00888904
-0.0136994
-0.00387136
-0.00820524
0.00477277
0.0118611
-0.00675175
-0.0181323
-0.00467823
-0.0229103
0.000776554
-0.0171469
-0.0240114
-0.00363333
-0.0110069
-0.0322219
-0.0129407
-0.0344133
-0.0253926
-0.014051
-0.00120963
-0.00122968
0.000739988
0.00549172
0.000258927
0.000187737
-0.00588419
0.00697848
0.0197128
-0.0151792
0.00658654
-0.0130456
0.00198012
0.0142058
-0.0148949
-0.0107692
0.0240712
-0.000185834
0.000830409
-0.022409
-0.00300503
0.00729289
-0.0123632
-7.57582e-05
0.00905856
-0.00624619
-0.0148079
-0.00580453
0.00702885
-0.0161739
0.0116277
-0.00369789
0.00826496
-0.0144703
-0.0210521
-0.00111453
0.00923909
0.0192041
0.00142764
-0.00434605
-0.00273704
-0.00912794
-0.000869021
0.00910828
0.0122378
0.0191213
0.00735212
0.0123808
0.0270456
0.022444
0.028729
0.02263
0.0210993
0.0238128
0.00333649
0.00215427
0.0157269
0.00806204
-0.0211576
0.0123956
-0.00615583
0.0199349
-0.00681814
0.00947268
0.0109428
0.00157942
0.00446389
0.00217228
0.00651166
-0.0146345
0.00123403
0.0125737
-0.0109136
0.00892585
0.0091076
0.0114972
0.0256006
0.0108268
0.0137003
0.00340246
0.0223749
0.0168365
0.0158065
-0.00673785
-0.00893768
0.00593821
0.00445493
-0.00045341
-0.00708901
0.011122
0.00238852
-0.0093036
0.00891273
0.00715094
0.0132079
0.0038134
0.00722218
-0.000857996
0.0125521
0.0139775
-0.00650486
0.00392873
-0.0201293
-0.0075951
-0.00637467
0.0107646
-0.0103858
-0.010735
0.00825732
-0.0168342
0.00328503
-0.00323586
0.00496447
-0.00973015
-0.00734216
0.00160969
0.00214952
-0.0151836
-0.00370587
0.00353567
0.00332653
-0.00127647
0.0021509
-0.00917809
0.00175229
0.00726764
-0.00910486
-0.0035887
0.00367677
-0.00720258
0.000198061
-0.00295372
-0.00987834
0.00442622
-0.0115371
-0.0150652
-0.024124
0.0158409
-0.00127307
0.008233
0.00112113
0.0100109
0.00605511
-0.0108473
0.00248493
-0.000908882
0.00915248
0.0100233
-0.00135327
0.00013815
0.00468647
0.0180352
-0.0130165
0.0140394
0.00592812
-0.00453023
0.00121086
-0.00177951
-5.06163e-05
0.0161048
0.0241018
-0.00687742
0.00304875
0.00477458
-0.00132356
-0.00275343
-0.00759782
0.00480647
-0.00220603
-0.00295415
-0.01531
-0.00714726
-0.00586785
0.0207371
5.26076e-05
-0.00627233
0.00685152
-0.00199188
-0.0162036
0.00182467
0.00712535
0.0156977
-0.00414525
0.0031794
-0.0153651
-0.0157758
0.0178767
0.0075419
-0.00472838
0.0150934
-0.0095336
0.0153385
-0.00219766
-0.00531203
-0.017113
-0.0116821
-0.0240582
-0.00868531
0.0134084
-0.00427436
-0.0108202
-0.00577219
0.0202203
-0.00713407
-0.0110465
0.00382203
0.00194991
0.00218198
-0.00332063
1.44181e-05
-0.00535082
0.00163683
0.0164098
0.00631387
-0.000653151
-0.00504431
0.00026228
0.0202224
-0.00324191
0.00643959
0.00621992
-0.0032117
-0.00525726
0.00434032
0.00126809
0.00898426
-0.0133745
-0.0188981
0.00389907
0.0152584
0.00259143
-0.00228588
0.0119925
0.00639766
-0.00264667
-0.0204022
0.00551475
-0.00776182
0.0154993
0.00157274
0.0081456
-0.0141298
-0.0172577
-0.0241387
-0.0334511
0.00817668
-0.0075386
-0.0157374
0.00589245
0.0205138
-0.0080862
-0.0155469
-0.0355064
-0.00274357
-0.0010779
0.0104986
-0.00579504
-0.0182773
0.00182317
-0.0122207
-0.00131711
-0.00678385
-0.00195443
-0.00364622
-0.00927183
-0.00187127
0.0193319
0.00313392
0.0102964
-0.0117252
-0.00213741
0.00503949
0.0226185
0.0287482
0.0385801
0.0206654
0.0523586
0.0179305
0.0280967
-0.0245105
-0.0422169
-0.0312905
-0.0202902
-0.00104635
-0.00610516
-0.0120136
0.020422
-0.0117775
-0.00288469
-0.0137107
0.0130638
-0.00992437
-0.0105023
-0.0122309
0.00175252
0.0179356
0.0135857
0.00628965
-0.00396029
-0.00216484
0.0253255
0.0252862
0.0218696
-0.0141164
0.00437987
-0.00431734
-0.0119106
-0.0184944
-0.0139725
-0.0326518
-0.0134085
-0.0281156
-0.0107161
0.00325752
2.25112e-05
-0.00675545
-0.0121245
-0.0019185
-0.00669648
-0.00819436
0.00686542
0.0130489
-0.0141958
0.00315235
0.00381985
0.0233518
0.0177391
0.00295108
0.025742
-0.0124409
0.00643737
-0.0324904
-0.000667615
0.00870893
-0.00190766
-0.00377712
-0.0311605
-0.023934
-0.00871056
-0.00188679
-0.00499356
-0.0141796
-0.00340066
-4.72292e-05
0.00526855
-0.00677674
-0.00422261
0.007982
-0.012808
-0.00744724
-0.00336519
0.0152947
0.0122788
0.010869
0.0343187
0.0080576
0.00657155
0.0187261
-0.0288127
-0.0247883
-0.0304064
0.00869682
-0.0265749
-0.0113658
-0.0141271
-0.0135438
0.0130118
0.0271879
0.00508624
-0.0119976
-0.00798869
0.0127634
0.0114756
0.00304432
0.00754366
0.00242117
0.000249364
0.0125509
-0.0124936
0.006216
0.00885185
0.0139278
0.0264481
0.0110617
0.0136252
0.0165894
-0.0384988
-0.0244073
-0.0145303
-0.00472701
-0.0105352
-0.0154596
0.015155
0.0242331
0.0169679
0.0186967
-0.00866615
-0.0152724
-0.0169884
-0.0133672
0.0174707
0.00887667
0.00621428
0.00508213
0.0108871
-0.0234392
0.00659267
0.0086183
0.0211141
0.0316362
0.0316996
0.0347115
0.0332129
0.0197833
-0.0416421
-0.0305932
-0.0400933
-0.0183088
0.0230029
0.00338621
0.0193365
0.0307947
0.0177073
0.00950523
0.00701565
-0.010349
0.00379975
0.00422951
-0.0153484
0.00168291
0.00319679
-0.000578769
0.0197993
0.00475082
0.0138833
0.0251585
0.0432614
0.0248393
0.0260574
0.0266665
0.0334506
0.00939593
-0.0415473
-0.0693621
-0.0428298
-0.00209632
0.0135111
0.0157425
0.0494851
0.0569473
0.0281254
0.0187249
0.0104414
-0.00752884
-0.0212234
-0.00285691
0.000819393
0.0195058
-0.00468726
0.00468813
0.00165488
-0.0102813
0.00467394
0.0211057
0.0293634
0.0252586
0.00299121
0.0389232
0.00996118
-0.019397
-0.0686985
-0.0631261
-0.0369757
0.00765719
0.0369535
0.0248126
0.0411905
0.0322264
0.0187062
0.0139801
-0.00395404
0.00517357
0.0154548
0.000680409
0.00426269
-0.00266505
-0.000615889
-0.0141339
0.0120721
0.0105187
0.0342426
0.00203827
-0.0117442
-0.00179253
-0.00790098
0.0183672
-0.0218053
-0.0541555
-0.0651588
-0.0180735
-0.00633827
0.0116453
0.0353841
0.0188088
0.033277
0.0309968
0.026021
0.0322632
0.00731517
0.00758766
-0.0157866
-0.00266919
0.00862546
0.00945442
0.00796691
-0.00422007
0.00277328
-0.000904718
0.0171132
0.0218834
0.00973012
-0.0347086
-0.0207359
-0.027516
-0.0438723
-0.0803709
-0.0511539
-0.0137107
-0.00960056
-0.00161391
0.0191419
-0.0163665
0.0050658
-0.00357861
-0.000928707
0.015056
0.00424781
0.0121689
0.000813498
-0.0129685
-0.00345069
0.0056449
0.00421593
0.00700922
-0.00013454
0.0169971
0.011082
0.0392919
0.0176626
-0.00425883
-0.00117288
-0.0132919
-0.0287103
-0.0406004
-0.0124006
0.0122822
0.0136886
0.00792472
-0.0145311
-0.0115545
-0.0359109
-0.0209355
-0.00548175
0.00763616
0.0131626
0.0162912
0.00273424
-0.014066
-0.0117535
0.00635285
-0.0228243
-0.00979885
-0.0107251
0.0273359
-0.000606269
0.0407883
0.0312135
0.022909
-0.00615659
0.034777
0.0230047
-0.0241409
-0.0233034
0.0223438
0.00710717
-0.00648708
-0.000589044
-0.0074336
-0.0179161
-0.00571688
-0.0106561
-0.00582948
-0.00245404
0.00102294
-0.0076372
0.00714435
-0.00781691
-0.00339451
0.00466263
-0.0137885
-0.00442409
0.00190596
0.00735219
0.0279777
0.0372577
0.0660489
0.0810773
0.0742417
0.0374585
-0.00950448
-0.00742197
0.0311835
0.0206252
-0.00372406
0.00405565
-0.0113851
0.00677995
0.00256859
-0.0156422
-0.0107957
0.00337573
0.00478523
-0.0164946
-0.00969483
0.00601782
-0.0112514
0.0180081
0.00268366
-0.01505
0.00463914
-0.00146121
0.0053712
0.0209432
0.0634026
0.0931957
0.0678595
0.0714445
0.0378551
0.00459329
0.011313
0.0056735
0.00841496
0.0153099
-0.0128515
-0.00693991
-0.0346004
-0.020894
-0.0107643
0.00703166
0.00387415
0.0054762
0.00551082
-0.00678433
0.00338646
0.00903719
-0.0265996
-0.016004
-0.00885511
-0.00530126
-0.0126768
-0.00762116
0.0216919
0.0507944
0.0687486
0.0492708
0.0402502
0.0382445
0.016743
0.00348881
-0.0244072
-0.0245463
-0.013311
-0.00914582
-0.0181443
0.000731583
0.022546
0.0111039
0.00331634
-0.0074623
-0.00965973
-0.00897117
0.0138129
0.00182857
-0.0416348
-0.0224461
-0.0236294
-0.0282434
-0.0377861
-0.0311969
-0.0206448
-0.0168159
0.0275493
0.0369443
0.0136888
0.0194316
-0.00648292
-0.0103116
-0.00942784
-0.0176448
-0.00989025
0.0158921
-0.0060906
0.0138419
0.0270853
0.0205792
0.00749416
-0.00229189
0.0181413
0.0119197
0.0075996
0.00168152
-0.0217765
-0.0225098
-0.0239094
-0.0243218
-0.0319374
-0.0401573
-0.00863593
-0.0061898
0.00832626
0.00711025
0.0146839
-0.027108
-0.0195909
-0.0344408
-0.0271339
-0.0151549
-0.0122431
0.0343293
0.0149706
0.0140396
0.00638709
0.0155197
-0.00409098
0.00726263
0.00173587
-0.000328823
0.0105874
-0.0166782
-0.00986721
-0.0219079
-0.011581
-0.0143264
-0.025704
-0.0363759
-0.0221902
0.0103017
0.00607728
0.0153872
-0.00148469
-0.00232259
-0.0228198
-0.0116897
-0.0157472
-0.0065585
0.011537
0.0155583
0.0344905
0.0317838
0.015729
-0.010009
0.0079227
-0.00433286
0.00375624
0.00623098
0.024828
-0.0120918
-0.0185897
-0.0126091
-0.0175341
-0.00459107
-0.023814
-0.0094017
-0.0334008
-0.0169037
0.0152998
0.024628
-0.00647234
0.0147012
0.0121355
-0.000700298
-0.00672699
-0.00773874
0.0100109
0.00503818
-0.00244718
0.0112221
0.00315471
0.00709852
0.00683573
0.00959688
0.000450586
-0.0129008
0.00217997
0.00253508
-0.00534742
-0.00257953
0.00556032
-0.0143706
-0.0268269
-0.00329087
-0.0206741
0.000327068
-0.00908731
0.0223111
0.0294292
0.0174812
0.00318849
0.010766
-0.0327247
-0.0192824
0.0103865
0.0114221
0.0120665
-0.00818154
0.015009
-0.000220981
0.00269859
-0.00337428
0.00348397
-0.0161511
-0.00376511
-0.0134389
0.0128466
-0.00859635
0.00463895
0.00365559
-0.0157424
0.0116976
0.00043684
0.0034484
-0.00866875
0.0113194
-0.00154977
0.00246574
0.00991287
0.00736682
0.0109905
-0.00455489
-0.00133346
0.00377571
0.0104875
0.0109207
-0.00558599
0.0244217
-0.00644009
0.00957421
0.0132431
0.00254531
0.0114037
0.00596703
0.00479441
-0.00484141
0.0131045
-0.0086665
0.00165122
0.002968
-2.4306e-05
-0.000654978
0.00356768
0.00975467
0.0106732
0.0228943
0.0104698
0.00185623
0.0121759
0.0142235
0.0084668
0.00331751
0.0128344
-0.0173216
0.0224078
0.0113987
0.0136357
-0.0210611
-0.0146372
-0.0181165
-0.00639934
0.00301593
0.00677204
0.00168102
-0.000280375
0.0156053
0.00159992
-0.00407374
-0.00774873
0.0153577
-0.013584
-0.00224653
-0.0169909
-0.000172928
0.0114603
0.0022825
0.00731388
0.0124415
-0.011542
-0.0105525
0.00232583
-0.0175543
0.0103689
0.028334
0.00515207
0.0050981
-0.0154313
-0.0166714
-0.0129079
0.0028618
0.0184148
0.000772951
-0.00931354
0.0063842
-0.00940185
0.00523337
0.010671
0.00491209
0.00765042
-0.00378353
-0.0037813
-0.00835364
0.0207896
-0.00702012
-0.0154584
-0.00563149
-0.00891942
0.0149582
0.00450357
0.0126029
-0.00784505
0.00683716
0.0172547
0.00116297
-0.011467
0.00730294
-0.00620376
0.0129292
-0.0260734
-0.00595785
0.00415266
0.00038906
0.00270442
0.0159144
-0.00183493
-0.00640836
-0.000755341
-0.00543486
0.00797176
0.0157516
0.0054089
-0.00602907
-0.00164698
0.00644893
-0.00508215
0.0122869
-0.00678647
-0.00587666
-0.000354846
0.0161423
0.0024009
-0.00841576
0.00160787
0.00366169
-0.0171932
-0.000726201
0.0174809
0.00557279
-0.0139323
0.000563332
-0.0020007
-0.00531162
-0.0119603
0.0133432
0.0140446
-0.00112525
-0.00485115
-0.00811752
-0.00352248
0.0085735
-0.0249187
0.00412519
-0.00728677
-0.00162413
0.00624699
0.0111909
0.00752002
-0.00276352
-0.00974672
0.000787204
0.00279556
0.00692233
0.0146553
-0.0109259
0.0235165
0.00411061
-0.021337
-0.00478095
-0.00607663
-0.0124591
-0.00846412
-0.0223907
-0.00858097
-0.00752576
0.020297
0.0043686
-0.00108695
0.0119719
0.00442468
-0.00330891
0.00930021
0.00270869
0.0120384
0.00989644
0.000693943
-0.0174331
0.012042
-0.0072794
-0.0294441
-0.00709764
-0.00488945
-0.0036265
-0.00444435
-0.00250061
0.00499532
0.00852978
0.00376735
-0.00730931
-0.0107617
-0.0139204
-0.0220438
-0.0192033
-0.00255056
-0.0171952
-0.00236549
0.00357171
0.0122124
-0.00684258
0.0153938
0.0313431
0.0067604
0.00760185
0.0064475
-0.00672942
0.00425535
-0.00104162
0.00356633
0.0182586
-0.00601511
-0.00483593
-0.00694556
0.011071
-0.00967231
-0.0224132
-0.0105289
-0.0159777
-0.0281901
-0.0322523
-0.0380065
-0.0412795
0.00654794
0.010437
0.0219336
0.0125168
0.0146512
0.0255191
0.0149947
0.0213685
0.00823446
0.0175064
-0.0031548
0.0183688
0.00333132
0.00285841
-0.000785952
0.00206205
-0.0168571
-0.0114204
0.0144202
-0.0194597
0.0147585
-0.000566821
-0.0178806
-0.028579
-0.0170126
-0.0147018
-0.0260061
-0.0150019
-0.000427357
0.0131482
0.0111023
0.0339392
0.00682699
0.0223037
0.0184335
0.010217
0.00973095
0.00601188
0.00201529
-0.00853235
-0.00109479
0.0100911
-0.0355756
-0.00732122
-0.00463513
-0.0150479
0.000682956
0.0092951
-0.0251499
-0.0194672
-0.0408608
-0.0173345
-0.0310545
-0.0125838
-0.00605088
-0.0128747
-0.00226773
0.00527292
0.0238428
0.0209275
0.00571253
-0.00756493
-0.00387379
-0.0210857
-0.00674305
-0.00508213
0.00260206
0.00980278
0.0163106
0.00402491
-0.000226507
-0.00837242
-0.00511276
-0.00416228
-0.00358248
-0.0128602
-0.0261615
-0.0138341
-0.00772641
-0.0125578
-0.0139966
-0.00515409
0.0061821
-0.00545907
-0.0100646
-0.00333141
-0.0203601
-0.00511422
-0.0387559
-0.0128721
-0.0163912
-0.0107727
-0.0059232
-0.00771483
0.0182223
0.00962157
0.00839788
-0.0163892
0.0039194
0.000972364
0.00104473
0.0024093
-0.00650416
-0.0201212
-0.0216662
-0.0221974
-0.00944675
0.013666
0.0286438
0.0211642
0.0227164
0.0122818
0.00805318
-0.0385122
-0.0277231
-0.0537042
-0.0240444
-0.0298136
-0.00241422
-0.0215672
0.0019389
-0.0101638
0.00101851
0.0101457
-0.00250469
0.00428822
-0.00920984
-0.00874687
0.0167656
-0.016974
-0.00860328
-0.00634489
-0.00416577
0.0100783
-0.00853688
0.0276455
0.0346863
0.0349366
0.0285471
0.0195632
-0.00850586
-0.0310614
-0.0294357
-0.0325861
-0.0459973
-0.00566523
-0.0418899
-0.0242688
-0.00551339
-0.00872615
0.00624199
-0.00146462
0.00673587
-0.0013359
0.00645365
0.000177657
-0.0109473
-0.00191356
-0.00263743
-0.00249717
0.00350855
0.0177137
0.0255131
0.0303907
0.0544492
0.0647812
0.0406454
-0.00354675
0.00560468
-0.0163874
-0.0220797
-0.0348742
-0.0287359
-0.0201589
-0.0351979
-0.00628985
0.00248157
0.0125259
0.000848342
0.0111237
-0.010413
-0.00607625
0.00969589
-0.0060404
-0.0049624
0.00360589
-0.0185299
-0.00878011
0.00694016
0.0267511
0.0251605
0.0141677
0.0364666
0.0235411
0.0189157
0.0077631
0.015162
0.00544917
0.023663
-0.0170165
-0.00439437
0.0111792
0.00528694
0.0167096
0.0261442
0.0145332
0.000247298
0.00508142
0.00633152
-0.00120646
-0.00593144
0.00444332
0.00632333
0.0112931
-0.00880128
0.0184393
0.0103547
0.0313252
0.0371013
0.0133854
0.0487912
0.0255388
0.0146278
-0.00232277
0.0148892
0.0264187
0.0193929
0.0223092
0.0115625
0.00167282
-0.0179764
0.0231011
-0.00147454
0.0176347
-0.00973461
0.00105563
-0.00382419
0.0156045
-0.0323055
-0.0163989
0.0037797
-0.0178473
0.00942089
-0.00758224
0.00331174
0.0227001
0.0269758
0.0267066
0.0170351
0.0132095
0.00396803
0.00912812
0.0596776
0.045304
0.0257644
-0.00656916
-0.00184159
0.00155028
-0.0103247
0.00563478
-0.0149178
-0.00365417
0.0162927
-0.00487758
-0.014903
-0.00160681
-0.0244806
-0.000478608
-0.00607029
-0.000140374
0.000591536
-0.00705931
0.0214566
0.0365239
0.0303383
0.0408914
0.0286251
0.00859375
0.00766263
0.0466858
0.0585992
0.0246962
0.0142229
-0.00746959
-0.0165825
-0.00959289
-0.0220611
-0.00566938
-0.00307129
-0.02619
-0.00376461
-0.0040441
-0.00365333
0.0138385
-0.0213004
0.00535116
-0.010197
-0.000867975
-0.013864
-0.00271284
0.0018639
0.0172454
0.0438329
0.0248766
0.0252379
0.0194171
0.0476715
0.0703627
0.0386784
0.0475957
0.0125674
-0.00957579
-0.0379383
-0.0253178
-0.0227131
-0.021129
0.00811804
0.00513278
-0.00624942
0.0124243
-0.00318399
0.000874141
0.0143135
0.0121329
0.00466673
0.00790911
-0.0151066
0.00242759
0.00450227
0.0393079
0.0142499
0.0332772
0.046259
0.0578571
0.0412848
0.0519414
0.0236383
0.0472174
-0.0107134
-0.0503939
-0.0387858
-0.000193222
-0.0190778
0.00605576
0.0182417
-0.00810999
-0.0156842
-0.004595
0.020121
-0.00733614
-0.0115355
0.00898829
0.00653588
0.0156352
0.0102371
-0.0068553
0.00508413
0.0261966
0.0345215
0.0583373
0.0518046
0.0383126
0.0236031
0.0574416
0.0382546
0.0173777
-0.0393108
-0.00271662
0.00042086
-0.00753735
-0.00784532
0.00634411
0.0162519
0.00229145
-0.0139885
-0.000681662
-0.00801328
0.0161822
0.00700357
0.0120026
0.000357258
-0.00321454
-0.0156362
-0.0176175
-0.00488639
0.0209174
0.0193666
0.0588475
0.0411812
0.0362643
0.0290405
0.0227341
0.0102814
-0.00343742
-0.00676381
-0.0279554
-0.00243643
0.0199642
0.0140184
0.0261384
0.0127452
0.0138236
0.00896634
0.020338
0.0111056
0.00166124
-0.0139518
0.0134974
-0.00735733
-0.0136798
-0.0160814
-0.0218602
-0.0035991
-0.00712389
0.00473456
0.0234799
0.0129834
0.016596
0.0187512
0.0015109
0.00342635
-0.00222136
-0.0113266
0.0055082
0.0338652
0.0015968
0.0142355
-0.00154006
0.0136485
0.0237354
-0.000597723
-0.00170044
0.0140534
-0.000268066
0.0157018
-0.0103089
-0.0195915
-0.0119264
-0.0214458
-0.0365823
-0.0186022
-0.0086119
0.0133528
-0.00636999
0.00307277
-0.00241134
-0.00348022
0.00516077
-0.00684221
-0.00771277
-0.00978967
-0.00302647
0.000299498
0.00729154
0.00376047
0.00317308
0.0131725
0.0335438
0.0120776
0.00757912
0.00757925
-0.000543226
0.00531484
-0.00466123
-0.000946592
-0.00100954
-0.0138304
-0.0128525
-0.0248802
-0.0196638
0.00255559
-0.000239826
-0.0223812
-0.0108751
-0.00986385
0.00116522
0.00721331
-0.0162626
-0.00886277
-0.014085
0.00705786
0.0106697
0.0171962
0.0174788
0.00899203
0.0127116
0.0259081
0.00685375
-0.00664622
0.00168249
-0.00339178
0.00153827
0.00646843
-0.00946863
-0.017691
-0.0190739
-0.000474079
-0.0317902
-0.0209318
0.00125148
-0.0101426
-0.00652475
0.0192457
0.0108296
-0.0148316
0.00671488
-0.000260232
0.0148801
0.00437361
0.0254866
0.00763085
0.0175322
0.0172932
-0.00821657
-0.00232437
-0.00160137
-0.00349293
-0.00152694
-0.0180436
0.0148364
-0.00881661
0.00978492
-0.0180221
0.00952666
-0.0154615
-0.0194061
-0.0197351
-0.033785
-0.0430698
-0.0138842
-0.0232232
-0.0245321
-0.0023546
0.0011164
0.0127178
0.00682548
0.0164269
0.00937361
0.00985328
0.01074
-0.00280809
0.00830644
-0.00312417
0.020498
-0.0118606
-0.0140453
0.011413
0.00633623
0.0167401
-0.00576012
0.00622912
0.00961136
0.0113637
0.00901937
-0.0164397
-0.0226942
-0.0301847
-0.0254285
-0.0171762
-0.00973589
-0.0327404
-0.0142245
-0.0242248
-0.0071844
0.0216968
0.00332496
0.0233041
0.00704463
0.00398663
-0.00581759
-0.00524663
-0.017074
-0.0109639
-0.0114579
-0.00633236
-0.011232
0.019645
-0.0082272
0.00185032
0.00209595
-0.00320895
-0.0199329
-0.00873017
0.0106746
0.00115557
-0.00557091
-0.00495898
-0.0163746
-0.00812794
-0.0082954
-0.0136948
-0.00917683
0.0105511
-0.0163927
0.0083763
0.00724912
0.00015525
0.00168232
-0.00363894
0.0131962
0.015704
-0.00206026
0.015447
0.00275359
-0.00409794
0.00144871
-0.0188426
0.00835493
-0.0150591
0.00564737
0.0086428
0.0144028
-0.00727991
-0.0195881
0.00196178
0.00290306
0.0032266
-0.00886763
0.0113507
-0.00956891
0.00238249
0.000198187
-0.00368799
-0.0030423
0.0040983
-0.011264
0.00496368
-0.011143
0.00401179
-0.0128927
-0.00446361
0.0044478
-0.0162812
-0.0112346
0.00400089
0.00751785
0.00858113
0.00172825
-0.0037368
-0.0106608
0.0091731
0.0180158
0.0133636
-0.00917016
0.00744323
0.00539788
0.0117874
0.00571228
-0.006077
-0.013186
-0.00543267
0.00836483
0.000620529
0.0105888
-0.0110121
-0.0153301
-0.00959545
0.000366683
-0.00518031
-0.00379205
-0.00409191
-0.000594692
-0.00118615
-0.0089444
0.0161486
0.0159206
0.00619365
-0.00542749
-0.00191861
-0.00907461
0.00812192
0.0205429
0.00448667
-0.000950443
-0.00825738
0.00709993
0.00658609
0.00592759
0.00425619
0.0121624
-0.0111293
-0.0102793
4.7181e-05
-0.00821783
0.000773989
-0.00668157
-0.0187337
0.0240821
-0.0182117
0.00867533
0.0090329
0.000989752
-0.00335298
0.00762627
0.0050228
-0.0074452
-0.00102471
0.0189078
0.00146749
-0.00823403
-0.0025405
-0.00591596
0.00110387
-0.00344913
-0.00572507
-0.00525128
-0.0185049
-0.00527143
-0.00445757
-0.00467441
0.00546992
0.00161257
0.00310614
-0.0137738
-0.0130258
-0.0119198
-0.011862
0.000400822
-0.00796152
0.0125288
0.00358561
-0.0145096
0.0192981
0.010198
0.00244944
-0.00835047
0.00478085
-0.0147802
-0.00537151
-0.0235654
-0.0140491
0.0204933
0.00371556
0.000406959
-0.0163772
-0.00627132
-0.00117102
0.00174684
-0.00103203
0.00644686
-0.00445243
-0.00149386
0.0126406
-0.00225945
0.0179609
-0.00168985
-0.0013263
0.00256719
-0.00593639
0.00438642
-0.0122629
0.00417023
0.0160602
0.0115156
-0.0142293
5.12258e-05
-0.00647054
-0.00191655
-0.00215162
-0.0189549
0.0036065
-0.0154563
0.0184858
-0.0108223
-0.00754462
0.00577823
-0.00886817
-0.0146624
0.00553731
0.00447447
0.00379913
0.00636012
-0.00754348
0.00730393
0.0022671
0.00261143
-0.00199642
0.00611872
-0.0113592
-0.00339045
0.00435157
0.0163293
0.021779
0.00859018
0.00101474
-0.0268404
-0.0239715
-0.027644
-0.0285127
-0.0290403
-0.00893869
-0.00350122
0.0101558
0.00917515
0.00318597
-0.00783581
0.00250693
0.0116282
0.00979367
0.00467937
0.0119613
-0.00861255
-0.00113507
0.00433785
-0.000135652
0.0103107
0.0112073
0.00396298
0.0179741
0.0122834
0.0107484
0.00718573
0.00843868
0.00967421
0.0129321
-0.00867848
-0.0177275
-0.000793084
-0.0253204
-0.0175417
-0.00733622
0.0165775
-0.00509228
0.0201266
0.00583107
0.0110089
0.00210132
0.00315227
-0.00460053
0.000953764
0.00162722
-0.0014727
0.0169391
0.0183135
0.0222036
0.0131267
0.0108537
0.016033
0.0244605
0.0201199
0.0373458
0.0620294
0.0378083
0.0326209
0.042019
0.00216154
0.0119154
0.00262291
-0.00774631
0.000651197
0.00576499
0.00839829
-0.000368612
-0.00238067
-0.00565022
0.00143065
0.00365055
0.00851973
0.00779141
0.00368772
-0.00711749
0.0193334
0.0027453
-0.000152376
0.00315731
0.00545323
1.06425e-05
0.0194777
0.0472154
0.0417689
0.0442008
0.0768827
0.0547766
0.0268692
0.0234263
0.0239822
0.0149529
0.00727175
-0.00934795
0.0103181
-0.000943205
0.00977277
0.016528
-0.01244
0.00999908
0.0129923
-0.00619978
0.00920997
0.029331
-0.00140034
0.000998115
-0.002362
-0.000733398
-0.0163392
-0.0206757
0.0165756
0.0247395
0.0494774
0.019122
0.0506125
0.0458914
0.0175368
0.0226885
0.0182474
0.0236781
-0.00481962
-0.0128826
0.0174531
0.019134
0.00881862
-0.01132
0.00503437
-0.0089013
-0.00804979
0.0095285
0.0161273
0.00616995
0.0111803
-0.00141361
-0.0172967
-0.00673002
-0.0244383
0.00395995
0.00599871
0.0132526
0.00697633
0.0291103
0.026264
0.0151135
0.00625441
0.0237932
0.0312058
0.0219596
-0.00272126
-0.0062051
0.00496955
0.00481797
0.0225413
0.0011383
-0.00218189
0.00308375
0.000271677
-0.0161817
-0.00501364
0.00766904
0.00791476
0.0081945
0.00858614
-0.00870964
-0.0120433
0.0192878
0.000508116
0.00299472
-0.0132467
-0.00562338
0.0116595
-0.00582358
0.0136364
0.0054884
-0.00211455
0.00926313
-0.0148624
-0.0231837
-0.00645587
-0.00350376
0.00353356
-0.00777556
0.00920222
0.0101095
0.00996504
0.000323986
-0.0121391
0.0038594
0.0127637
0.00862065
0.011246
-0.0118619
0.000567277
0.02779
-0.000193025
-0.0121316
-0.0362846
-0.00451899
-0.00935615
-0.0194906
-0.0102248
-0.012726
-0.00794964
-0.00561785
0.0138764
0.0102665
-0.00239504
-0.00776396
-0.0100465
0.0013155
0.00157567
0.00400666
0.00583019
-0.0130624
-0.0135469
0.0262942
0.0224375
0.0257702
0.0121933
0.0285056
-0.0148064
0.0055672
0.00153821
-0.017183
-0.0175063
-0.0236253
-0.00197755
0.00435469
-0.0108007
-0.016401
-0.00192607
-0.00394542
0.000787634
0.00217176
0.0261792
0.00269535
-0.0164118
-0.00981999
0.00919338
0.00447126
0.0048188
0.0094552
0.00317912
0.0171589
0.0220196
0.0199598
0.0200389
0.0320958
0.010853
-0.0184168
-0.0146763
-0.0332317
-0.0110792
-0.0189519
0.00826033
-0.00361125
0.0117973
0.00253392
-0.00643441
0.0223221
0.00514268
0.0102931
0.0204518
-0.00743541
0.00424919
0.00706985
-0.00261157
-0.00459545
-0.0188438
0.0145039
0.006327
0.00375648
0.0162749
0.00810349
0.0126483
0.00855988
0.00845072
-0.0171079
-0.0401954
-0.0387663
-0.0504082
-0.0439559
0.00834843
0.0197931
0.00889942
0.0183322
0.0335178
0.0187726
0.0100642
0.0210661
0.00854443
0.00951462
0.00541885
0.0209654
0.0105477
0.00819223
-0.0102915
0.00781823
-0.0098102
0.00106104
0.00062927
-0.011015
-0.0029097
0.0114153
-0.0235632
-0.0433017
-0.0557997
-0.0609069
-0.0564704
-0.0424757
-0.00547788
0.00777895
0.00666953
0.0400681
0.00896939
0.00807339
-0.0232888
0.00502238
0.00530785
0.00571491
0.00245031
-0.0133858
-0.015236
0.010344
0.0094518
-0.00199774
0.0136915
0.00673814
-0.00966097
-0.0131533
-0.0294455
-0.040424
-0.0425299
-0.0736766
-0.0839075
-0.0620761
-0.0735038
-0.0517761
0.00770787
-0.0143224
0.00361678
0.0296363
-0.0027804
0.00747286
0.010982
-0.0163647
-0.0089478
0.00215344
0.00333635
0.00908674
0.00287619
0.0112665
-0.0122056
0.0107227
0.0123072
0.00162166
0.0101913
-0.00696341
-0.0240824
-0.0452699
-0.085202
-0.0843636
-0.0853548
-0.0746685
-0.0446766
-0.0268183
-0.0121181
-0.00181956
0.0128546
0.0211299
0.00357212
0.0043034
-0.00977789
0.0190949
-0.00654889
-0.00807257
-2.20227e-05
0.0145195
0.00670641
-0.0025959
-0.000857149
-0.00292317
0.00488143
0.0165534
0.0126171
-0.00545393
-0.00390395
-0.0304243
-0.0236108
-0.0401149
-0.0438396
-0.0348215
-0.00302745
-0.00533326
0.00139277
-0.0193225
-0.00371797
0.0201076
0.0118955
-0.00514558
0.0190052
0.013691
-0.016114
0.0107139
0.00900828
0.00321003
0.0125304
-0.00577024
-0.00466551
0.0071952
0.0114089
0.0172962
0.0324717
0.0356287
0.0135195
-0.00616074
-0.00715546
-0.0107037
0.00871499
0.00317546
-0.000277953
0.0122731
-7.17367e-05
0.00328002
0.0102151
0.0241966
0.015513
-0.0190614
-0.0151186
-0.00477714
-0.00737021
0.00849233
-0.00591003
0.00857253
-0.0140379
0.0163013
-0.0127068
-0.00846808
0.0333709
0.0193793
0.00201375
-0.00106613
0.0076515
0.0212606
0.00723378
-0.00190525
-0.00783812
0.0210374
0.0201638
0.011978
0.00510325
-0.00120503
-0.00658693
-0.0101253
0.00148937
0.00306612
-0.0139583
-0.00768361
0.0097143
-0.0178911
-0.00209958
-0.0146068
-0.0103909
-0.015751
-0.0395787
-0.015238
0.00369704
0.00259325
-0.00153576
0.000545329
-0.00147243
0.0117965
0.0172475
0.0323953
0.0180677
0.0231197
0.0144339
0.00729153
0.0107081
-0.0121556
-0.0152901
-0.0138149
0.0176485
-0.0257662
0.00317087
-0.00589044
-0.00768733
0.000753488
0.0162514
-0.00246262
-0.00531633
-0.00369709
0.00878902
-0.0145329
0.00321646
-0.0017561
-0.0149517
0.00203601
0.0106898
0.0244995
-0.019279
0.00429585
0.00281852
0.0139629
0.00533359
-0.00819963
0.00183792
-0.0325241
-0.0168873
-0.00304141
-0.00856901
-0.0202785
-0.00817872
-0.0147899
-0.00685093
-0.010866
0.0213243
-0.0025489
-0.00572602
-1.80911e-05
0.0160233
-0.010241
0.00294988
-0.0147226
0.0195647
-0.00220211
0.0212873
0.0366588
0.0127366
0.00563648
-0.0157136
-0.00363743
-0.00153482
-0.0220255
-0.0214511
-0.0180343
-0.000423622
0.00823027
-0.00278571
0.00272514
0.000186899
-0.0129387
0.00471142
-0.015349
0.00440233
-0.0124329
0.0167893
-0.000663168
0.0023828
-0.00185995
0.00621345
0.0181093
0.0116206
0.0217855
0.0281255
0.0314493
0.012954
0.0258829
0.0178536
0.0205791
0.0229344
0.0316268
-0.000356542
-0.000768961
0.00948568
0.00856181
0.0128881
0.0117108
0.00178498
-0.000627282
-0.00687118
-0.0125663
-0.01152
-0.0118997
0.01411
-0.00784806
-0.00489692
0.0107025
-0.0214459
0.00294756
-0.00382671
0.0141058
0.0123123
0.00732669
0.0104682
0.00942651
0.0151887
0.0196281
0.00763716
0.00862022
0.00044354
0.0252995
-0.000271187
-0.00078927
0.00159398
0.0183292
0.0189326
0.00489808
-0.0102771
-0.0108653
0.00274984
-0.0203979
0.00423465
0.0111164
0.0116197
0.0145794
0.00279455
-0.00834487
0.000936076
0.00129166
0.00234611
-5.98336e-05
-0.00844047
0.0195068
-0.0150074
0.00358301
-0.0207983
-0.0162761
-0.00951451
0.0278586
3.97586e-05
-0.0101061
-0.00369194
-0.00894728
0.014155
-0.0020602
0.013469
0.0032217
-0.00751198
-0.00166062
-0.00389007
0.0191205
0.00882982
0.0105267
0.00560199
-0.00286697
-0.00928459
0.00762485
0.0206933
0.00149304
-0.0012223
0.0132418
-0.0039361
0.00894615
0.00127359
-0.00103743
-0.00469541
-0.00521665
-0.00392581
0.0107113
-0.00449671
0.0037132
-0.00903309
0.00397975
-0.00252723
0.0126168
-0.0178499
-0.00491041
0.00152411
0.00653198
-0.0102854
-0.0103735
7.5115e-05
-0.00387027
-0.00788458
0.00131526
0.00643929
-0.00367512
0.00351295
0.00215802
-0.0126052
-0.0015153
0.010381
-0.0104748
0.0133487
0.0070041
-0.00393856
0.00197439
0.0156854
0.00703855
0.0115908
-0.00290724
-0.0132556
-0.00683335
-0.0113284
0.00582623
-0.017495
0.00822763
-0.012324
-0.0114538
-0.00372353
-0.00541256
-0.00565827
0.0140833
-0.00536067
-0.00663336
-0.00591842
0.00385425
0.00563569
-0.00740074
-0.0130155
0.0101057
0.00265406
-0.00663984
-0.0173221
0.00602824
0.00458616
0.00242394
0.00698759
0.00408663
0.00593729
-0.000995749
-0.0026102
-0.00088982
-0.00957876
-0.0104855
0.0025843
-0.000955917
-0.00232601
0.00372837
-0.00237972
-0.00549212
0.0111195
0.00786099
-0.0173466
-0.00510165
0.00098053
-0.00163016
0.00289256
-0.0014678
-0.00261762
0.00496337
-0.0160914
0.00650356
-0.000182411
-0.00996623
0.000255826
0.00333444
-0.0187467
-0.00085211
0.0101859
0.0075082
0.016019
-0.0110952
0.00318277
0.00417796
0.0158695
0.00572136
0.0155923
0.00535397
0.0245177
-0.0167591
0.00192658
-0.00605594
0.00210162
0.00809164
-0.00370357
0.0202618
0.00106233
-0.0038974
-0.0104
-0.00990826
-0.00398256
0.00823347
0.0027082
0.00243945
0.00741488
0.00104798
-0.00279445
0.00489482
-0.00796349
0.00796599
0.00347594
-0.00726456
0.00925603
0.00554118
-0.00531315
-0.0158937
-0.00112325
0.00700309
-0.0108488
0.00217739
0.0100177
0.0050625
0.00561729
0.0114779
-0.000625715
0.0115694
0.00352633
0.0108116
0.0130371
-0.00514355
-0.00202467
0.0149018
0.0101744
-0.000554775
0.0076684
-0.00153725
-0.00435049
-0.0105904
0.0172465
0.0148322
-0.00889764
0.0034161
0.0166271
-0.00933653
-0.0151798
-0.00320069
0.000725406
0.00528079
-0.00706423
-0.0169838
0.0158419
-0.0047212
-0.000769785
-0.00480897
0.0238655
-0.011627
0.00147222
-0.0105384
0.0102053
-0.0056058
-0.0294742
-0.00465609
0.0155519
0.0172613
0.00329344
0.00740941
-0.00667912
-0.0295706
0.00148778
0.00248232
-0.00399713
-0.00685551
0.0205162
0.00863648
-0.00123739
-0.00027711
0.0170907
0.00865541
-0.00648294
0.0139445
0.00843907
0.0140583
0.0244198
-0.00217332
0.00171881
-0.0165004
-0.0297282
0.00373387
0.0120144
-0.0115819
-0.00931189
0.00510887
-0.0101545
-0.00449067
0.00821479
-0.000217271
-0.0114101
-0.0200042
-0.0133038
0.00186721
-0.0158735
0.0139993
0.00361264
-0.0141094
-0.0040604
-0.0168132
0.0105608
0.00576313
-0.00272761
0.00592908
0.00744547
0.015237
-0.00457088
0.0137304
0.000581804
0.0101609
-0.014936
0.00821071
-0.00587283
-0.0147292
-0.020534
-0.00142092
0.0190004
0.0165688
-0.00371612
0.0039768
-0.0032107
-0.00912351
0.0243679
-0.00276044
9.88325e-05
0.0118803
0.00422033
0.00916515
0.0175185
0.000547667
0.0107153
0.00117746
0.00557147
-0.015547
0.00282549
0.0119355
0.0185343
0.00836021
-0.0101117
-0.0144162
0.00573468
0.00495259
0.00989351
-0.00644766
-0.0195973
0.00446857
-0.0144344
0.0178284
-0.0102637
0.0118681
0.00545882
-0.0126726
0.00914166
-0.00136759
0.00410915
0.0172864
-0.00530227
0.0127247
0.0119534
0.000347775
0.00172074
0.0204604
0.00208299
-0.0157564
0.0145728
0.00466249
-0.00187001
-0.0114364
0.0131984
-0.00959771
-0.000714533
0.00249522
0.00528143
0.00242843
-0.016025
0.00675364
0.00989357
0.012107
0.000621993
0.0034967
0.00522338
-0.00879649
0.00108126
0.00162582
-0.00378895
-0.000957249
-0.00561356
0.0144653
-0.00139306
0.0175246
0.015535
0.0101562
0.00584388
0.000932452
0.00810637
0.00900359
-0.0121627
-0.000378141
-0.00339643
0.0135171
0.00422086
-0.000830542
-0.015312
-0.00222635
-0.0147873
-0.0119988
-0.00488825
-0.00621337
0.00426221
-0.00321864
0.0237817
0.0094419
-0.000783181
-0.00742711
0.0141505
-0.00906731
-0.0144646
0.00897395
0.0128125
0.00912695
0.00367616
-0.00661414
-0.0124193
0.00879484
0.00127079
0.00205216
-0.000934614
0.0157363
-0.0234232
-0.00796085
0.0102851
0.00884493
0.00374259
0.00551458
0.0120523
0.0159053
-0.0118919
0.00877409
0.0106893
0.00795135
0.0123472
-0.00795245
0.00521356
0.0075762
0.00344943
0.00772794
0.0101397
0.00356212
0.00511645
-0.00046807
-0.00272643
0.01968
0.00914316
-0.000980905
0.000853812
0.00872674
0.00913404
0.00522944
-0.00600803
-0.00377559
-0.0197042
0.00847992
0.00515726
0.0070206
0.0147866
0.00188539
0.00624882
0.0133192
-0.00246354
0.0108815
0.00543647
0.00350116
0.00435196
0.00506955
-0.0029573
0.0161257
0.00192756
0.00291659
0.000215857
-0.00633303
-0.0253821
-0.00826203
0.0122638
0.0138704
-0.00163297
0.00320489
-0.00557442
-0.0163734
0.00825494
0.00452128
0.00596096
0.000674911
-0.00828443
0.0013156
-0.00174197
0.014754
0.0104775
0.00737398
-0.0016172
0.0106938
0.0124249
0.00870567
0.0213207
-0.00110206
-0.0174157
0.00662658
0.00412454
-0.00266422
-0.0107449
0.00896683
0.0190929
-0.00918282
0.00343456
-0.00866368
-0.0081207
0.0252015
0.0133332
0.0127053
0.0192597
0.00443366
0.000851624
0.00523803
-0.0062871
0.00427908
-0.00397086
0.0043949
-0.00918414
0.00471875
-0.0103011
0.0053444
-0.00132428
-0.00598927
0.0031411
0.00575417
-0.000819996
-0.00589124
0.00313917
0.0025866
0.00520227
-0.00456812
-0.00447281
0.000456194
-0.00460667
0.00442759
0.0144482
-0.00389269
-0.00090595
0.00751663
-0.00498872
-0.01748
0.00435295
-0.00629691
-0.0102017
0.000789939
0.00745024
-0.00838712
-0.00642811
-0.00883851
0.00625568
0.0129666
0.0131279
0.0231356
-0.00749082
