-0.00284314
0.015768
-0.0152581
0.00152956
0.0010829
-0.00302863
0.00458178
0.00188981
0.00394971
-0.0236984
0.000441951
-0.00664492
-0.00636256
-0.00171248
0.0173126
-0.00764852
0.00703151
0.0014535
0.000936702
0.0120412
0.0025737
-0.00719318
0.0164753
-0.00731423
0.00149436
0.00248309
-0.00888827
0.0116047
0.0129131
0.00664024
0.00934091
0.00818403
-0.00596661
0.00205317
0.00860254
0.00294419
-0.00466875
-0.0166879
-0.00131743
0.0157646
-0.00792033
-0.00922423
-0.0104727
-0.00441963
0.00955371
-0.000323921
0.000102804
0.00919759
-0.0200411
0.00177759
-0.000217386
0.00306694
-0.00450528
-0.00255263
-0.0243262
-6.74212e-06
0.0043124
-0.00242243
-0.0237261
0.0197652
0.00762339
0.00736875
-0.00100722
0.000872493
0.003302
0.00938664
0.00901677
0.00968219
-0.00711617
-0.00965691
0.00368148
-0.0200302
0.0128731
0.00373041
0.0119507
-0.00231577
-0.00468766
-0.0142176
-0.0187949
0.0231002
-0.00857601
-0.00568859
0.0023521
-0.0116018
-0.0015128
0.0326027
0.00958911
0.00150736
0.0107234
0.00385051
-0.00431056
-0.00483127
-0.0063044
0.00470501
-0.00127133
-0.00286808
-0.00216119
-0.00542731
0.00341943
0.00799687
0.00581622
-0.00606195
-0.010789
-0.010067
-0.00789585
0.00284552
0.0124901
0.00346465
0.00607142
0.000999942
-0.0115775
0.00179047
-0.000512377
0.00250628
0.00194827
-0.0111696
-0.000726261
-0.016773
0.00577422
0.000781952
0.000295963
0.000897092
0.0154981
-0.00898393
0.00868109
-0.00568205
0.0115867
0.0102278
0.00656293
-0.00970956
-0.0106413
-0.00325409
-0.0074778
-0.000714501
-0.00222162
0.00377298
-0.00220734
-0.00631792
-0.00587558
-0.00398649
-0.00232575
0.0147349
-0.00650858
-0.0208177
-0.0127348
0.00365929
0.00285813
-0.000621175
0.00889388
0.0029631
0.0180564
-0.0228257
0.0228676
0.00684817
0.00173524
0.0269682
0.0151194
0.0166117
0.0155304
-0.00552045
-8.35175e-05
0.000816703
-0.0122768
-0.000123252
0.00637016
0.0288765
-0.00118048
-0.0087346
0.0100537
0.00204822
0.0163138
-0.00562593
0.0011291
-0.000533668
-0.00251877
0.00386781
-0.000531862
0.00570185
-0.00579115
0.00400108
0.00399644
0.00810513
-0.00346814
0.00194647
-0.0182328
-0.000426719
0.00543429
0.00481828
-0.00755799
-0.0284884
-0.0143481
-0.0349978
-0.0118554
0.00543013
0.0133272
-0.00146734
-0.0121701
-0.00568895
0.0130556
0.0129713
0.00171677
-0.00424018
-0.0227663
-0.0295062
0.000938374
-0.00839498
-0.0139355
-0.0267663
-0.0248423
-0.0161965
-0.00272435
0.00305582
-0.0142326
-0.012154
-0.000855599
-0.00370422
-0.0100443
-0.0124113
-0.024753
-0.0105099
-0.00855654
-0.00108225
-0.0170807
-0.00591246
0.00697458
-0.0055836
-0.00302097
-0.0138741
-0.0226211
-0.0108845
-0.017947
-0.0126757
-0.0157031
-0.0204405
-0.0201997
-0.0414008
-0.0129946
-0.00638911
0.00702543
-0.000869679
0.000698283
0.00713319
-0.00103239
-0.00425695
-0.000150323
-0.00735479
-0.0172513
-0.0174276
-0.0158952
0.00389762
0.0196165
0.0130915
0.0121921
-0.0102852
-0.00197793
-0.00562909
0.000923457
-0.0121412
-0.00624841
0.00678428
-0.0164702
0.00756828
-0.00590525
-0.0157273
0.0103691
-0.0202461
-0.0315842
-0.0136593
-0.0374962
-0.0243022
-0.015866
-0.026463
-0.0168289
-0.00375093
-0.0130374
-0.0215284
-0.0272928
-0.0148193
0.0107843
0.0116068
0.0176019
0.000387263
0.000813498
-0.00403196
0.00106898
-0.00576956
-0.00218841
-0.0203469
0.0283298
0.0134881
0.0150009
-0.0144329
-0.0201405
-0.00899835
-0.00917194
0.00425797
-0.0140344
-0.0280346
0.00890489
0.00482098
0.0150237
0.000764956
-0.00586973
0.00971075
-0.000283266
-0.00896904
-0.00542615
0.017451
0.0151213
0.00425532
0.00788466
-0.00924872
-0.0101376
0.00158833
0.0061446
0.00907793
0.00877955
0.00962074
0.014287
0.0236686
-0.00797721
-0.022441
-0.0206568
-0.000407524
0.0214254
-0.00571224
0.0261228
0.0237405
0.00401928
0.0195185
-0.00153116
0.0073252
-0.0109765
0.0107568
0.0146424
0.00110409
-0.00955808
0.0101717
-0.00134971
-0.00341312
0.0163679
-0.0219858
-0.00719789
0.00113837
0.0184441
0.00688428
0.00339904
0.0174535
-0.00046727
0.0283937
0.0226077
0.00953775
0.0433852
0.0232202
0.0213119
0.0430226
0.0355022
0.00139223
-0.00413681
0.00226429
0.0063698
0.00085998
0.0101551
-0.00442979
-0.00476605
-0.0157501
0.00755944
-0.00320024
0.00136853
0.0257485
0.013637
-0.00179655
0.0100062
0.00565689
0.00455468
-0.00399003
0.00746794
0.0438964
0.0294286
0.0262025
0.0275889
0.00975273
0.0266335
0.0219777
0.0335893
0.0107859
0.0181875
-0.00101919
0.011098
0.0114425
-0.00734945
-0.00684074
0.0193981
0.00777704
-0.0156242
0.0174692
-0.000204776
-0.00243266
-0.0039111
0.0134102
0.00428255
0.0114332
-0.000551079
-0.00202169
0.0336392
0.0132675
0.0316796
0.0250149
0.00504696
0.0137472
0.00761869
-0.0198303
0.0138862
0.0021332
-0.0255137
-0.00780146
0.012808
-0.00382748
-0.0047813
-0.00487432
0.00539821
-0.0018707
-0.0125275
0.00467201
-0.00317999
0.00703587
0.0040843
0.0242633
-0.00313917
0.0075448
0.00953235
0.015313
0.0115594
0.0185235
0.0105059
0.00899237
0.0189683
0.00668087
-0.026201
-0.006931
-0.0370491
0.0098174
-0.0197377
-0.00924201
-0.00574526
-0.00769113
-0.018178
-0.00279732
-0.00222816
-0.00298227
0.00100806
0.0151452
0.0129644
0.0105025
0.0144538
0.00671379
0.0169968
0.0152898
0.0253987
0.0245158
0.0387598
0.0232134
0.0173871
0.00731807
0.016631
0.00141116
-0.0276667
-0.035094
-0.0182829
-0.0206887
-0.00226857
-0.00688229
-0.00155239
-0.0184775
0.00376436
0.00350742
-0.00916561
0.0119419
0.00496083
0.0102054
0.00309184
-0.00315258
0.00351337
0.00593554
0.0352874
0.0405834
0.0266694
0.0488602
0.0255496
0.0424051
0.0159221
-0.00065836
-0.00218213
-0.00616739
-0.0115079
-0.0238617
-0.0197042
-0.0118542
9.77546e-05
0.011806
-0.00689518
0.0102589
0.00227699
-0.0156082
-0.0194473
-0.0140237
-0.00883951
-0.00603568
0.00818345
-0.00244268
0.00144029
0.00811153
0.0382674
0.0439101
0.0387505
0.04832
0.0369537
0.0275137
0.0153024
0.012451
0.0264204
0.0138003
0.0161873
-0.00779295
0.0014207
-0.00118879
-0.0184156
0.0125749
0.0134059
-0.0174219
0.0107689
0.00766976
-0.00418576
0.00202763
0.00655896
0.000382302
-0.00144507
-0.000857675
-0.00982433
-0.0119034
0.0088613
0.0143596
0.00739775
0.0253052
-0.00488445
0.0076354
0.00047451
0.00871394
0.0158845
-0.00942537
0.0129391
0.00935393
-0.00103828
-0.0106464
0.0192319
0.0163093
0.0309113
-0.00199437
-0.0137517
0.0206834
4.19815e-05
-0.012204
-0.00104031
-0.00989775
-0.00214621
-0.0119072
-0.0288888
-0.00952663
0.00861399
-0.0348301
-0.00016853
-0.0048876
-0.0457403
0.0129929
0.00181641
0.019478
0.0111516
-0.0161379
0.0188177
-0.000377893
-0.0198716
0.0111182
-0.00439306
0.0169212
0.00799191
0.0189152
0.0172744
-0.0154699
0.00942676
0.00516199
-0.0170132
-0.000630638
0.00434772
-0.0186963
-0.00480478
-0.0112684
-0.0249848
-0.0201276
-0.0113457
-0.0277907
-0.020721
-0.0118136
-0.0230204
-0.00505716
-0.0263821
-0.0140524
0.00354579
-0.00817419
-0.0128554
-0.00186882
0.0122031
0.000692546
-0.0111134
0.000419844
-0.000355285
0.0110186
0.0114582
-0.00535381
-0.00335899
-0.00331089
-0.0225261
-0.00759852
-0.00773768
0.00466613
0.00226318
-0.034673
-0.030121
-0.017189
-0.012629
-0.0219063
-0.0351515
-0.0159766
-0.0155641
0.0084013
-0.00546716
0.0109977
0.0123204
0.0236922
0.0201364
-0.0010317
0.00956058
0.00234876
0.0169221
-0.0175971
0.00486039
0.00309716
-0.0107823
-0.00592051
0.00753823
0.00540756
-0.00335732
-0.00919287
-0.0194687
-0.0229643
-0.0283795
-0.0322834
-0.00811677
-0.0202353
-0.00222835
-0.00313464
0.00519512
0.00972677
0.0128321
0.0123533
0.010118
0.0219557
0.00310076
-0.00875667
0.0143317
-0.0098736
-0.00110906
-0.0117741
-0.0101345
0.00757855
0.00291623
-0.000867562
0.0121541
0.0037337
-0.0105697
-0.00376738
-0.00537514
-0.00375295
-0.0207318
-0.0123084
-0.0383965
-0.00367312
0.00116653
-0.0257368
0.00579318
0.00632298
0.00156844
0.00500685
0.00368341
0.0119435
-0.00185475
0.00404889
-0.00361738
-0.00340081
0.00852906
-0.0186904
0.0202164
-0.0145893
-0.0197459
-0.0100591
0.0117638
-0.0200457
-0.0144929
-0.00816101
-0.0165245
0.011826
-0.0104019
-0.0104505
-0.00606979
0.00675608
-0.00205269
-0.00265446
0.0153943
0.0166026
0.0151534
0.00767306
-0.0118252
-0.0111674
-0.0144747
-0.011437
-0.00901192
0.00430237
0.0097691
-0.012763
-0.00473499
0.00815605
0.00297159
-0.0105742
0.00231018
-0.0239919
-0.0130278
-0.010922
0.00567358
-0.00812828
-0.00329253
-0.0146047
-0.00255766
-0.00396021
-0.00604674
-0.00206922
0.00359471
0.00568191
-0.0207287
0.0044851
-0.0159661
-0.00744169
0.0180993
0.00117985
-0.00466459
0.00578812
-0.0224286
-0.00650985
0.00273219
-0.0138407
-0.00287626
0.0120354
-0.00498156
0.00817312
-0.00491841
-0.0111615
0.000558242
0.00614131
-0.00685612
-0.0231989
0.00425103
0.000655064
-0.00609108
-0.000292156
0.0211281
-0.0155096
0.00514691
0.00515357
0.0101873
0.00482909
0.0180777
0.00925894
0.000186663
0.00498517
0.00938891
-0.0101303
0.0145877
0.00709299
0.00973536
0.014896
0.00951384
0.013295
0.00489837
-0.0211127
-0.0125068
0.0116344
-0.00166282
0.0106646
-0.00218271
0.00408495
0.0117414
-0.00293181
-0.000874553
0.00242119
0.0251494
0.0225144
-0.00691521
0.0115837
0.00492821
0.00976529
-2.65346e-05
-0.00173093
0.00196981
0.00666151
0.00814724
0.00186689
0.0210444
0.0167306
0.00495449
0.00936742
0.00973093
-0.00290888
-0.00798586
0.00319883
-0.00762127
0.0214578
-0.00474137
0.000491191
0.00934526
-0.00396728
0.0146305
-0.0118352
-0.0067126
0.00274023
-0.00463405
0.0145933
-0.00774328
0.00275521
0.032538
-7.0837e-05
0.00347737
0.0142756
-0.00503802
0.0109922
-0.0152663
-0.00138341
-0.000304211
0.00622218
-0.00381017
0.00411807
0.00795005
0.0156593
-0.00261078
0.0104023
-0.00635143
0.0140239
-0.015121
-0.00415876
8.55217e-06
0.00288856
-0.0109445
-0.0170225
0.0118248
0.00196939
0.0010932
0.00101793
0.0131224
0.0180622
0.00943556
-0.000758135
-0.0029535
-0.0112485
0.00722999
0.00925298
0.00874402
0.0182053
-0.00998598
-0.00690334
-0.0137546
-0.0121053
-0.000634044
-0.0186004
0.00219669
-0.0143812
-0.0320223
-0.005463
0.00293718
-0.0189368
-0.00497368
-0.000655729
-0.00182456
0.0130001
-0.00500938
-0.00527307
-0.00773027
0.000628156
0.0145665
-0.00397061
-0.00326138
-0.0141976
-0.00301971
-0.00509063
0.0146183
-0.0025881
-0.00978355
-0.0157595
-0.0180392
-0.0191305
0.00289856
0.0128732
-0.0120148
0.012115
-0.00296367
-0.0114369
-0.0225854
-0.0277623
-0.0266708
-0.0153335
-0.0206521
-0.0151389
-0.00206838
-0.00864587
-0.00433837
0.0137534
0.00762623
0.00527837
0.0047712
-0.0016899
-0.0139384
-0.0126832
0.00178009
-0.00969689
-0.00172092
-0.00223913
0.0128081
0.0047498
0.00178033
0.033847
0.00309014
-0.013342
-0.00256491
-0.0174874
-0.00826965
-0.0236379
-0.0178054
-0.0288023
-0.00681442
-0.0125933
-0.00474835
0.0114578
-0.00694903
0.00494
-0.00844639
-0.00328305
-0.00584981
-0.00372506
0.00656774
-0.00720665
0.000953725
-0.0053762
0.00841317
-0.0131731
0.00908911
0.0192782
0.0132416
0.0184313
0.019816
-0.0144746
-0.0119332
-0.0035539
-0.00988425
0.00276065
0.00254132
0.00380024
-0.00523783
0.0238929
0.0144577
0.0273782
-0.001264
-0.00498501
0.00714815
-0.00141714
0.000120631
-0.00426746
0.00975238
-0.000980997
0.0108422
0.020679
0.00965273
-0.0165195
0.0204262
0.0267539
0.0206743
0.0218356
-0.0223627
-0.0181995
-0.00988516
0.0129981
0.0287999
0.0344887
0.02797
0.0139828
0.0182186
0.018966
0.0115771
0.00870514
0.0124136
0.00879794
-0.00151337
0.0126396
0.0138051
0.010112
-0.00152433
0.0170387
0.00100416
-0.0140992
-0.00822279
0.000558507
0.0146966
-0.000951993
0.0171698
0.00463873
0.00849938
-0.0100507
-0.00586688
-0.00587493
0.00439956
0.00568027
0.0218494
0.037198
0.0323714
0.0548066
0.0362662
0.032577
0.0341673
0.0166326
-0.0132691
0.0131564
-0.00899459
-0.0324845
-0.0198584
0.00387841
-0.0128924
-0.0170097
0.00827987
-0.00131011
0.0143041
0.0314187
0.0090271
0.0157399
0.0150935
0.018627
-0.0116379
0.0059228
0.0193743
0.0378196
0.0334069
0.0487788
0.0310016
0.0488127
0.0400314
0.0138383
0.0181859
-0.0112197
0.0127598
-0.0115223
-0.00358558
0.00803393
0.00433457
-0.00559138
-0.00837407
0.0180354
0.0175104
0.0373051
0.0385478
0.0137559
0.0127489
0.0375481
0.0130279
0.0224041
-0.00489215
0.0310978
0.0328396
0.0276282
0.00592975
0.00915888
0.0264659
0.0374476
0.0133541
0.0331954
0.00880717
-0.00187377
0.006652
0.0182988
0.00092319
0.0107758
-0.00991168
-0.000164593
0.000759458
0.00858738
0.00649955
0.0216994
0.00484512
0.0134967
0.0335914
0.0463721
0.0542507
0.0352552
0.0110932
0.00737721
0.0242917
0.0140408
0.0167352
0.00308825
0.00020489
0.0138957
0.0113753
0.00089986
0.00252788
0.00523455
-0.0175522
-0.00273321
-0.0234875
-0.0134876
-0.0029055
0.00389935
0.01511
0.00680709
0.024281
0.0299939
0.0216902
0.0263747
0.0258887
0.0406318
0.0463195
0.0292823
-0.0075321
-0.000531886
0.0385535
0.0137114
0.00177361
0.0104709
-0.0142946
-0.0185204
0.00241599
0.00350332
-0.00835456
0.01045
0.00461305
-0.0094458
-0.011023
0.00601491
0.0088199
-0.0195413
0.00269404
0.0195187
0.0133783
0.00224196
0.0147002
0.0290773
0.0310962
0.0274923
0.0183684
0.00219372
-0.0378428
0.00778842
0.0299139
0.0152734
0.000752365
0.00227885
0.0129248
0.00178562
0.0229591
-0.00484401
0.000210315
-0.0232906
-0.0081293
0.000552938
0.0136333
-0.00463395
-0.00892201
-0.0110854
0.00778322
0.000760125
0.0269383
0.0209815
-0.00344143
0.00425777
0.00666146
-0.00905734
-0.0106758
-0.0182569
-0.0328662
-0.00626493
0.00563713
0.0150085
0.0051939
0.00307387
0.00256672
-0.0154786
-0.0121865
-0.0198021
0.00926543
-0.0122178
-0.003958
0.00105098
-0.00583851
-0.00227047
-0.00612065
0.0286506
-0.00869831
0.000192086
0.0266922
-0.00080522
0.0112528
-0.00206424
-0.0183264
-0.015955
-0.0180372
-0.023967
-0.0462832
-0.0300567
-0.0136792
0.0150705
0.0228587
0.0025043
0.0122344
0.0151561
-0.0068789
-0.00305419
0.00675547
0.00460007
-0.00743435
-0.0138859
0.0104814
-0.00852056
0.0191576
-0.0131896
-0.0121957
0.00330257
0.00251256
0.000568569
0.00772471
-0.0212296
-0.0317874
-0.0188149
-0.0125188
-0.0205119
-0.0273073
-0.0192429
-0.0234881
0.0134312
0.01526
-0.00461386
0.00338985
0.00515205
-0.00882388
0.00101518
0.0106896
0.00506532
-0.00073577
-0.0175911
0.0110244
0.00833453
0.00257875
0.00265602
-0.0103443
0.00842379
0.0100581
-0.00944266
-0.0207133
-0.0100009
-0.0365334
-0.0433163
-0.0322635
-0.0267404
-0.0403732
-0.00783769
-0.00544918
0.021455
-0.0284798
0.0216447
0.0221534
0.015181
0.00783587
-0.0170089
0.00537004
0.00340649
-0.0228235
-0.0111953
0.0110929
-0.0058003
0.0130151
-0.00515626
-0.0146859
-0.00383342
-0.0112259
-0.017619
-0.0100561
-0.0246568
-0.0344539
-0.043808
-0.0535267
-0.0471421
-0.0328742
-0.0125657
0.0104043
-0.000994436
-0.0195154
0.0117538
-0.00783516
0.0211434
-0.0163861
-0.00364425
0.00589077
-0.0252161
0.00258993
0.00781503
0.00346143
0.00529901
0.000925729
-0.00647162
0.014256
0.0226497
-0.0103883
0.000677185
-0.00406912
-0.0355911
-0.0475716
-0.0549002
-0.0356661
-0.03453
-0.02903
-0.00596794
-0.0262412
-0.0227967
-0.00751154
0.0045177
0.00411183
-0.000223249
-0.0260472
-0.0166829
-0.01628
-0.0210996
0.0116081
-0.0122585
-0.00684054
0.00428979
0.00245551
0.0459742
0.00645794
0.0141702
0.000239047
-0.00849301
-0.0186438
-0.0156224
-0.0122339
-0.0177536
-0.0180937
-0.0046721
-0.0159338
-0.0235687
-0.0105947
-0.0334422
-0.00840357
0.00987622
-0.0224169
-0.00630683
-0.0145637
-0.00541683
-0.00341024
0.00942556
0.0178958
0.00738908
-0.00434959
-0.00103233
-0.0106684
-7.77012e-05
0.0107558
0.0144128
-0.00455549
0.000222972
0.010251
0.00254882
-0.0101699
0.00243979
-0.00889065
0.00377401
-0.030234
-0.0219627
-0.0127695
-0.000987385
-0.0157001
-0.00296539
-0.00920964
-0.0064734
-0.023615
-0.0183281
0.00541341
0.00790996
-0.00184235
-0.00636174
0.00106305
0.0160604
0.0098936
-0.0038785
0.011647
-0.00866142
0.0105401
-0.00500437
-0.00594193
0.00800731
-0.00358304
0.0326985
0.00724072
0.0443454
0.0155571
0.0189245
0.0127675
0.0117805
-0.0202075
0.00867645
-0.015182
0.0172804
-0.0141914
0.00498301
0.00172915
-0.0131728
0.00136316
-0.00860476
0.0115537
0.0123392
0.00783938
0.0140599
-0.000708774
0.0126544
0.0124241
-0.014525
-0.00670257
-0.0112723
0.0221845
0.0264727
0.0305874
0.0360183
0.00460573
0.00215268
0.025806
0.00846633
0.0130352
-0.00961269
0.00465749
0.00660152
-0.00770192
0.013173
0.0215363
-0.00722696
0.0129237
0.00788246
-0.00533291
0.00776541
-0.00604918
0.00757879
0.00764606
0.00600733
0.0182104
-0.000757431
0.011175
0.0160935
0.0265533
0.0177845
0.0121151
0.0320693
0.0267407
0.0150146
0.0163672
0.0149268
0.0272932
0.0111694
0.00158965
-0.0105547
-0.00352245
-0.00760443
0.0161202
0.000839072
-0.000848974
0.0129943
0.00581456
0.00818543
-0.0231885
-0.0113277
0.020818
0.0206521
-0.00585278
0.00697167
0.00881642
0.0189272
-0.00103988
-0.000368518
0.0265369
0.00280218
-0.00153449
0.00243369
0.013769
0.018642
-0.00119944
0.0100875
0.00557636
0.00699204
0.00831972
-0.0081426
0.0103813
0.0128577
-0.000817218
-0.00239113
-0.00725913
0.00700456
-0.0145551
-0.00165632
0.0141788
0.00735683
0.0017116
-0.00352591
-0.00518405
0.022956
0.00367748
-0.00449551
0.000473427
-0.00131279
-0.00743241
0.00214168
-0.00849433
0.019818
0.0114063
-0.0105705
0.0133193
-0.0175961
3.13448e-05
0.000323993
-0.00124091
-0.0134049
-0.00307908
0.0104097
0.0105285
-0.000666713
-0.00196481
0.0137803
0.00826331
0.00900853
-0.0124406
-0.00340809
0.01424
0.0251156
0.0131303
-0.00864418
-0.00403029
-0.00540734
0.00518525
0.00482569
0.0100703
-0.00270953
-0.00463859
0.00157905
0.0033169
0.0213506
-0.00353217
0.00677699
-0.00249137
0.00844982
-0.00616781
0.00836875
0.00520572
-0.00271544
0.000619521
-0.00324782
-0.0140707
0.00331924
0.000751775
-0.00429934
-0.0100199
0.00411456
-0.00192977
-0.00432863
-0.0190519
0.010775
0.00912757
-0.00757788
-0.0146975
-0.00937883
0.0027948
-0.000870681
0.0148832
0.00919706
-0.00966924
-0.00382776
0.0281835
0.00726971
0.0108053
0.0112257
-0.00183104
0.0136858
-0.00719785
0.005018
0.013518
-0.0026269
0.00141433
0.00779231
0.0190027
0.0173993
0.00119333
-0.00842422
-0.0110979
-0.026402
0.0226953
0.0120053
0.00492184
-0.00702905
-0.0212461
0.00350365
-0.00441768
0.000860053
0.00199376
0.00367952
-0.0253103
0.00280351
-0.0123728
-0.00134954
-0.00900716
0.00528346
0.00742478
0.00561628
-0.00977209
-0.0123235
0.0104716
0.00650387
-0.0129102
-0.0154999
-0.00148306
0.00465724
0.0226736
-0.00596254
-0.0087656
0.00729452
0.0150019
0.0149627
-0.0180011
0.00653512
-0.00846697
0.00172163
0.0133939
-0.00291749
0.00109707
-0.00429833
0.00339433
-0.00560521
0.0079185
0.0210514
0.0187478
0.000886564
0.0180006
0.000927487
-0.000838756
0.00924621
-0.00432651
0.0132972
-0.0104934
0.00746086
0.0229549
0.0158412
0.00835833
0.0299239
0.0245862
0.0415372
0.0225553
0.02746
0.0203952
0.0115782
0.00215772
0.0101645
0.020069
-0.00448703
0.00385032
-0.0124522
0.0108537
-0.00483286
-0.0060764
-0.00104175
-0.000391887
-0.00272018
-0.00369849
0.00519066
0.00551662
0.00799235
0.000292582
0.00922322
0.0257152
0.0153476
-0.00335089
0.0301924
0.0441142
0.0232228
0.0284233
0.0363612
0.016015
0.0207999
-0.00198791
0.0164569
0.0100772
0.00114277
0.00513517
-0.0127947
0.00486246
-0.00333029
-0.00223726
-0.00765705
0.0113193
0.00175437
0.0100067
-0.0188331
-0.0114545
-0.0168189
-0.0115009
-0.00363918
-0.00492638
0.00230902
-0.0316627
-0.0358979
-0.0341801
-0.0236604
-0.0305085
0.000566655
0.0066658
0.0142442
-0.0149192
0.00798642
-0.0140101
-0.0129447
0.00710802
-0.0116171
0.00940655
-0.0131552
-0.0116092
-0.00432588
-0.0093735
0.00313353
-0.0130772
-0.00897543
-0.0134348
-0.0431081
-0.0162662
-0.018768
0.000798124
-0.00804138
-0.000514887
0.00960349
0.0195491
-0.00686384
-0.0214673
-0.0439867
-0.0204596
-0.0204363
-0.0231978
-0.0201056
-0.0311013
-0.00466635
-0.00432475
-0.00920479
0.00570713
-0.00933995
-0.0124749
-0.00513613
0.00458761
-0.023258
-0.0228248
-0.0215688
-0.0186452
-0.0171322
-0.00887479
0.000145732
0.0153122
0.0391592
0.0562544
0.0577451
0.043818
0.0326822
-0.0270656
-0.0177415
-0.0323083
-0.022752
-0.0355479
-0.0577088
-0.0182391
-0.0282998
-0.000405845
0.00151867
0.0218207
0.00415633
-0.00943314
0.00619279
-0.0102185
-0.00295498
-0.000531992
-0.0181867
-0.0205041
-0.0131387
0.0100119
0.0168147
0.0238736
0.0482463
0.0501948
0.0370702
0.0392909
0.0101108
-0.00333846
-0.0164514
-0.0132016
-0.0261209
-0.0300105
-0.0449817
-0.0133543
-0.0227129
0.0333879
0.0191199
-0.0169516
-0.00333821
-0.00862821
-0.0178652
-0.00891956
0.00560653
-0.00577336
0.00427229
-0.0144207
0.0159552
0.0364621
0.0067634
0.025342
0.0389257
0.0312972
0.0259352
0.0177435
0.0281131
0.00822865
-0.0107448
-0.0121097
-0.0219418
-0.0293843
-0.0243941
-0.0170459
-0.0176556
-0.000876034
0.00700456
-0.00691536
0.0015065
-0.00566948
-0.00515828
0.00145183
0.00199982
0.00123744
-0.0105318
0.0110828
0.00900899
0.0271098
0.00723138
-0.0192099
0.0186579
0.00503064
0.0342316
0.00761062
0.00197147
0.0131312
0.0112589
-0.0111068
-0.00966718
-0.0360624
-0.0042794
-0.0237542
0.0018806
0.0232538
-0.00998375
-0.00620992
0.00578699
-0.00418728
0.00442918
0.0235565
0.0332028
0.00161191
-0.00231747
0.0115998
0.00255893
-0.0143357
-0.0352762
-0.0473064
-0.0475536
0.00996024
0.0155869
0.000101738
-0.000150373
0.0370199
0.0201971
0.012027
0.0332937
0.00100706
-0.00154645
-0.0297926
0.00346465
-0.0103814
0.00588917
0.00167378
-0.0104763
0.0186086
0.0150549
-0.00326745
0.0181374
0.00124473
-0.000476268
-0.00293586
-0.000569431
-0.0435127
-0.0607971
-0.0752997
-0.0553907
0.00699115
0.00664258
-0.000842317
0.000382402
0.0154611
0.0106691
0.0264614
0.0120567
-0.00821734
-0.0041549
-0.00115306
0.00351505
-0.0130089
-0.00725864
-0.00966388
0.00469222
0.0068899
-0.00281812
0.00509367
0.00103287
-0.0029797
-0.0211764
-0.00650195
-0.011352
-0.0549168
-0.0484046
-0.0440524
-0.0127744
-0.00202682
0.0135101
-0.00352069
0.016727
0.00503944
0.0238767
0.0185536
0.00210711
-0.0187259
-0.00879076
-0.0110433
0.000454443
0.00424095
-0.0101927
0.00490418
0.00176943
-0.00240425
-0.00848637
-0.0072743
-0.00294698
-0.0397115
-0.0269101
-0.0198591
-0.0117246
-0.0229089
-0.0365369
-0.0593754
0.00296486
0.0294262
0.0100304
0.0481633
0.0280102
0.0188777
-0.0231275
-0.0268917
-0.00160955
-0.00245287
0.00456168
0.0126053
0.0192946
-0.00204027
0.00560966
0.0179321
-0.00219939
-0.00644891
0.00669484
0.014407
-0.00774005
-0.0201132
-0.0205401
-0.0084631
0.0119873
-0.0181977
-0.022978
-0.00231153
0.0131301
0.00774826
0.00440426
0.0264355
0.0136993
-0.013467
-0.0122145
-0.00145063
0.00338156
0.00323411
-0.00214659
0.00352513
0.0171677
-0.0180592
-0.00703658
0.00528714
-0.00263829
0.000669072
-0.0205638
-0.0145149
-0.0137504
-0.0222463
-0.0208593
-0.0299213
-0.00864829
-0.00332208
-0.0196231
-0.0224532
-0.0170685
-0.0165902
-0.0131504
0.0223838
-0.0150519
-0.00103566
-0.0209021
-0.00906258
0.0036828
-0.0212674
0.0110995
0.0116067
0.0216132
-0.00484718
-0.000971895
0.000913622
0.005229
0.00746554
0.00998525
-0.00503541
-0.0165557
-0.0163227
-0.0152768
-0.00693926
-0.00905049
0.0183525
0.0214986
-0.00984591
-0.0181043
-0.006313
0.0109644
-0.0106017
-0.0112351
-0.031271
0.00391499
0.00570391
0.0124687
0.0119645
0.00511526
0.0126763
0.000849879
-0.000737536
-3.42723e-05
0.0187586
-0.0145883
-0.00381183
0.00467256
-0.0169459
0.00767586
-0.00864319
-0.00574333
-0.00538932
0.0193446
0.0482359
0.0123823
0.0186652
0.0229453
0.00161679
0.00580972
-0.0122846
-0.0233385
-0.0171051
0.0147773
0.00563693
0.0268671
0.0125092
0.0137132
0.0303873
0.0130767
0.0117476
0.0104432
-0.00697934
0.00864375
-0.00327949
-0.00363132
0.0048366
-0.0108656
-0.0254636
-0.00208674
0.0210675
0.0494408
0.0386871
0.0391472
0.0428401
0.00699712
0.0358833
0.0185544
-0.000560395
-0.0102533
0.0239854
0.0251186
0.0204599
0.00833118
0.0124021
0.00430328
0.00598327
0.0038182
-0.015411
-0.00789425
0.00670888
-0.0157794
0.0124876
-0.00384357
-0.0180429
-0.00607265
0.00247301
0.00118939
0.015536
0.0108909
0.0354162
0.0374871
0.0295644
0.0389209
0.0277555
0.0265079
0.0115605
0.0104594
-0.0078018
0.0145681
0.0112969
-0.00626077
0.0239602
0.0284162
0.0249111
0.00289936
0.00118981
0.00546384
0.0054686
0.00612831
0.0101777
-0.00918433
0.00678218
-0.013043
-0.015809
0.0116955
-0.00972862
-0.0085221
0.00268215
0.0160015
-0.00133214
0.0209097
-0.00754059
0.0121366
-0.0154068
-0.0236808
-0.010243
0.00603315
0.0281318
0.00525632
-0.00728354
-0.00921922
-0.00588272
-0.00767058
-0.00939622
0.0219108
0.000678182
0.00272995
-0.00182026
0.0108272
-0.0109077
0.00236284
0.00634791
0.00934841
-0.0122491
-0.025283
-0.046078
-0.0616644
-0.0524756
-0.0636426
-0.0410865
-0.0440441
-0.0372901
-0.0476608
-0.019147
-0.0231363
-0.0330303
0.00734598
-0.00426894
0.0269089
0.012616
0.00897017
-0.00801745
-0.00423826
0.00390799
0.00146005
-0.00999154
0.00219595
-0.00847168
0.00406236
0.00483475
-0.00350981
-0.00937868
-0.0193206
-0.0563235
-0.0611224
-0.0792006
-0.0585876
-0.0731328
-0.0505365
-0.0361364
-0.0388638
-0.018524
-0.00520153
-0.0173344
0.000677091
0.0134441
0.00318918
-0.0148969
-0.00343204
-0.0148398
-0.0014777
-0.00494942
0.00643324
0.00950145
-0.0137149
-0.00558683
-0.00434042
-0.00581701
-0.00534939
0.0026049
-0.00135867
-0.00584317
-0.0137489
-0.00505624
-0.00480902
-0.021912
-0.0183084
-0.00749767
0.0104562
0.0110828
0.022026
0.027625
0.0204124
-0.00403004
-0.00255811
0.00604139
-0.00395392
0.0105199
-0.0273133
-0.00315849
0.0255469
-0.00720621
-0.00517275
0.00176917
0.0115702
0.0212905
-9.68727e-05
0.01894
0.0317805
0.0360265
0.0284183
0.0428016
0.0268827
0.0235836
0.0228953
0.0435526
0.0585176
0.0379437
0.00617369
0.0262283
0.00149462
-0.0256954
-0.00847619
0.00900821
0.0194925
-0.00071861
-0.00665482
0.0238851
-0.0078323
-0.00503204
0.023452
0.000522785
-0.0118381
0.0043335
0.00159787
0.00709917
0.0160047
0.0270247
0.0362173
0.00894419
0.0222761
0.0310729
0.00984791
0.0242074
0.0041297
0.0130632
-0.0124622
-0.00301036
-0.000760674
0.012479
0.0127719
0.00795437
-0.00719538
-0.0252599
0.0134011
-0.0119152
0.000969251
0.0106746
0.0172402
0.00200461
-0.00215284
0.00196088
0.00808091
-0.00909412
0.00740512
0.00136546
-0.00646472
0.0178171
-0.00525488
9.62137e-05
0.0139529
0.00570823
-0.00200601
-0.0063314
-0.00529283
0.00245417
0.0131516
-0.00817313
0.0291269
0.000407919
-0.00548414
0.00522018
0.0143085
-0.025714
0.00295917
-0.013718
-0.00615685
0.0124569
-0.00315829
-0.00165016
0.00392041
-0.0199798
0.00527698
0.00283033
0.00770602
-0.022293
0.00535893
-0.00550642
-0.00435268
0.00518841
-0.013392
0.00363743
-0.0146941
-0.00330652
-0.0125806
0.00476123
-0.0112613
0.00711025
0.0101474
0.0126676
0.0015039
0.0212344
-0.00541245
-0.00266486
0.00659349
0.00488646
0.000740469
0.000920795
0.00466492
-0.00200276
0.000922221
0.0302064
-0.00108898
-0.00691407
0.0106808
0.000226183
-0.0244006
-0.0189618
-0.00522954
0.0112172
-0.00790626
-0.000360228
0.00300604
-0.00135181
0.0108742
-0.0260054
-0.0112868
0.0130518
-0.0116856
0.000401664
-0.00370903
-0.00829366
-0.0167561
-0.000232168
0.0151082
-0.0183758
0.00350569
0.0114472
0.00339771
-0.0124549
-0.00799344
0.0146414
0.00438404
-0.00266572
0.00347366
0.00540399
-0.00267712
-0.00925945
0.0172632
-0.00254855
0.00815178
0.0183761
0.0207231
-0.00580696
-0.00262927
-0.0137611
0.00254644
0.00686986
-0.00161561
-0.000159501
-0.0111253
-0.0026459
-0.00771702
0.0143138
0.00115243
0.0120205
-0.0116825
-0.000560848
-0.0130886
-0.00981263
-0.0101741
-0.0173399
-0.0174948
-0.00617379
-0.00363846
-0.00242257
-0.00852975
0.00227474
-0.00659514
-0.00118724
-0.00985092
0.000476413
0.0166442
6.07167e-05
-0.00241958
-0.00195202
0.000437743
-0.00532911
-0.0172654
-0.0024218
-0.0289356
-0.00110663
-0.00800937
-0.0095241
-0.0384232
-0.0199425
-0.0208693
-0.0257718
-0.0259954
-0.0249285
-0.0341644
-0.023224
-0.0113752
-0.0149833
-0.00316242
-0.00381549
-0.0130263
0.00487112
-0.0086576
-0.0115338
0.0229228
-0.00435618
-0.0108201
-0.00716556
-0.00276748
0.0190456
-0.00453276
-0.0119327
0.00185806
-0.018154
-0.018473
-0.0162042
-0.0153269
-0.0328222
-0.0288928
-0.0478373
-0.00926903
-0.0136124
-0.0205695
0.0122159
-0.000699573
0.0093564
-0.000578135
0.0165293
0.0141801
0.0217139
0.0129891
0.0185404
-0.000781645
-0.00287103
-0.00774336
0.0123864
0.00791104
-0.0135869
0.00703143
-0.0064847
0.0195682
-0.019729
-0.000951109
-0.00865321
-0.00150879
-0.0109968
-0.0252585
4.8501e-07
-0.015319
-0.00423267
-0.0178475
-0.0111923
-0.00430418
0.00123396
0.00976656
-0.000388287
0.01568
0.0235938
0.0365775
0.0237124
-0.0157583
0.0168961
-0.0038636
-0.00886493
0.00762899
-0.00761227
0.0168235
0.00557205
-0.0161447
-0.0138352
0.00354899
-0.00965058
-0.00685114
-0.0145752
-0.0130288
0.00597517
0.00425993
-0.00534277
0.00384373
-0.0096292
0.00261933
-0.0151425
-0.0114317
-0.0303159
-0.00361086
-0.00384523
-0.00905799
0.00282681
0.0133536
0.021193
0.01136
-0.00279914
0.0121725
-0.0120713
-0.0234347
-0.0125048
-0.0165937
-0.0393125
-0.0243937
0.0225274
-0.0140989
-0.0239952
-0.0320573
-0.00666554
-0.0191444
-0.00721331
-0.00644571
-0.00414581
-0.00989938
-0.0093622
-0.0101598
-0.0339013
-0.0272602
-0.016039
0.00430756
0.0147994
0.0166457
0.0101906
0.0013944
0.0153479
0.0034549
-0.0155822
-0.00185823
-0.0164048
-0.0268449
-0.0066615
0.00287446
-0.00794305
0.0172346
0.0153842
0.00203945
-0.00805989
-0.0236703
-0.0233651
-0.0172022
-0.0311187
-0.0417162
-0.00911381
-0.0126411
-0.0213585
-0.0288531
-0.0109182
0.0222855
0.0127926
0.00039921
0.00361273
-0.00463991
0.00180911
-0.011682
0.00126472
-0.00862396
-0.0142969
0.00659163
0.00843848
0.000190476
0.023346
0.0152122
0.0394124
0.0483672
0.0272997
0.00539576
-0.0179436
-0.0438121
-0.01718
-0.0227341
0.000201282
-0.0250029
-0.0285018
-0.0235579
-0.000304561
0.0180369
-0.0093128
0.00960093
-0.00942284
0.0119721
-0.00194704
0.0153223
0.00487619
-0.00783379
-0.0145529
0.00861764
0.0239894
0.0240164
0.0355368
0.04177
0.0406905
0.0616547
0.0367476
0.0253966
-5.15314e-05
-0.015572
-0.00970468
-0.00234221
-0.0178798
-0.0261064
-0.00257765
-0.00637008
0.0121322
0.00521542
0.0218021
0.000509187
7.94115e-05
-0.000803108
0.00878205
-0.0144824
-0.00439466
0.0120237
0.0178619
0.0199548
0.0151366
0.0349459
0.0323574
0.0400116
0.0465115
0.0331493
0.0113544
0.0211502
0.0134516
0.0226342
0.00832359
-0.0123481
-0.0299196
-0.018872
0.00248959
0.0224355
0.0206656
0.0395791
0.00228415
0.00715663
-0.00549376
-0.0202321
0.0134356
0.00314913
0.00115564
0.00111957
0.00253719
0.0171676
0.0331906
0.0559417
0.0233219
0.026879
0.0334395
0.0210917
0.00446615
0.0397925
0.034608
0.0392402
0.00534313
-0.0163854
-0.0197564
-0.0227792
-0.00163563
0.0107061
0.0327143
0.0268355
0.0208781
0.0166687
-0.0221473
-0.00844654
-0.00572357
-0.00786279
0.00147744
0.0117489
0.0112671
0.0334727
0.0538254
0.0348284
0.0219873
0.0144535
0.0244865
0.0165874
0.00166783
0.0163472
0.0381172
0.02166
0.00814615
-0.0146973
-0.0369991
-0.00468891
0.0133705
0.00460196
0.0319193
0.0345259
0.0227123
-0.0076718
-0.0132901
0.0216132
0.00639314
0.0177568
-0.00340268
0.0136233
0.00207213
0.00448081
0.0128093
0.0110101
0.0165014
0.0223349
0.00589283
0.00355552
-0.015682
0.0103079
0.0297546
0.0091825
-0.0190051
-0.00942851
-0.000329935
-0.0301335
-0.00099943
-0.00498841
0.0105756
0.0172948
-0.00109282
-0.00537909
0.000459559
-0.00841571
-0.00886067
-0.0096953
-0.0108263
-0.0134293
0.00348848
-0.00279408
0.00497896
-0.00320621
0.0268364
5.49222e-05
0.0188134
0.0212155
0.0122739
-0.00605437
0.0174239
-0.00762489
-0.0196038
0.00447092
-0.00920589
-0.0087301
-0.0178294
-0.0152807
0.00377607
0.0245655
0.00891384
-0.00675324
0.00013808
0.0142417
-0.00658875
0.00837514
0.00800211
-0.015408
0.0048761
-0.0315924
-0.0109892
0.0136865
0.0127126
0.0332333
0.0384434
0.0100998
-0.00116153
0.0156562
0.00332292
-0.00101205
0.000193514
-0.0222206
-0.0170722
-0.0109492
-0.026281
-0.00986237
-0.0305917
-0.0022968
-0.0223337
-0.0138665
0.00940293
-0.00230968
0.0109522
0.00199268
-0.00962613
-0.027291
-0.0199006
-0.0187278
-0.0174576
0.0013925
-0.00311425
0.0193136
0.0179148
0.0232854
0.00358533
-0.01305
0.0140188
-0.0103229
-0.0116032
-0.00826056
-0.0196751
-0.00663037
-0.00198334
-0.0101474
-0.011475
-0.0260368
-0.0120806
-0.0178117
-0.00764079
0.000887914
-0.02787
0.0102487
-0.0129286
-0.0185049
-0.0251985
-0.03196
-0.016224
0.00955049
0.0209594
0.00318324
0.0145441
-0.0057455
0.00754291
-0.000663226
0.0124035
0.00990656
-0.034459
-0.0164723
-0.00193635
-0.00878319
-0.00370868
-0.0181114
-0.00647311
-0.0166663
-0.0202809
-0.0149745
0.0185414
-0.00701328
-0.00316415
-0.0160836
0.00487817
-0.00320975
-0.0373949
-0.0118712
-0.0124602
-0.0272983
0.0092665
0.00550843
0.0243709
-0.000922722
0.0401499
0.016746
0.00841477
0.00397338
-0.00746335
-0.00866547
-0.00124105
-0.0155934
-0.00614697
-0.00594323
-0.0110024
-0.0290264
-0.0195296
-0.0143378
-0.0134007
0.0132324
-0.00184318
0.000512567
-0.000378988
-0.0163925
-0.0296297
0.0010186
-0.0074305
-0.0246673
-0.00847006
-0.0099555
0.0126998
0.0152881
-0.0103967
0.02766
-0.000942289
6.23612e-05
0.00587021
-0.00646023
-0.00913776
-0.0117292
-0.00513387
0.00582986
-0.000339597
-0.0107436
-0.0240442
0.00428287
-0.00502449
-0.0141458
0.00930613
0.00309883
-0.00776245
0.000774962
-0.00195278
-0.0191743
-0.0141798
-0.00958508
-0.00445487
-0.0200074
-0.00539368
0.00301308
0.0126456
0.0128374
0.0074854
0.00908822
-0.0012308
0.0133952
0.0162797
0.0162184
0.0168598
0.00574006
-0.0223726
0.00175946
-0.00257468
-0.00996812
-0.00148817
0.00879137
-0.00356938
-0.0169027
0.0154936
-0.00364469
-0.00119227
-0.0156401
-0.00733513
0.00661894
0.0104844
-0.00166034
0.0117572
-0.00262753
0.017044
0.0132985
0.0104838
0.00449315
0.0244888
0.0242185
0.0182463
0.0466535
0.0224795
0.00235005
-0.0132581
0.00305548
-0.00590896
-0.00229169
-0.0135323
-0.000526843
-0.0222099
-0.00253412
-0.0177403
0.00741063
-0.0163949
-0.00268883
-0.00394171
-0.0107823
-0.0120636
-0.00376518
-0.0334374
-0.0127784
-0.0211266
-0.0358922
-0.0117564
-0.0227676
0.00738262
0.0345678
0.00572503
0.0378774
-0.000125851
0.00323426
0.0284879
0.00911532
-0.00972112
0.00858889
0.00829076
-0.0139134
-0.000996787
-0.0138302
0.00278691
0.00551726
0.0133916
0.0162791
-0.0122539
-0.00652498
-0.0294873
-0.00647656
-0.0270069
-0.0158763
-0.0477706
-0.0229478
-0.0199881
-0.00732302
-0.00158817
-0.0100537
0.0148405
0.0165017
-0.00882467
0.0019834
-0.0108216
0.00288773
0.00026276
-0.00728799
0.00655962
0.000453704
0.00205256
-0.00763714
0.00620252
-0.00554792
0.00667272
-0.00999107
-0.00592197
-0.0285942
-0.0103523
-0.00970236
-0.0279887
-0.00822053
-0.00389451
-0.0229731
-0.0191252
-0.0203359
-0.0102678
-0.00334506
0.00547387
0.00240869
0.00637267
0.00773356
-0.00693883
-0.00830678
-0.00311207
0.00512655
-0.00471752
-0.0112774
0.0113339
-0.00339283
0.00499659
0.000868147
0.00323667
0.00596805
0.0144517
-0.0164183
-0.00872359
0.00863013
-0.00555318
-0.0013422
0.00727026
-0.021252
-0.0162494
-0.0120531
-0.00338076
-0.00319623
-0.00917973
-0.00382844
-0.00105836
-0.00929718
-0.00679716
0.00883324
-0.00909591
0.00514695
0.00073103
0.0107246
-0.00943685
-0.00519346
0.0196485
-0.0019232
-0.0016204
-0.00183087
0.00743327
0.00724812
0.0150358
-0.00553379
-0.00527315
-0.0122828
-0.0128398
0.0136875
-0.00622533
-0.00331695
-0.0231492
0.00524268
-0.0125263
-0.00537411
-0.015164
-0.00418523
0.00096161
0.0173623
0.00978553
0.0221301
0.00732713
-0.000690784
0.00621258
-0.00198728
0.0120007
-0.00197046
-0.0057766
-0.00909535
0.00489138
0.00465222
0.00478037
-0.0127539
-0.0185513
-0.011595
0.0115311
-0.00826693
0.0115457
-0.00271337
0.00618026
-0.00854079
-0.00528252
0.00245008
0.0167614
0.0151338
-0.00347187
-0.000294347
-0.00182048
0.0148011
-0.000161561
-0.0186603
0.00613025
0.00265551
0.0146751
0.00348617
-0.00774961
7.75651e-05
-0.0140997
-0.00912908
0.00948261
-0.00188599
0.000681545
0.0034099
0.00530947
0.00606349
-0.0114499
-0.0134313
-0.0119757
0.000664516
0.0161686
-0.0109233
-0.00820526
-0.00841652
0.00505865
-0.000813445
0.00186057
-0.0203221
0.013581
-7.32177e-05
0.0122123
0.00244196
-0.0119565
0.0133975
-0.00366824
0.00146952
-0.00179662
-0.0115955
0.0168769
-0.0236987
0.013243
0.0152711
-0.0238074
-0.00512062
-0.00686728
-0.00433219
-0.0227902
-0.00208281
-0.0101428
-0.0153769
0.00263755
0.0049458
0.00381497
0.00388389
0.0160209
0.0138927
0.00474483
0.0157598
-0.0057028
-0.0145773
-0.0176239
0.016803
0.00787542
-0.00813328
-0.0075096
0.00381737
-0.0176717
-0.0143888
-0.011179
-0.0175039
-0.00903963
0.00555585
-0.00299359
-0.00696635
-0.00175472
-0.0131983
-0.00364056
0.00172647
-0.0122227
-0.0159124
-0.0065477
-0.00513734
-0.00112195
0.018162
0.027297
0.0113201
0.0198957
0.00713101
0.00354823
0.0213811
0.0117037
-0.00827153
-0.00803312
0.000277375
-0.0118989
-0.00417324
-0.0181198
-0.000173951
0.00452259
0.00325535
0.00455085
-0.0112498
0.00444372
-0.00255471
0.00853233
0.00156023
0.0112462
-0.00511417
0.00774626
0.00485413
-0.000875248
0.00254258
0.00624403
-0.00272827
0.000713005
-0.00586506
-0.002815
0.00536889
-0.00351733
-0.0136107
-0.00927184
-0.00558976
-0.0196116
-0.0104311
-0.00988529
0.00183445
0.0120367
0.0237311
0.0348234
0.0332576
0.0282024
0.00237048
0.0183534
0.0103554
-0.000828969
-0.0150176
-0.0156023
-0.0185612
-0.00329451
0.0162548
0.00452836
0.0128383
-0.00794822
-0.0056779
0.00786423
0.00719611
0.0143549
-0.00146802
-0.00674937
-0.0198386
-0.0187196
-0.0299581
-0.0182237
0.0039197
0.0311123
0.0383063
0.0561344
0.0561802
0.05886
0.0324053
0.037139
0.0180307
0.00850889
0.00966146
0.00272189
0.0130238
-0.00232686
-0.00771768
-0.0130564
0.00451475
-0.00712631
-0.00751862
0.00373599
-0.00459982
0.0129373
0.00684082
-0.00628846
-0.0182708
-0.026624
-0.0121673
-0.021534
-0.00543152
0.0107911
0.0180581
0.0314547
0.0404892
0.0192441
-0.00391944
0.00312039
-0.0113029
0.00331385
-0.000595471
0.00890338
0.00303738
-0.00703365
0.0125181
0.0176081
-0.000755947
0.00384311
-0.00645886
0.014116
0.0108122
-0.00704794
0.023159
-0.0172994
-0.0324007
-0.0339015
-0.00262618
-0.00924542
0.0133998
0.0249422
-0.00737212
0.0192133
0.00196654
0.00299508
-0.0205363
-0.0192704
-0.00515536
-0.00835093
0.00868929
-0.000605889
0.0104902
0.0219099
-0.00624655
-0.000470122
0.0050964
0.00618332
0.000769856
-0.00552735
-0.00448822
-0.0156858
-0.0169515
-0.0201459
-0.00200505
0.0101878
0.0077861
0.00210582
0.0213974
-0.0213722
0.00261545
0.0211658
0.0156857
-0.014495
-0.00482864
-0.0175135
-0.0224841
-0.0226903
0.000942626
0.00722655
0.00961643
0.019709
-0.0055629
0.00638214
-0.00730221
-0.0287774
-0.0104115
-0.00611074
-0.00255548
0.00412801
-0.00719937
-0.014496
0.0151846
0.0051445
-0.00476306
0.00877414
-0.0130374
0.00682193
0.0325536
0.0240919
0.00460511
-0.020104
-0.0247767
-0.0110908
0.0125995
0.000341796
0.00445132
0.0231208
-0.00204602
0.0173968
0.00932082
0.00248265
0.00263724
0.0146904
-0.0100329
0.0155945
-0.0139172
-0.00920077
-0.00819847
-0.00797785
-0.00182609
-0.00838313
0.0138394
0.00120835
0.0279367
0.0163351
0.026284
0.0267295
0.0216253
-0.0146418
-0.0191321
0.00536322
-0.00159427
0.000745243
0.0186259
-0.00468365
0.0209487
0.00769716
-0.0222357
-0.0016783
0.00531278
-0.0166202
-0.00790603
-0.00300611
0.00942866
0.00211134
-0.0185666
-0.0204306
0.00833324
0.00502628
0.0215143
0.0174868
0.00538156
0.00743767
0.0270625
0.0546571
0.00856848
-0.000896579
0.0026154
-0.0147205
-0.014375
-0.0274846
0.000845056
0.000121885
-0.000919549
-0.00928786
-0.000924521
0.00216765
0.00871834
0.0142156
-0.0014774
0.0045481
-0.0185931
0.00138489
-0.0254682
-0.0270929
-0.00625808
0.0156784
0.0247426
-0.00339538
-0.000964462
0.0235699
0.0355285
0.0360177
-0.0101277
-0.0120553
-0.0141877
-0.0227312
-0.0508821
-0.0245885
-0.0131565
-0.0104872
-0.0175495
-0.00898417
0.00267631
0.0181678
-0.0161518
0.0103764
0.00898882
-0.00617388
0.00103515
0.0100418
-0.00230543
-0.00920763
-0.0323055
-0.0127068
0.0209376
0.0208941
0.00379592
0.0284814
0.0298051
-0.0237587
-0.0245784
-0.0122714
-0.0288022
-0.0473329
-0.0328847
-0.0281959
-0.0168556
-0.0242102
-0.00062202
0.00151724
0.0205441
0.000908039
-0.00846516
-0.00420262
-0.00236394
0.00342876
-0.000422565
-0.00155412
-0.00762135
-0.0313516
-0.0205247
-0.00367929
0.0134369
0.0230075
0.0264495
0.0348867
-0.00539317
-0.0226866
-0.0415966
-0.0365999
-0.0222981
-0.0221721
-0.0389001
-0.0309598
-0.0181495
-0.0351568
-0.0244209
0.0100036
-0.00256692
-8.43419e-05
0.00201046
-0.0058795
0.00167105
0.00279355
-0.0158768
0.0199164
0.00485288
-0.0110498
-0.0285381
-0.0142111
-0.00835671
0.0244271
0.0189529
0.0190045
-0.0274866
-0.0520952
-0.0254652
0.00509252
-0.0321334
-0.0100777
-0.0117433
-0.0126046
0.0138231
-0.00079797
-0.00554567
-0.00960646
0.0020006
0.00115669
0.0028444
-0.0101115
-0.00548978
0.0110683
0.00260442
0.000115488
-0.0137487
0.00499282
-0.0112522
0.00126182
0.0146866
0.0189624
0.0172723
-0.0278614
-0.0344509
-0.0511304
-0.00623819
-0.0172646
-0.0205109
-0.0165712
0.011887
0.00538122
-0.0129312
0.00525245
0.0181611
0.0109644
-0.00645297
-0.0061467
-0.00432093
0.00675486
-0.013117
0.00185139
0.00658767
0.0115419
-0.000718564
0.0162009
0.0299603
-0.00213492
0.0105597
0.0132241
-0.0101723
-0.0141244
-0.0369345
-0.00166509
-0.0223196
-0.00887047
0.0149791
0.000142105
-0.00195235
0.0115764
0.00956171
0.00594794
0.00509923
-0.00221809
0.00230815
0.0283426
0.00532436
0.00617551
0.00919245
0.000271505
0.00830901
-0.00740035
0.00833662
-0.00144987
0.0122476
0.00810282
0.0366942
0.0101024
0.00443717
-0.0111757
-0.0107801
-0.00853154
-0.00887786
0.00726328
-0.0219774
0.0138774
0.00771726
0.00800971
0.00845305
-0.0143551
4.05014e-05
0.00608008
0.00362898
0.00706033
0.000269288
0.000382155
0.00977238
0.0117927
-0.00508123
0.00669814
0.0212675
0.0168231
0.0232914
0.00411463
0.0144546
0.0106218
-0.0117079
0.00722669
-0.00273905
0.0185686
0.00786679
0.0228956
0.00272803
0.0232275
-0.0187842
0.0108911
0.00354989
-0.0103251
0.00891916
-0.000902982
-0.00568941
0.00294821
0.00264249
0.00249402
0.0104248
-0.0104435
-0.00268569
0.00907658
0.0190191
0.0237545
0.0185722
-0.000636086
0.01294
0.0120848
0.00351225
0.0239184
0.0324131
-1.82977e-05
0.0121984
0.00220447
0.0132378
0.00577109
0.0101748
0.0157105
-0.0102085
0.00718516
-0.0134185
0.00440662
-0.000830737
-0.00669047
0.00281932
-0.00601712
9.74952e-06
-0.00255522
-0.0145441
-0.0158256
0.00851685
-0.000705094
-0.00513986
0.0127297
0.00185258
0.0038834
0.0236447
0.00592585
0.0134056
0.0211701
0.0141147
0.0185349
-0.00589962
0.0023435
-0.00437095
0.00333359
-0.00603336
0.00345042
0.000845661
0.0172472
-0.00607405
-0.00478678
0.000245259
-0.0227815
-0.00189603
0.0103357
-0.0147611
0.00671361
0.0112484
0.00142716
-0.00479388
-0.0184839
0.00345976
-0.0148464
0.00533544
0.00299786
0.0106606
-0.0157328
0.000427652
0.0198299
0.0127484
-0.00539396
0.00552611
-0.0060941
0.008768
0.00246598
-0.00755066
-0.0152668
0.0005301
-0.00138675
0.0106726
0.000496117
0.00713853
0.00196584
-0.00505545
0.0147369
0.000310183
0.00507722
-0.0118063
-0.00216768
-0.0156231
-0.00177323
-0.00720099
0.00787042
-0.00367103
-0.0101129
-0.0157824
0.0121892
0.0289773
0.00832773
0.00810383
-0.000418488
0.00829874
-0.00689372
0.0012543
0.00183488
0.0100236
0.00459679
-0.00199127
-0.0153186
0.00747311
0.00586203
-0.0123779
0.00814282
0.0113215
-0.0124254
0.0184308
-0.0178353
-0.00210843
-0.0259502
0.00518885
-0.00313543
-0.0100043
0.0158356
-0.00771626
0.0120693
-0.00172309
0.00633377
0.00656329
0.00866714
-0.00997007
0.00902207
0.0139197
-0.000847247
-0.0104959
-0.0114906
0.0159705
-0.00613091
-0.0154458
0.00878382
-0.00375126
0.00912011
0.00298922
-7.31233e-05
-9.81639e-05
-0.000412337
-0.00287836
-0.00497225
0.00694721
-0.0203
0.00315003
0.00670306
-0.00476238
-0.00131892
0.00748457
-0.0158825
-0.0159453
-0.0329476
-0.00250298
-0.000730084
-0.028975
-0.0104358
0.00820434
-0.00125565
0.00554607
-0.0126799
-0.00345999
-0.00969244
-0.0075094
0.00337612
0.00675568
0.00432672
0.00504596
0.000133545
-0.00184258
-0.0143645
-0.00799333
-0.00941163
-0.00473202
0.0177024
0.00023628
0.0143952
0.0139992
0.000450115
-0.000530032
0.016846
0.00357141
-0.00352834
-0.00471323
-0.000294935
0.0162607
0.0134338
0.0235499
0.00400837
0.00132396
0.000412719
0.0129914
-0.00246023
-0.00143134
-0.00474847
-0.00508713
0.00915314
-0.00261551
0.00534772
0.00673586
-0.00782561
-0.000152445
-0.00963605
0.0112881
0.00240391
-0.0026003
-0.00225364
-0.000136417
-0.00402245
0.00832428
-0.00721239
0.00704705
0.0147175
0.00439558
0.0125273
0.0022065
0.00249922
-0.00810698
-0.00968614
-0.0102107
-0.00859546
-0.00182086
0.0116809
-0.0169557
-0.00542895
-0.02226
0.0151019
-0.00124775
0.00482025
-0.0115501
0.0060404
-0.0122031
-0.003746
-0.000626847
0.0231998
0.0099903
0.0159521
-0.00152509
-0.00798329
-0.00829053
-0.0100047
-0.00081657
-0.00230059
0.00463429
-0.0262075
0.0018778
-0.00301124
-0.0246553
0.0107915
0.00349534
0.00212567
0.00905994
-0.00796068
0.0124128
-0.00206055
0.0114903
0.00964115
0.00566243
0.00435392
0.0075198
0.0151024
-0.00210391
0.0131563
0.0195759
0.0102381
0.00668138
-0.0376939
0.00927619
0.00497175
0.00230893
-0.0080411
0.0133957
0.00197868
-0.009354
-0.00132264
-0.00298897
-0.0145528
0.0032816
-0.0115185
-0.00718975
0.00746618
0.0041889
-0.00414411
0.0127867
0.00549004
-0.00380138
0.0145378
0.00836231
0.000178566
0.00145422
0.0188876
0.00504433
-0.0215073
0.00676482
-0.0125557
-0.00171695
-0.00101453
0.000414619
0.00295859
0.000377623
0.00772522
-0.00803891
-0.00733471
-0.000934516
0.00348143
-0.00153051
0.0123375
-0.00972928
0.00230282
9.41725e-05
0.00990406
0.0064128
0.0210116
0.00581949
-0.0120322
-0.0243991
-0.00974832
-0.00190537
-0.0190019
0.00850223
-0.00840114
-0.0128411
-0.0209973
0.0144896
-0.00685137
-0.00475381
0.00806164
-0.0077864
0.00671773
0.00128199
-0.00344522
-0.00440172
0.00479209
-0.0101296
0.0136146
0.00562578
0.0221375
0.0104604
0.0236079
0.0152502
0.0142439
0.00711503
-0.00118675
-0.000851899
0.0105793
0.00182093
0.00282194
-0.00273666
0.0105243
-0.0111131
-0.0123832
-0.00545429
-0.0219301
-0.00253463
0.0111411
0.00056795
0.00211557
-0.00586528
-0.00745766
0.00400978
0.0153113
-0.00943938
0.00579966
0.00879518
0.0258306
0.0174184
0.00726915
-0.00779897
-0.00142781
0.00423767
0.000566609
0.0177865
0.00691038
0.0318301
0.00203361
0.00386776
0.000133722
-0.00186273
0.00784096
0.00178278
0.011436
-0.00148575
0.00846636
0.0106692
0.0184389
0.00539133
-0.0068715
0.000718546
0.0163909
-0.00342646
0.00625071
0.0204679
0.00581417
-0.00312282
0.0344896
0.0260989
-0.0166279
-0.00363733
0.0111745
0.00238931
0.019205
0.00307073
-0.0190063
-0.00880569
0.0163782
0.00752051
0.0105133
0.00973873
0.00568074
-0.00309962
0.013243
0.00657206
-0.0117048
0.0130023
0.0222315
-0.0111786
0.0138535
-0.0102406
-0.0152876
-0.00841782
-0.0114342
0.0247375
0.0219529
-0.003253
0.00784471
-0.0152394
-0.00307498
-4.26027e-05
-0.00135281
0.0193722
-0.00114484
0.00742379
0.0159353
0.0107333
0.00916126
0.0230767
0.0308638
0.00189419
-0.0167477
-0.00872638
0.000224177
-0.00930471
0.0206846
-0.00240194
-0.00249297
0.0123358
0.016897
0.00291628
0.0119043
0.00747579
0.0242261
0.0183202
0.00299382
-0.0074995
-0.0172092
0.000407457
-0.01123
0.00366128
0.00229109
0.0190086
0.000943665
0.00238473
0.0284949
0.025594
0.00377727
-0.0111376
0.00081106
-0.00354652
-0.00902266
0.000804316
0.0063032
0.00735663
-0.0169655
0.00292817
0.0091421
-0.00585069
0.0258204
-0.0170553
0.00953137
-0.00155489
0.0138839
0.00842713
-0.0186608
-0.0155827
-0.0149527
0.00528002
-0.00838112
-0.000519283
0.00887083
0.0210869
0.012604
0.000323425
0.0162257
0.0114864
-0.0151571
0.00347127
-0.00343602
-0.000484997
-0.00189495
0.00578662
-0.000228619
-0.0107204
0.0114873
0.00409397
0.000536085
0.0222064
0.0117891
0.0112319
0.0135799
-0.00868399
-0.0333642
-0.0176619
-0.0224704
0.008435
0.00793784
0.0111506
0.00972345
0.00247482
-0.000663738
0.00422493
0.00815835
-0.00177413
-0.0121655
0.00118019
-0.00526409
-0.00674548
-0.0203245
-0.0106736
-0.0152679
-0.00906529
-0.00684123
-0.00191891
-0.00792179
0.0015621
0.017464
0.022066
0.017415
-0.000210075
-0.0254104
-0.0164558
-0.0171823
0.00943781
0.000936758
0.00964705
-0.00771819
-0.0024975
0.000581613
0.00234408
0.00164228
0.00682199
0.00216184
-0.0101958
-0.0197488
-0.00260689
0.00327524
0.00748813
-0.00416344
-0.0144792
0.0101578
0.0068232
0.010129
0.0153108
0.0297577
0.0265905
0.00196592
-0.0177127
-0.0197999
-0.0274843
-0.000402621
0.0103397
0.014039
0.00711205
0.0113184
-0.0026122
0.013168
0.00897963
-0.0161301
-0.000453935
0.0126708
-0.0107929
0.000214474
-0.00777761
-0.00539344
0.00217617
0.0159632
0.00221481
0.0172985
0.00792403
0.0138911
0.0022022
0.00674216
0.0113421
0.000710417
-0.0239229
-0.0439634
-0.013256
0.00660981
0.0172844
0.00819599
0.0251586
0.0194438
0.0121104
-0.00296766
0.00202507
0.0194233
-0.000792306
-0.00477447
-0.0152527
0.00403303
-0.000976262
0.00688646
0.0219334
0.00703599
-0.00798071
0.0160883
0.0183972
-0.00343042
0.00963972
0.0305266
-0.00445388
0.00831056
-0.0106998
-0.0335616
0.00287692
0.0393926
0.000345855
0.0414055
0.0126112
0.00405536
0.0127943
-0.00883295
-0.0106341
0.00680892
-0.0038034
0.0116903
0.000262426
0.0217506
0.00196949
-0.000900616
-0.0189605
-0.0112061
0.00156302
-0.00278891
0.0100061
0.0187236
-0.0022268
0.0214094
-0.00280568
-0.0127469
-0.0115679
-0.0199611
0.0230421
0.0110932
0.0134071
0.00222814
0.00879146
0.014816
-0.0072392
0.00820241
0.0120561
-0.00241993
0.00892159
-0.00724706
0.0149527
0.00470298
0.0116919
0.00185264
-0.0175491
0.00746527
-0.00537172
0.0310633
0.00731466
0.0223634
-0.00398486
-0.0144717
-0.00405301
-0.0236689
-0.0168072
-0.00458746
0.00848818
0.00914264
0.0241844
0.00666895
0.0138212
0.0107574
0.0135392
0.00992188
0.00555184
-0.00429353
0.00851088
-0.0172569
-0.0047347
0.0127069
0.00855839
0.00955983
-0.0152052
0.00647449
0.00107553
-0.00242613
0.00224434
0.0155602
0.0075978
0.0147432
0.00109695
0.0103214
0.00284542
-0.0190155
0.0255652
0.022545
-0.00516566
-0.00483809
0.00967373
0.0118434
0.0146086
-0.00654018
-0.00262451
0.0029566
-0.00293729
0.00157887
-0.00181754
0.00865445
0.00476885
0.0178255
0.0104008
0.0187595
0.0218135
-0.00364925
0.0142752
-0.013462
-0.00806676
-0.0068989
0.00591014
0.01143
0.0125618
-0.00285113
-0.00479801
0.00102189
0.00899169
0.0101208
-0.00666059
0.00695314
-0.0109921
0.00740218
-0.00264828
0.00943069
-0.0118802
0.00278769
0.00401874
0.0036807
-0.0256927
-0.0138976
0.0165061
0.00988632
0.0103935
-0.0164676
0.0137754
-0.00175438
0.00833168
0.00208112
-0.00272987
0.011856
0.0177945
0.000171035
0.00921915
-0.0115823
0.0145084
-0.007787
-0.00044734
0.00982279
0.0123932
-0.00398552
0.0189545
-0.00150424
-0.00569072
0.008567
-0.00578926
0.00358525
0.00496201
-0.00104436
0.00965005
0.00261471
-0.00378394
-0.017197
0.0185292
0.00709202
-0.00194998
0.00534079
0.023574
0.0083542
0.0180329
0.00237565
-0.00954458
0.0124139
-0.022359
-0.00974442
0.00374915
0.0100009
0.0254507
-0.0102372
-0.00225237
0.00480721
-0.00928949
-0.00457129
-0.0109213
0.00286702
0.00422899
0.00113678
-0.0138308
0.0120498
-0.0225471
-0.00394065
-0.00445098
0.00568858
0.00613614
0.0194068
0.000682315
-0.00781508
-0.00365556
-0.0144164
-0.00027745
-0.01255
-0.0200383
0.00587268
-0.00225539
0.0118623
0.00294618
0.0049133
-0.0141633
-0.00741208
-0.0128439
-0.0143238
0.00659261
-0.00267157
0.0131813
-0.0225223
0.00087658
-0.00227152
-0.00192157
-0.0103282
0.00860675
0.0107178
-0.000730977
0.00916821
0.00557031
-0.00441367
0.0347648
0.0112639
0.00138083
0.0031845
0.0131903
0.0281171
-0.00991494
0.00981387
-0.0104611
-0.010268
0.0217089
0.0102338
0.000450176
0.0142515
0.00606398
-0.000760013
-0.00433436
0.00230618
0.00177053
-0.00115753
0.0167863
0.00266827
-0.0145703
0.0118707
0.0254919
-0.00269156
0.0108308
0.00783294
0.0105323
0.00539485
-0.00934246
0.0209158
-0.0127498
-0.0152256
0.010793
-0.00623226
0.0109763
0.000543841
0.0143557
-0.0102844
-0.0133024
-0.00457882
0.0113064
-0.00528623
0.00694933
0.00721242
0.00463256
-0.0100739
0.00182842
0.012276
0.0235348
-0.00329556
0.0131132
0.00737369
0.0103724
0.0108144
0.00608913
-0.0104569
-0.00867201
-0.00382729
-0.00942274
0.00386785
0.00822536
-0.00117454
-0.00663055
-0.00666702
0.0256895
0.00508735
0.00197887
-0.00797008
-0.000427797
0.0184501
-0.00070998
-0.00419187
-0.000381972
0.00139184
-0.0168745
-0.00464512
0.00661363
0.00570162
-0.0125628
-0.0211471
-0.00131802
0.0106719
-0.0150046
-0.00778852
0.00305454
0.00663246
0.00607993
0.00432306
-0.00216556
-0.00789297
0.00785495
0.00851552
0.00561544
-0.0152706
-0.00290022
-0.00102647
-0.00312931
0.0134325
0.00540663
0.00527292
-0.00321279
0.00586351
0.000406881
-0.00265588
0.00148927
-9.09181e-05
0.0137982
0.00344555
-0.00635029
0.0082894
0.00188633
0.00345837
0.0276611
-0.00330672
0.000317167
-0.00109123
-0.00690417
0.0189015
-0.0127339
0.000315967
-0.00996886
0.00801697
0.00648252
0.008893
-0.00401622
-0.00773388
0.0120313
-0.0017029
-0.00128095
0.0017125
0.00570869
-0.0196582
0.00438106
-0.00992992
-0.0104458
0.0161257
-0.00366081
0.0105081
0.0036435
-0.00562028
-0.0280715
0.0035544
-0.00220514
0.00217389
-0.00875225
0.0122884
0.0101334
0.00215653
-0.0208363
0.0140572
-0.00729552
-0.0364021
0.00764299
0.0059134
-0.000322945
-0.000323657
-0.000585557
0.00989338
-0.00339822
0.0109018
-0.0164892
0.00343836
-0.00990892
0.00232492
0.00531228
-0.000194971
0.00537538
0.00840777
0.00507281
-9.01007e-05
-0.00684584
-0.0071577
0.00257546
0.00441557
0.00183292
0.0029209
0.0235047
0.00540735
0.00307167
0.00587426
0.00664408
0.00854553
0.00912623
-0.000174246
0.00509138
-0.0178224
-0.00819022
-0.0109513
0.000803288
-0.0133821
0.00350656
0.00325705
0.0310816
0.0307266
-0.000355677
0.0125253
0.0124437
-0.00542139
0.0150874
-0.00971035
-0.0040128
0.000124914
-0.0108487
0.00253192
0.0123877
-0.0115159
0.00115829
0.0042415
0.0142095
0.000593308
0.00442489
-0.00324072
-0.0159735
-0.0153456
-0.000966031
0.00587141
-0.0134578
-0.0017605
0.0211787
0.0112729
0.00982442
-0.00710542
0.00744648
-0.00562091
0.00477599
-0.0137438
0.00563742
1.30768e-05
-0.0260487
-0.0142149
-0.0055026
-0.00866656
-0.0112096
0.00798497
0.00339077
-0.00553262
0.00539793
0.00679685
0.0142132
-0.000283101
0.0180421
0.00360533
-0.0063169
0.00737791
0.00413459
0.0101183
0.00289149
0.00223363
0.00134073
-0.0109225
0.0118019
0.0105818
0.00711061
0.0163872
0.00785234
0.00746878
0.0138863
0.000546939
-0.0109798
-0.0217075
0.00859025
0.0114248
0.00253406
0.000220926
0.0049249
-0.00520639
0.00129497
-0.0117064
0.0104809
-0.00520356
-0.000844163
0.0198219
0.00665136
0.022403
0.00184087
0.00355021
-0.0097816
0.019886
-0.0136175
0.0102288
0.033701
0.00268393
0.00634207
-0.00186225
-0.0196479
-0.00878429
0.00117731
0.00553111
-0.00448141
-0.00369003
0.00361959
-0.0101101
-0.00576459
-0.00183533
0.00506529
-0.008309
0.000385362
-0.0194437
0.0165695
0.00717332
0.0170929
0.0115891
0.0237257
0.0209756
0.00973997
0.00829091
0.032454
0.0222039
-0.00422393
0.00519192
0.00871791
-0.0156537
0.000619559
0.0128345
-0.0113592
0.00322777
0.0151495
-0.00711961
0.0060333
-0.00153908
0.0243945
0.0221604
-0.00143116
0.00700021
0.0130217
-0.00262479
-0.00624923
0.0148011
0.00911551
0.0104328
0.0283808
0.0279249
0.0217784
0.00911322
0.0077815
0.00447887
0.00700632
0.00175279
-0.00826968
-0.0115654
-0.0162221
0.00333444
-0.00151596
0.00496639
0.0365412
0.00304884
-0.00974756
-0.00471504
-0.00882893
0.0061803
0.00782394
0.00812226
-0.0128725
-0.014892
0.00410253
0.00164995
0.00908131
-0.00850852
0.0133032
0.0168552
0.0152488
0.00307716
-0.0154942
-0.00371845
-0.0157402
-0.00666527
-0.00993042
0.00545323
0.0115077
-0.0156362
0.0316279
0.012286
0.0149269
0.00918449
0.0169991
-0.00838172
-0.0146572
-0.0262815
-0.0145921
0.00383812
-0.00395357
-0.00753449
-0.0240457
0.0108503
-0.00679357
0.0134567
0.00395858
0.0103659
0.00922069
0.00374051
0.0111089
-0.0163007
-0.0257733
-0.0137617
-0.00583333
0.00329001
0.0139999
0.0399773
0.0237632
0.000510063
0.0103268
0.0131452
0.00743288
-0.0035633
-0.000746984
-0.0149806
-0.0127459
-0.0133059
-0.00346721
0.00355903
-0.00569451
0.00454801
0.00750288
0.00359235
0.0145553
0.0131348
0.0197088
0.0118655
-0.00807177
-0.0275726
-0.0363741
-0.0173067
0.00104088
0.0103242
0.00397597
-0.00210394
0.00325224
-0.00575212
0.0095659
0.00209789
-0.00638752
0.000650944
0.0106129
0.0138317
0.000398787
0.00477594
-0.00504792
0.0022192
0.00659212
-0.00318443
-0.00236581
0.0162748
0.00691136
0.0176021
0.0232658
0.0200602
-0.00264121
-0.0379805
-0.0222563
-0.00298101
-0.00785951
0.0237744
0.00642502
0.0218356
-0.0168043
0.00875225
0.00264272
0.00130088
-0.00155145
-0.0117785
0.00711451
0.0115457
0.00246564
0.00617676
0.0123533
-0.0133328
0.000646636
0.0149681
0.00138006
0.0123428
0.0244361
0.00944707
0.0338084
-0.000323202
-0.0332207
-0.0201843
-0.0285993
-0.0101198
0.00916188
0.0195556
0.00699191
0.0136021
0.0275153
-0.00668403
0.00421904
-0.00872757
-0.01552
-0.0148539
-0.0125065
0.00807701
0.0161457
0.0111926
0.00462591
0.00312272
-0.00362144
0.00729007
0.00280112
-0.00790996
0.00828764
0.0287286
0.0266133
-0.00844306
-0.0409082
-0.0254022
-0.00706905
-0.0209861
0.023864
0.00278372
0.00405138
0.00982639
-0.000121486
0.00691704
-0.00264222
0.00255281
-0.0134989
0.00682244
-0.00200428
0.0178031
0.0243273
-0.00288036
0.00502346
-0.0007184
-0.0120161
0.00459689
-0.0115632
0.00211459
0.00409001
0.0153764
0.00896624
-0.000607003
-0.0243891
-0.038931
-0.0119742
-0.000499841
0.0176412
0.0140624
-0.00479695
0.0241594
0.0200342
0.003748
0.00116713
0.00446671
0.00955923
0.00195973
0.00362105
-0.00160309
-0.00602803
-0.0115518
0.0119476
0.000229826
0.00372699
0.00184135
-0.00362073
0.0230726
0.0153677
0.0133109
-0.0116978
0.00572208
-0.0136555
-0.0296377
-0.00212449
0.0102714
0.024701
0.0113374
0.0296964
0.0064485
-0.00429503
0.0037523
-0.0056721
-0.00114906
-0.00365486
-0.0159767
-0.00487968
0.00175632
0.0152002
-0.0014377
0.0105991
0.00673335
-0.000786411
0.0125628
0.0239186
0.0193656
0.0131675
-0.0253017
0.0229697
-0.00330394
-0.0188795
-0.00455945
0.000346634
0.0209421
0.01392
0.0243444
0.00792316
-0.0166272
0.000527835
-0.00493027
0.0141375
0.00657427
-0.0143398
0.00481063
0.00229508
-0.011198
0.00475044
-0.00847062
0.00142258
0.0115439
-0.00330008
0.00948637
-0.00573145
-0.00459276
-0.00794864
0.00967435
0.00881447
-0.0139268
-0.0319078
-0.0177424
0.00989331
0.015019
0.00618275
0.0045935
0.0209784
0.0231534
0.00294179
0.000760651
-0.00396747
0.0142471
-0.00646591
-0.00725074
-0.0225074
-0.00182534
0.0022751
0.000984704
-0.00218364
0.00172834
0.0137678
-0.00867601
0.0142211
0.0322979
0.00525791
-0.00337973
0.00344511
0.000620626
-0.0233953
0.00893089
0.0190327
0.0155875
0.00964783
0.0229751
0.0196237
0.0207311
0.0201945
0.0163398
-0.0120344
0.0110705
0.012729
-0.00560073
0.0141623
0.01111
0.010105
0.00829402
0.0140969
0.0146623
-0.0144856
0.00413933
0.00184199
0.000854203
-0.00484708
-0.00432761
0.00417281
0.00364771
0.0251239
0.0143274
0.0124359
0.00454666
0.0146465
-0.0105661
0.0294532
0.0125409
0.00215418
-0.0040633
-0.00406318
0.000590895
0.00913919
0.00678643
0.0154119
0.00560616
-0.00403775
-0.00556474
-0.0102687
-0.000943728
-0.0206338
-0.0165878
0.00690411
-0.00326655
0.0121678
0.0190346
0.0140757
0.0227597
0.0224681
0.0154015
-0.00127605
0.00129014
-0.00352364
-0.00344655
-0.0113542
0.0154351
0.00199698
-0.000817796
0.0154902
-0.011579
0.00641779
-0.00846108
-0.00435376
0.0170153
0.00970729
0.0100166
-0.00297388
0.00716171
0.000278815
-0.0141414
-0.00987167
0.00627738
0.00585506
-0.0034364
0.0184103
0.0289174
0.0267707
-0.00365745
0.00251148
-0.0109942
0.0136426
-0.00989614
-0.00194002
0.00245343
0.00575438
-0.00775862
0.00169722
-0.0194063
-0.00197706
-0.000522464
-0.00698767
0.00190903
0.00294359
0.00270671
0.00776466
0.00678845
-0.0107397
-0.00532369
-0.00198332
0.00632706
-0.00692244
0.0126924
0.0305427
0.00812426
0.00512692
0.0032435
0.00171469
-0.0136777
0.00466093
-0.0117953
0.0258114
-0.00451694
0.00168335
-0.0105063
0.00354747
-0.00218608
-0.0112595
-0.0176042
-0.0014727
0.00511337
0.00119672
0.0133395
-0.000431219
0.00150548
0.00901239
-0.00517528
0.00513952
-0.00823883
0.00706441
0.0115885
0.0120835
0.0207022
0.0116798
0.022504
0.0151242
0.0127771
-0.000524721
0.00343987
-0.00108594
0.00106091
-0.00187847
0.0111748
0.00483785
-0.00526929
-0.00398356
-0.00781587
0.00120964
0.00442342
0.00617638
-0.0146025
-0.00344572
0.00486188
-0.00794361
-0.0192711
0.0027154
-0.00438404
0.00862061
0.00574955
0.000685822
0.00502921
0.0116119
0.00512602
0.00991059
-0.015605
0.0102453
-0.0093166
0.0130001
0.0201607
-0.0146651
0.00379685
-0.00996704
0.00560866
-0.00151266
-0.00269728
-0.00840996
-0.00337412
0.012247
-0.0121446
0.00203053
-0.00640149
-0.0152941
0.010432
-0.0222658
-0.00301254
-0.00484654
-0.00214684
0.00811486
0.0179863
0.0132077
-0.00822066
0.005591
-0.00629595
-0.00263961
-0.00611331
-0.00597056
0.00226387
-0.0104505
0.00412675
-0.00178213
-0.00302537
-0.013668
-0.0062418
-0.00160055
-0.0045293
0.0335301
-0.00635464
-0.00728099
-0.0085827
-0.000693149
0.00160959
-0.00355424
0.00087449
0.0122634
-0.0139563
0.0106489
-0.00176864
-0.00240907
0.0157902
0.00866614
0.0127702
0.0151469
-0.00474214
-0.00883006
-0.0141482
0.00270285
-0.00670144
0.00662533
-0.013376
-0.0072824
0.00686625
-0.00749445
-0.00105208
0.00253331
0.0182103
-0.00627108
0.0111001
0.0171442
0.02151
-0.0167943
0.0198016
-0.0133202
-0.00759682
-0.00613767
-0.000104235
-0.00301944
-0.0197814
0.013801
-0.00302247
0.00441633
0.00392328
-0.00189088
-0.00536786
0.000436343
-0.00488484
0.00723448
-0.00111219
-0.0212627
0.0146921
-0.00390569
-0.00272291
0.00400917
-0.00462127
-0.0159239
-0.00470726
0.0185692
-0.00655825
-0.00773262
0.00303267
-0.00258182
0.00192059
0.00461243
-0.000918068
-0.00934255
0.00170737
-0.00701217
0.0144579
-0.0111273
0.00517144
0.00796096
-0.0132659
-0.0104501
-0.0126339
0.00627939
0.00303164
0.00636531
-0.0113669
-0.000775535
-0.00752408
0.00366374
-0.00516459
-0.0109765
-0.0109817
-0.000241115
-0.00698064
0.0110185
0.00486646
0.00177705
0.0130958
-0.0193296
-0.0195737
-0.0137514
-0.00929215
-0.0257389
0.00517202
0.00110239
-0.0117279
-0.00629936
-0.0126305
-0.00851652
-0.00298892
-0.00966825
-0.00901967
-0.00238695
0.00551172
0.011256
0.013399
0.0111305
-0.00198682
0.00172079
-0.00223827
0.0157659
0.00525231
0.0117218
-0.00134609
-0.00179183
-0.012539
-0.0122625
-0.0213538
-0.00990526
-0.00645318
-0.0061468
-0.0108611
-0.00340738
-0.043708
-0.0333315
-0.00232077
0.00120387
-0.0134102
-0.00624387
-0.00538643
-0.00015862
-0.00632554
0.00742426
-0.00418017
0.00742438
0.00757424
-0.00438297
0.018192
-0.00246254
-0.00755924
0.0068916
0.012237
0.0185432
0.00219324
0.0151325
0.00905263
0.0176617
0.0143339
0.0205966
0.0205836
-0.00505222
-0.00191378
-0.0271391
-0.0282922
-0.0228736
-0.00614434
0.000764249
0.00388631
-0.0149082
-0.00783525
0.0061577
-0.00266697
-0.00988815
-0.00114336
0.00817495
0.00599164
0.0133967
-0.0102059
0.00671703
0.0388504
0.00915818
0.024787
0.0178629
0.0183048
0.0168039
0.00309751
-0.00848281
-0.00176343
0.0162157
-0.0254162
0.00209818
-0.0134242
-0.0080008
0.00188037
0.0148992
-0.00641523
0.00223033
0.00513762
0.00368969
0.00342579
0.00123523
0.00228297
0.0132341
0.00988554
0.0161299
0.00605047
0.0270134
0.0201969
0.0288253
0.0138034
0.0169942
0.00796283
0.0249359
0.0165203
0.00575322
0.00318655
0.00983343
0.0152604
0.00671173
-0.0133051
-0.00894766
0.00150295
0.0148154
0.00720432
0.00140849
-0.00568138
-0.00264611
-0.0149847
-0.0146694
0.0111029
-0.0135642
-0.000342568
0.00944804
-0.00108795
-0.00137469
0.0336817
0.0124093
0.0264679
0.0313092
0.0146648
0.0123771
0.0129158
-0.000358659
0.0172893
0.0284532
0.0284933
0.00292955
-0.00178213
0.0122561
0.0209001
0.0136604
0.00537561
0.00155515
0.0119519
0.00857386
-0.00299155
-0.0110891
0.00394041
0.00129091
0.00306925
0.0150638
0.0195761
0.0205589
0.0180422
0.0120605
0.0254109
0.0119541
0.018896
0.0122769
0.00970916
0.0213146
0.0186812
0.0133996
0.0159661
0.0193254
0.0220913
0.0293486
0.0230903
0.0212432
-0.00118882
0.00165608
0.00400681
0.00149081
0.00199739
-0.0073744
0.0146439
0.009231
-0.00702152
0.013472
0.0101693
0.00361729
0.0217237
0.00998209
0.0185019
0.0187165
-0.00384895
0.00513284
0.00748389
0.0127309
0.0180997
0.0329434
0.0211002
0.0172418
0.0236568
0.0249302
0.0215442
0.0162553
0.00328687
-0.00364666
0.0142792
-0.00118591
-0.000145707
0.00642169
-0.00345514
0.0144578
-0.00326307
-0.00379976
0.02506
-0.000522546
0.00172406
0.0217072
-0.00227762
-0.0170738
-0.00617119
-0.0191842
-0.0139186
0.00554608
0.0229602
0.0123568
0.0334339
0.00952529
0.0297167
0.0261941
0.0199074
0.0233775
-0.00336121
-0.00761902
-0.00281433
-0.0157819
-0.00894137
-6.46656e-06
-0.00230114
0.00553709
0.00678317
0.00231351
-0.000881462
-0.0221964
-0.00518543
0.00296423
-0.022509
-0.0179873
-0.0194541
-0.0311834
-0.00815907
-0.0165013
0.0145544
0.0157495
0.0191015
-0.00606498
0.00732956
0.0123807
-0.018555
0.000129653
-0.0148083
-0.0249102
0.00835743
-0.00500762
0.00515958
0.00865255
0.00914851
-0.00529055
0.00103
0.0224469
-0.00276452
-0.0109672
0.0205429
0.0185967
-0.00222215
-0.00358381
-0.0192394
-0.0174335
-0.0337856
-0.015908
-0.00064589
0.0227688
0.0128306
0.00933459
-0.00493264
-0.00298117
0.00108044
-0.00513196
-0.00935051
-0.00693919
-0.00770073
0.00730157
0.00608839
-0.00994024
-0.00237148
-0.00756098
0.0172547
-0.00735281
-0.0115266
-0.00583219
0.014206
-0.024643
-0.00692987
-0.0142733
-0.00344885
-0.00791153
-0.0201541
-0.0141398
0.00352876
-0.000871738
-0.00652297
0.0108962
-0.00903175
-0.0166445
-0.0229417
-0.024875
0.00268699
0.0030938
-0.0148406
-0.00951532
-0.00508699
-0.00771829
-0.0222323
0.00747206
0.0187169
-0.0134185
0.00729388
0.00947176
-0.0112614
0.0120753
-0.00792275
0.007375
0.00369717
-0.00773946
-0.0191042
-0.0190285
0.00505138
0.0311684
0.000245008
0.0146425
-0.0125218
-0.00252458
-0.0065004
-0.00446647
-0.00292899
-0.0102355
0.00928865
0.00159772
0.0207653
0.0131525
0.0122394
-0.0015136
-0.000416153
0.0161976
0.0233504
0.00315151
0.0019987
0.00761657
-0.00931415
0.0191203
0.0175624
-0.0114495
-0.0190529
-0.016654
0.0276492
0.0181608
0.0263694
0.0184147
-0.00788771
0.00329758
-0.02266
-0.0125053
0.00597585
0.00445186
0.00996277
-0.00628385
0.00656878
-0.00246313
0.00156767
-0.0167781
-0.00198392
-0.00275214
0.0266279
0.00939522
0.00873917
0.0071242
0.00461084
0.0127821
0.00746864
-0.00297107
-0.0143675
0.00294211
0.0227169
0.0196741
0.0212724
0.0150972
-0.0172926
-0.0183386
-0.0210181
0.00271149
0.00672677
0.00768745
0.0142602
0.00793019
0.000702903
0.0254704
0.016569
-0.00831011
0.0187089
0.0189644
0.0244606
0.0257894
0.0158478
-0.0194238
0.00389005
-0.0165646
-0.0238752
-0.0215218
-0.0191211
0.00443026
0.0239973
0.014532
0.00750204
-0.00395101
-0.023419
-0.0134834
-0.0129368
0.00488538
0.0248304
0.00826189
0.0198646
0.00721569
-0.00719502
0.00698149
-0.0161996
0.00852213
0.0164981
0.0154458
0.0242519
0.0396149
0.00364848
-0.00306795
-0.0178169
-0.0286502
-0.0284499
-0.0237389
0.000611787
0.00564122
0.0118472
-0.00836518
0.00664148
-0.00884066
-0.00412017
0.00377316
-0.00149686
0.0030417
0.0316214
0.0236975
-0.0140191
-0.0141999
0.00108708
-0.0140055
0.00640966
-0.0109057
0.00210329
0.0216872
0.0239674
0.0351775
0.00885849
0.00617731
-0.0271968
-0.0197341
-0.0229026
0.00434964
-0.0128913
0.00393922
-0.0138756
0.0156561
0.00339693
0.0116467
0.00094695
0.00797747
0.0199024
0.0148197
0.0104796
-0.00308996
-0.0162693
0.00658134
-0.00141065
-0.00632886
0.0102808
-0.0117666
-0.000295948
0.00392806
0.0165042
0.026711
0.0245114
-0.00264566
-0.00248672
-0.0340459
-0.0266521
-0.0198726
-0.0081646
-0.00348324
-0.0059263
-0.00236384
0.000775394
0.0182508
0.0128585
0.0207036
0.0184118
0.00761558
0.0156868
0.0156654
-0.00140036
0.000605095
0.00491768
0.0167249
-0.00939175
0.00623261
0.00677445
0.0101416
0.00714334
0.00778614
0.0226863
0.0175638
-0.00486098
0.000115018
0.000102913
-0.0291052
-0.0210393
-0.0270183
-0.0153643
-0.0162265
-0.000665471
0.0132903
0.023116
0.0158861
-0.00286991
0.0131426
-0.00323196
0.0048897
-0.0112181
0.00329496
-0.00429387
0.0127215
5.4146e-05
-0.00242531
0.0106218
0.0231039
0.00915329
0.0069018
-0.00206172
0.00954461
-0.0029774
0.00434141
0.0143113
-0.00141421
-0.00892926
-0.012776
-0.00244502
0.00994109
0.00708521
0.015739
0.031452
0.0057417
0.0136903
0.0100577
0.00296878
0.0100211
0.00631072
0.0224691
-0.00888904
-0.0136994
-0.00460933
-0.0109981
0.00144471
0.0120679
-0.00103966
-0.0184697
-0.0162774
-0.0290985
0.013663
-0.00108269
-0.0175632
-0.00531058
0.00753899
-0.00644029
0.00191536
-0.0129896
0.010985
0.014094
0.0100632
0.00823689
0.00456019
0.0115483
0.000791803
0.000568947
-0.00536771
0.00747442
0.0197128
-0.0151792
0.00656657
-0.0132223
0.000291463
0.0151833
-0.00911628
-0.0130014
0.0153902
0.00377177
0.0147809
-0.00877457
-0.00511042
0.00295494
-0.0151899
0.00354109
0.00976021
-0.0051281
-0.00496683
0.00611296
0.0153854
-0.00972997
0.0178292
0.00175268
0.00726728
-0.0149656
-0.0210112
-0.000618596
0.00923912
0.0192041
0.00142767
-0.00434829
-0.0031988
-0.00974416
-0.00187532
0.00675192
0.00515463
0.0133234
0.00121609
-0.00224408
0.00270257
-0.00266719
0.00722574
0.00936394
0.00329221
0.0125971
-0.000355224
0.00135005
0.0144709
0.00822224
-0.0200302
0.0123978
-0.00662516
0.0199106
-0.0068072
0.00996858
0.0111918
0.00157945
0.00446392
0.00217472
0.00636795
-0.0155058
-0.000441614
0.0136267
-0.00941654
0.00785397
0.0083909
0.010594
0.0213844
0.00306079
0.00488657
-0.00390289
0.0158631
0.0116584
0.0123459
-0.00859522
-0.00869113
0.00633172
0.00518388
-0.000375012
-0.00706055
0.0115796
0.00295675
-0.00874024
0.00917854
0.00715097
0.0132248
0.00388087
0.00728965
-0.000729117
0.0131431
0.0148376
-0.00592464
0.00446608
-0.0200388
-0.0076344
-0.00646988
0.0104088
-0.012629
-0.0111591
0.00837795
-0.0173689
0.0010886
-0.00325899
0.00581218
-0.00886755
-0.00648866
0.00246769
0.00314595
-0.0138155
-0.00235162
0.00488507
0.00332653
-0.00127647
0.00215515
-0.00917115
0.00175689
0.00726764
-0.00910486
-0.0035887
0.00367677
-0.00720258
0.000198061
-0.00295372
-0.00987834
0.00442622
-0.0115371
-0.0150652
-0.024124
0.0158409
-0.00127307
0.008233
0.00112206
0.0100154
0.00606205
-0.0108394
0.00249365
-0.000901837
0.00915259
0.0100233
-0.00135327
0.000139961
0.00469295
0.0180415
-0.0130153
0.0140394
0.00592812
-0.00453023
0.00121086
-0.00178805
-6.66858e-05
0.0160816
0.024078
-0.00688921
0.00304513
0.00477074
-0.00132413
-0.00275343
-0.00759782
0.00480647
-0.00220604
-0.00295329
-0.0153036
-0.00713329
-0.00585544
0.0207412
5.26076e-05
-0.00627129
0.00685402
-0.00198546
-0.0161967
0.00182843
0.00712535
0.0156977
-0.0041455
0.00317917
-0.0153795
-0.0155908
0.0189894
0.00982171
-0.00317039
0.0142824
-0.0105012
0.016117
0.000341937
-0.00441315
-0.0151811
-0.00779578
-0.0212678
-0.00739799
0.0140654
-0.0041572
-0.0111996
-0.0059982
0.0202231
-0.00712768
-0.0110396
0.00382894
0.00194296
0.00218014
-0.00332068
0.000197763
-0.00598031
0.00147261
0.0176174
0.0128238
0.00840545
0.00278451
0.0135993
0.0273698
-0.00576721
0.00254747
0.001386
-0.00519108
-0.00167836
0.008515
-0.00289264
0.00624199
-0.0132805
-0.0197339
0.00315069
0.0151592
0.00259855
-0.00228212
0.0119963
0.00639914
-0.00268693
-0.0204105
0.00516617
-0.0100259
0.00923338
0.0028901
0.0235568
0.0135506
0.0119839
0.00856323
-0.00728209
0.0211111
0.00660584
-0.00561711
0.00327874
-0.00502667
-0.0150145
-0.00725959
-0.0254424
0.0055871
0.00208135
0.00700447
-0.00602531
-0.0185012
0.00176697
-0.0122179
-0.00131711
-0.00678385
-0.00204918
-0.0034041
-0.0105937
-0.00712817
0.0147745
0.00287322
0.0158879
0.00817329
0.0153902
0.0238152
0.0132229
0.00970362
0.0211477
0.00176648
0.0171993
-0.000753533
0.0112625
-0.0193633
-0.0184102
-0.0205538
-0.0209686
-0.0100589
-0.00549185
-0.0135561
0.0179912
-0.0118699
-0.00288469
-0.0137107
0.0129584
-0.00922805
-0.0160497
-0.0203574
-0.00878124
0.012938
0.00381522
0.0203015
0.00159019
-0.0151963
0.000312987
0.00523076
0.0192343
0.00850406
0.010341
0.00672176
-0.00703343
-0.0250926
-0.00859701
-0.0188143
-0.01397
-0.0393632
-0.018873
-0.0016148
-0.00305422
-0.00703995
-0.0121245
-0.00167268
-0.00587262
-0.0106357
-0.00118033
0.00706792
-0.0251361
-0.017582
-0.0143754
0.00060989
-0.0073883
0.0015782
0.026123
-0.00567547
0.022584
-0.0160196
0.00759183
0.00194857
-0.00300969
-0.00713245
-0.041203
-0.00728816
-0.00902598
-0.0206017
-0.0181431
-0.0232082
-0.00766683
-3.7471e-05
0.00526855
-0.00593917
-0.00338519
0.00723176
-0.0174708
-0.0126739
-0.0119221
0.00756235
0.0103883
-0.00411628
0.0193735
0.0259049
0.0165557
0.0435898
-0.00445873
-0.00779231
-0.0205761
0.00455851
-0.0218574
0.00171222
-0.0182733
0.000221147
0.00462899
0.00805927
-0.00697698
-0.0164423
-0.00809854
0.01277
0.0114756
0.00325147
0.00810276
0.00224124
0.00224184
0.0188249
-0.00248299
0.014886
0.0282586
0.0147115
0.0209181
0.0112692
0.00545752
0.010899
-0.0290079
0.00154492
0.00822269
0.00405201
0.00921195
0.0108002
0.0130062
0.0259217
0.00685961
0.00852752
-0.0125462
-0.0159773
-0.0157962
-0.0135632
0.0174707
0.00860415
0.00564741
0.00503222
0.0103574
-0.0159978
0.0173524
0.0164556
0.0287151
0.0147231
0.0134976
0.0156928
0.0152636
-0.00358916
-0.0438658
-0.0116757
-0.0112401
-0.000655704
0.0395623
0.028634
0.0108598
0.0306009
0.0151869
0.00663825
0.00459364
-0.0102838
0.0037932
0.00417131
-0.0153484
0.0010679
0.00137679
-0.00225947
0.0163306
0.00674255
0.00963926
0.00892041
0.0283315
-0.00375012
0.00294887
0.00296954
0.00320665
-0.0199848
-0.0480262
-0.0248339
-0.00531583
0.0123533
0.0166248
0.0275836
0.037118
0.0503633
0.0280036
0.0153524
0.00840463
-0.0086765
-0.0212621
-0.00281768
0.000820458
0.0184469
-0.00603927
0.00195756
-0.000796489
-0.0129634
-0.00140799
0.00925927
0.0173763
0.0106163
-0.0214664
0.00246697
-0.0157934
-0.035786
-0.047389
-0.0127942
-0.0136865
0.00886874
0.0284559
0.014981
0.0338083
0.0366079
0.0228285
0.0111386
-0.00470391
0.00537003
0.0142503
0.000732392
0.00426813
-0.00283412
-0.000935759
-0.0157142
0.0121251
0.00741244
0.0306003
-0.00439363
-0.012748
-0.00343019
-0.0216202
0.00143626
-0.0175205
-0.0360164
-0.0301436
0.00312151
-0.00179274
-0.0128471
0.00768843
0.02176
0.0295191
0.0339277
0.0336249
0.0285423
0.00610204
0.00578717
-0.0177246
-0.0026535
0.00863265
0.0094548
0.00796316
-0.00469991
0.00239181
1.34151e-06
0.0148682
0.0154673
0.0108654
-0.0246616
-0.0113383
-0.0143814
-0.0180678
-0.0555019
-0.0384169
-0.00831794
-0.00644351
0.00140967
0.00235563
-0.00404114
0.0151563
-0.00426481
0.0047414
0.0131014
1.53986e-05
0.00835793
-0.000834212
-0.0129528
-0.00344488
0.00564854
0.00424818
0.00852706
0.0045717
0.0231476
0.0119375
0.0378797
0.0192695
-0.00665974
-0.0028037
-0.00214146
-0.0108089
-0.0133183
-0.019928
-0.00160041
-0.000657403
-0.00554856
-0.0152437
-0.00298971
-0.0220897
-0.00463226
0.000953102
0.0146905
0.0134412
0.0157108
0.00208745
-0.0137495
-0.0117449
0.00636279
-0.0221915
-0.00589289
-0.00388853
0.0327922
0.00323983
0.0399737
0.029246
0.0163531
-0.000455625
0.032235
0.0208137
-0.0122399
-0.0108493
0.0182703
0.0155271
-0.00672878
0.00225179
-0.00920804
-0.0114138
0.0170185
0.00437564
0.00731608
-0.000154752
0.000989117
-0.00729498
0.00743197
-0.00780577
-0.00338568
0.00602024
-0.0108049
0.000780718
0.00610652
0.0161553
0.030853
0.0326874
0.0556656
0.068639
0.0594467
0.0307629
0.000436715
0.00879336
0.0311457
0.0207905
-0.00336065
-0.0242891
-0.0314776
0.00567307
0.0174758
0.000408758
0.00629833
0.00794942
0.00564283
-0.0165882
-0.00982699
0.00599803
-0.011247
0.0189259
0.00493751
-0.0118754
0.00094929
0.00564052
0.018999
0.0169579
0.0431575
0.0541076
0.0456898
0.0466813
0.0386962
0.017696
0.0128383
-0.00462035
-0.00077883
-0.0200297
-0.0262223
-0.00438371
-0.0166415
-0.00212485
0.00791748
0.0074682
0.00202368
0.00501922
0.00519009
-0.00678082
0.0034334
0.00944035
-0.0205014
-0.00347365
-0.0011674
0.0043111
-0.00216168
-0.0086707
0.00998802
0.0297311
0.0285835
0.0118189
0.0250741
0.020728
0.0243022
0.0146757
-0.0138743
-0.0217319
-0.0135404
0.0105729
0.000415095
0.00951823
0.0203296
0.00358577
0.00127264
-0.00812635
-0.00991202
-0.00896766
0.0139284
0.00194745
-0.0289338
-0.00290735
-0.00852876
-0.0138181
-0.0278819
-0.0191397
-0.0112682
-0.00232154
0.00410914
0.0142781
-0.0172486
0.0104798
0.0077363
0.0195267
0.00302237
-0.0148063
-0.00253854
0.016235
-0.00560433
0.00932761
0.0201399
0.0114002
0.0053733
-0.00208126
0.0181489
0.0119232
0.0075996
0.000966014
-0.00957747
-0.00868604
-0.00754185
-0.00519268
-0.0228192
-0.0306401
-0.0118
-0.00972389
0.00181087
-0.0107304
0.00240991
-0.00698638
0.0117008
0.00415629
-0.0144689
-0.0197481
-0.0136828
0.0288241
0.00248296
0.00447221
0.00249131
0.0137941
-0.00466285
0.00765249
0.00174286
-0.000328823
0.0105874
-0.0178122
-0.00698493
-0.0144213
-0.00472058
-0.00473463
-0.00591533
-0.0225439
-0.0209339
-0.0125857
-0.019154
-0.00613443
-0.00221415
0.0162441
-0.00612249
-0.00179153
-0.0188138
-0.0142012
0.0048533
0.001449
0.0176607
0.0236893
0.0115824
-0.0119316
0.00724192
-0.00443474
0.00376323
0.00623098
0.024828
-0.0133423
-0.0209415
-0.0117762
-0.00654088
-0.00329346
-0.0185225
0.00125105
-0.0128084
-0.00566156
-0.00190174
-0.00439233
-0.0179909
-0.001076
-0.0163831
-0.0217269
-0.011797
0.000988634
0.0107208
-0.000970742
-0.00488903
0.0104168
0.00365475
0.00750733
0.00693812
0.00898909
0.000457581
-0.0129001
0.00218213
0.00127254
-0.00745739
-0.00483737
0.00921492
-0.0129024
-0.027092
-0.0143703
-0.0219679
0.00663293
-0.0137978
0.00569293
0.012203
-0.00272903
0.00316552
0.023375
-0.00791272
-0.00439527
0.00969618
0.0108231
0.00985182
-0.00839813
0.0150496
-0.000221582
0.00270438
-0.00336729
0.00349096
-0.0161462
-0.00375648
-0.0135228
0.0120096
-0.00926532
0.00441027
0.00607248
-0.0150155
0.00642105
-0.00276996
0.00696508
-0.00203439
0.0251508
0.0106395
0.0081387
0.0174924
0.011486
0.0114304
-0.00504212
-0.00332779
0.00337525
0.00993422
0.0110575
-0.00554206
0.0244217
-0.00643485
0.0095812
0.0132563
0.00255641
0.0114124
0.00597566
0.00480304
-0.00490602
0.0128273
-0.00917774
0.000710109
0.00131122
-0.00194617
-0.0030139
0.00190581
0.0103292
0.00947947
0.0174172
0.00450029
-0.00316761
0.00976175
0.0125778
0.00783297
0.00354067
0.0129032
-0.0173202
0.0224103
0.0114066
0.0136496
-0.0210454
-0.0146215
-0.0181043
-0.00639064
0.00302463
0.00678074
0.00168102
-0.000280375
0.0156053
0.00159992
-0.004091
-0.00779779
0.0149295
-0.0139059
-0.00223227
-0.0169631
-0.000304259
0.0114221
0.000789015
0.00575807
0.0122802
-0.0116813
-0.0105474
0.00233381
-0.0175457
0.0103775
0.0283444
0.00516769
0.00511372
-0.0154156
-0.0154301
-0.0116612
0.0044835
0.0197552
0.00117946
-0.00931352
0.00638423
-0.00940183
0.00523339
0.0106711
0.0049121
0.00765042
-0.00378353
-0.0037813
-0.00835364
0.0207896
-0.00702012
-0.0154584
-0.00563149
-0.00891942
0.0150405
0.00490041
0.0132151
-0.00752733
0.00765955
0.0191645
0.00321652
-0.00971998
0.00854915
-0.00477065
0.0144589
-0.0254603
-0.00585621
0.00415268
0.000389086
0.00270444
0.0159144
-0.00183492
-0.00640836
-0.000755341
-0.00543486
0.00797176
0.0157519
0.0054098
-0.00602906
-0.00164697
0.00644893
-0.00508215
0.0122869
-0.00670904
-0.0053395
0.000226103
0.0165806
0.00395159
-0.00647046
0.00343657
0.00526078
-0.015344
0.000399399
0.0178087
0.00557279
-0.0139323
0.000516615
-0.00211614
-0.00542396
-0.0118883
0.0135519
0.0139232
-0.00119093
-0.00442851
-0.00764609
-0.00377802
0.00836065
-0.0249046
0.00474527
-0.00752527
-0.00172516
0.00620093
0.0112519
0.00795089
-0.00218189
-0.00858127
0.0023018
0.00490342
0.00844982
0.0157585
-0.0104067
0.0235721
0.00413558
-0.0212192
-0.00482392
-0.00356545
-0.0100784
-0.0077532
-0.0246138
-0.0108735
-0.00797187
0.0157213
-0.00576788
-0.0120695
0.00400417
-0.00339773
-0.00711997
0.00528793
0.000529615
0.0106641
0.00930758
0.000728307
-0.0166049
0.0128364
-0.00606302
-0.0287039
-0.0066914
-0.00473915
-0.00361682
-0.00442964
-0.00194246
0.00465519
0.0066799
0.00512042
-0.000347188
-0.00802626
-0.0118858
-0.0101341
-0.00657949
0.000804064
-0.0170779
-0.00938283
-0.0121603
-0.00691105
-0.0249085
-0.00644122
0.01792
0.00114439
0.00621735
0.00483622
-0.00614388
0.00436367
-0.00106139
0.00356633
0.0182586
-0.00601511
-0.00477268
-0.00614894
0.0123987
-0.0111025
-0.0225196
-0.00136269
-0.00206637
-0.0161295
-0.0223883
-0.0210128
-0.0264486
0.00604619
-0.00205452
0.0124564
0.00450964
0.00832892
0.0195454
0.00055991
0.0139913
0.00609686
0.0166938
-0.00871226
0.0154113
0.00218278
0.00266332
-0.000817951
0.00206205
-0.0168571
-0.0109633
0.0172274
-0.0153586
0.0190582
0.000899073
-0.0121609
-0.0166738
-0.00356822
-0.00170834
-0.00861496
-0.00860971
0.00261687
0.014814
-0.00678673
0.00821982
-0.00789768
0.00770115
0.0140817
0.0226146
0.0194555
0.0122891
0.00281952
-0.00829429
-0.00153195
0.0096748
-0.0355654
-0.00732122
-0.00394385
-0.0143967
0.000409682
0.00815681
-0.0188275
-0.0124927
-0.0215623
-0.00518152
-0.0121745
0.00519393
0.0130548
0.00185146
0.00492913
0.0125003
0.0179421
0.0130907
0.00389977
-0.00511361
0.00705589
-0.00758066
0.0139946
0.0193963
0.0131986
0.00857776
0.0158902
0.00421831
-0.000204364
-0.00837242
-0.00403222
-0.0032887
-0.00802671
-0.0115075
-0.024855
-0.00928908
0.00128644
-0.0138965
0.00328001
0.000597842
0.00725288
0.00244776
0.00468181
0.00945568
-0.006422
-0.000646507
-0.0127679
0.0118491
0.00582485
0.00213966
0.0146485
0.0158702
0.0246367
0.00443862
0.00756136
-0.0158771
0.0039194
0.000972364
0.00274153
0.00792235
-0.00202432
-0.0125628
-0.0132371
-0.0179442
-0.0115208
0.00239581
0.0207391
0.0110107
0.0222095
0.00836705
0.00565577
-0.0285535
-0.0291768
-0.0379328
0.00621182
-0.0105279
0.0144218
-0.00349579
0.0234797
0.00288557
-0.00169896
0.00485065
-0.00376979
0.00436766
-0.00920984
-0.00874687
0.018873
-0.00937801
0.00119827
-0.000530567
-0.00724629
-0.000520645
-0.0217897
0.00948718
0.0117556
0.0153595
0.013246
0.0101527
-0.00721263
-0.0246782
-0.0219329
-0.0112551
-0.024883
0.00157066
-0.0210231
0.0104344
0.012463
-0.00665454
-0.00255457
-0.00644999
0.00559265
-0.00140886
0.00645308
0.000177657
-0.00918633
0.00127721
0.00354845
-0.00277388
-0.00794982
-0.00177649
0.0016699
0.00789876
0.0139144
0.0247514
0.0223125
-0.0113237
0.00450664
-0.00398774
-0.00821177
-0.0245454
-0.0433913
-0.0235899
-0.0112815
0.0128638
0.0159727
0.00516522
-0.0038798
0.010648
-0.0098167
-0.00539709
0.0101594
-0.00603948
-0.00475896
0.00464879
-0.0155005
-0.0125796
-0.0103452
0.00369694
0.0071558
-0.00380858
0.00989531
0.000230883
0.0114056
0.00254787
0.00391948
0.00747613
0.016392
-0.0156071
-0.00912597
-0.00596227
0.00812303
0.00765812
0.0200276
0.00666967
-0.00452619
0.00354371
0.00704181
-0.000587784
-0.00531149
0.00458909
0.00635991
0.0119328
-0.00912057
0.0149836
-0.00485471
0.00241795
0.0137926
0.00291958
0.032575
0.0106879
0.00566753
-0.00852784
-0.00333498
0.0149642
0.0157368
0.0197373
-0.00689462
-0.00128214
-0.0165772
0.00589434
-0.00661647
0.0107362
-0.01288
0.000182401
-0.00254645
0.0162377
-0.0316883
-0.0160875
0.00377825
-0.0179223
0.00714623
-0.0118106
-0.0122902
-0.00403377
0.00675321
0.0183983
0.00782346
0.0124207
0.0148634
-0.00502401
0.0203476
0.00827668
0.0178523
0.00844153
-0.000812373
-0.0116426
-0.0221704
0.00222068
-0.00743755
-0.00492118
0.0120241
-0.00801403
-0.0143358
-0.000512174
-0.0231889
0.000549352
-0.00508932
4.15589e-05
0.00107332
-0.00651844
0.0156273
0.0183359
0.00564795
0.0230626
0.014811
0.000675085
-0.0116438
0.00140048
0.017832
0.00919017
0.0131605
0.00262988
-0.00581788
-0.0157183
-0.0351457
-0.0126577
-0.0117006
-0.0265103
-0.000207942
-0.00451969
-0.00116263
0.0165512
-0.0193747
0.00681486
-0.00894539
0.000213663
-0.00891154
6.61911e-05
-0.00140299
0.0038379
0.0220014
0.00268165
0.0196826
0.00321737
0.020382
0.0340035
0.0197016
0.0256536
0.00951354
0.00532614
-0.013782
-0.00695235
-0.0215735
-0.0322143
-0.0196274
-0.00383816
0.00525006
0.0204271
-0.00046071
0.00359118
0.0165152
0.0134661
0.00563276
0.00837896
-0.0124939
0.00270506
-0.00220384
0.0228339
-0.00649221
0.0199478
0.0305253
0.0437058
0.0266046
0.0367364
0.00387656
0.028445
-0.00152322
-0.01412
-0.0204361
0.00553834
-0.0187275
-0.00766605
-0.0112338
-0.0146873
-0.0026683
0.00343379
0.0216083
-0.00578808
-0.0100999
0.0100947
0.00747915
0.0154015
0.0108202
-0.000586717
0.00452431
0.010766
0.0154748
0.0367317
0.0362905
0.0270097
0.0294203
0.0555
0.0324017
0.0289967
-0.0146385
0.0295338
0.00741071
-0.00979947
-0.00636342
-0.00426185
-0.00583719
-0.00875716
-0.00833351
0.00219985
-0.0073545
0.0176441
0.00843469
0.0131287
0.00202238
-0.00153282
-0.0114275
-0.00819625
-0.000665268
0.0158501
0.00258276
0.0233144
0.0286067
0.0346979
0.0311194
0.0298781
0.0109472
0.00200562
0.0153481
-0.021275
-0.0110177
0.00958978
0.0168482
0.0242803
-0.00284555
-0.00146588
0.0074256
0.0218348
0.0112479
0.00326474
-0.0125093
0.0147782
-0.00619124
-0.0108925
-0.00671871
-0.00868929
0.00673747
-0.0051075
-0.00726635
0.00587674
0.0107936
0.0283868
0.0182857
0.00596717
-0.00201675
0.00602813
0.00494103
0.00388037
0.0133353
0.00363598
0.0175813
0.00186481
0.00208404
0.00882366
-0.00234285
0.00369782
0.0166449
0.00229182
0.0181587
-0.00795187
-0.0180364
-0.00750776
-0.00937539
-0.0134168
0.00293457
0.0096564
0.00706224
-0.00440908
0.00817465
0.00811703
0.00614501
-0.00023905
-0.0110585
-0.00719923
-0.00701305
-0.0188548
0.000490487
0.00913779
0.00815594
-0.000507659
0.00198634
0.0196516
0.0105863
0.00969148
0.0102734
0.00214557
0.00794003
-0.00260031
0.00105303
0.00139997
-0.00685702
0.00292548
-0.00161833
0.00238919
0.0178706
0.0105783
-0.0141532
-0.00473889
-0.0108451
-0.000921883
0.00229305
-0.0120598
-0.000661026
-0.0149343
-0.00216757
0.00295193
0.00832268
0.0060318
-0.00402725
0.00629353
0.0278467
0.00765157
-0.00449531
0.0038776
-0.00140848
0.00347766
0.00852595
-0.00792177
-0.0154407
-0.0172523
0.00503829
-0.0148894
0.00192311
0.0204025
-0.00637771
-0.0157581
-0.00208321
0.00353326
-0.0104954
0.0211395
0.00137005
0.00397141
-0.00294398
0.021153
-0.0014435
0.00682993
0.0135274
-0.0113962
-0.00207572
-0.00166413
-0.00234787
-6.02862e-05
-0.0161757
0.016514
-0.00681986
0.0109795
-0.0176826
0.0103757
-0.0117649
-0.0119419
-0.00191416
-0.0177632
-0.0270535
-0.0156655
-0.0337
-0.0231989
-0.00857974
-0.0107131
0.012016
-0.00638694
0.0035252
-0.000436805
0.00258104
0.0063049
-0.00484645
0.00560649
-0.00248363
0.0209717
-0.0106189
-0.0121965
0.0132801
0.00761468
0.0177417
-0.00495231
0.00675212
0.00965826
0.0147592
0.0137705
-0.00145373
0.00374601
-0.0122071
-0.0247959
-0.0208358
-0.0144752
-0.0348079
-0.0132623
-0.0159229
-0.0140097
0.0105568
-0.000300304
0.0215784
0.00323764
0.00171395
-0.00724714
-0.00588603
-0.0165801
-0.00930713
-0.00958968
-0.00446565
-0.00988415
0.0199604
-0.00741939
0.00257191
0.00214834
-0.00279543
-0.0142476
0.000367321
0.022293
0.0060307
-0.0115367
-0.00636148
-0.0167485
-0.0106141
-0.00709202
-0.00370411
-0.00807634
0.00612151
-0.015869
0.0108234
0.00634685
-0.000745065
0.001779
-0.00360466
0.0143839
0.0174177
-0.000192583
0.0172546
0.00335359
-0.00409156
0.00197874
-0.0180348
0.00875724
-0.015059
0.00564097
0.00863083
0.0142082
-0.0078504
-0.0207436
0.00143546
0.00380378
0.00311543
-0.0109087
0.0107145
-0.009014
0.00433168
0.00114389
-0.00364545
-0.00428662
0.003344
-0.0111715
0.00560798
-0.00973656
0.00588024
-0.011075
-0.00353172
0.00468706
-0.0159733
-0.01092
0.00407499
0.00759195
0.00865523
0.00180235
-0.0036627
-0.0105867
0.0092472
0.0180518
0.0133636
-0.00917016
0.00744323
0.00539788
0.0117874
0.00571228
-0.006077
-0.013186
-0.00543267
0.00841579
0.00069463
0.010663
-0.0109365
-0.0152542
-0.00950498
0.000523031
-0.00502051
-0.00355325
-0.00375291
-0.000255698
-0.00111205
-0.00887147
0.0162209
0.015998
0.00625127
-0.00539239
-0.00185446
-0.00891253
0.00826508
0.0205513
0.00436169
-0.00100387
-0.00768962
0.00804359
0.00684296
0.0059278
0.00426055
0.0121698
-0.0110917
-0.0102419
8.48506e-05
-0.00817995
0.000855571
-0.00652172
-0.0185744
0.0243265
-0.0179014
0.00896784
0.00868739
0.0008702
-0.00335298
0.00762877
0.00502779
-0.00740378
-0.00096548
0.0191216
0.00156125
-0.00895912
-0.00264589
-0.00305761
0.00638975
0.00130646
-0.00539157
-0.00571668
-0.0175718
-0.00502339
-0.00241759
-0.00429248
0.00548763
0.00164416
0.00314518
-0.0136887
-0.0129552
-0.0116759
-0.0116139
0.000517501
-0.00912847
0.0121196
0.0026738
-0.0172809
0.018873
0.0108412
0.00205515
-0.00835702
0.00382239
-0.0179814
-0.000393457
-0.0123638
-0.00805722
0.0201119
-0.00334884
-0.00273441
-0.0166757
-0.00398859
-0.00220113
-0.00301073
-0.0028453
0.0054723
-0.00450242
-0.00140878
0.0126798
-0.0020713
0.0180303
-0.00169649
-0.00151145
0.00134329
-0.00973501
-0.00204205
-0.0172102
0.000573606
0.00659671
0.000145344
-0.0224032
0.0013971
0.00328612
0.00229735
0.000284754
-0.00927098
0.00724423
-0.016673
0.0111982
-0.0123093
-0.0136063
-0.00128533
-0.0119508
-0.0188051
0.00344542
0.00434176
0.00383829
0.00636012
-0.00754348
0.00730164
0.00236218
0.00162591
-0.00737691
0.000765547
-0.0120964
-0.00720337
-0.0148735
-0.00567102
0.00332689
-0.0036129
-0.00254379
-0.0179932
0.0010208
0.00159583
-0.00599977
-0.00518302
0.00345693
0.00582897
0.0161683
0.0135246
0.00619367
-0.0129537
-0.000418606
0.0115282
0.00981776
0.00467937
0.0119613
-0.00912477
-0.00157549
0.00403717
-0.0024434
0.0163996
0.0211539
0.0111318
0.00915463
-0.0185526
-0.0134516
0.0032045
0.00689851
-0.00369128
0.00367191
-0.00183152
-0.00494263
0.0166539
-0.00795535
-0.00339859
0.0079659
0.0219616
0.00128777
0.0180967
0.00793046
0.0114351
0.00207887
0.00315227
-0.00460069
0.000504344
0.00214713
0.00261486
0.0188292
0.0225934
0.0327242
0.0175364
0.00807892
-0.00090444
0.00971856
0.0167243
0.0143144
0.0124366
-0.0139825
0.00777042
0.0328647
0.00641434
0.0103464
-0.000402582
0.00993909
0.0115342
0.0197748
0.00705833
-0.00129016
-0.00424834
-0.00568156
0.00143065
0.00434204
0.00938552
0.0129872
0.00650052
-0.0145407
0.0187644
0.0139147
0.0117546
0.0190432
0.00479901
-0.00183377
0.00935719
0.0208748
0.0154641
0.0214942
0.0451571
0.0296395
0.0121791
0.0104719
0.00790827
0.00451907
0.0123719
0.00432622
0.00373683
-0.00455289
0.00681292
0.016467
-0.012439
0.0105345
0.0158284
-0.00589881
0.00721981
0.0193262
-0.0057079
0.0168882
0.0228118
0.0172249
0.0100847
-0.0154936
0.00978055
0.00976404
0.0466003
0.0394725
0.0399653
0.0264046
0.00252962
0.0015856
-0.00618779
-0.00310077
-0.00108965
-0.00134426
0.0107756
0.0122688
0.0080729
-0.0112351
0.00503677
-0.00885388
-0.00427818
0.009465
0.016412
0.0060569
0.00733787
0.0101095
-0.00689975
0.00974501
0.00419759
0.0107657
-0.0149141
0.00633303
0.043544
0.0625318
0.0242503
0.0086911
-0.000769827
0.00486934
0.000490158
0.00752921
0.00409606
0.00359984
0.00922741
0.00449967
0.0218133
0.00115707
-0.00218125
0.00309519
0.00284256
-0.0152753
-0.000656444
0.00977446
0.00450503
0.00882066
0.00818435
-0.000401353
0.000159578
0.0136112
-0.0176327
0.0197094
0.0501388
0.0348234
-0.000980442
-0.0123393
-0.000100473
-0.0106521
-0.0152479
-0.00540968
-0.0170069
-0.0256478
-0.00837329
-0.00245468
0.00355959
-0.00777402
0.00921435
0.0102168
0.0103945
0.000948139
-0.0106682
-0.00322553
0.00866333
-0.00334657
-0.00367579
-0.0125822
0.000485717
0.0140476
0.00578585
0.0276588
0.0116193
0.00276463
-0.0145342
-0.0266696
-0.0277781
-0.0246572
-0.0161001
-0.0155448
0.00874529
0.0041727
-0.00616828
-0.00500502
-0.00997381
0.0012602
0.00176925
0.00437916
0.006005
-0.0127484
-0.0197077
0.0119896
0.00837385
0.0150156
-0.00264143
0.0204139
0.00328788
0.00839061
0.0046431
0.000565262
-0.0111669
-0.037223
-0.00596885
-0.0036237
-0.023489
-0.0307654
0.000464581
-0.0135738
-0.00771427
-0.0094844
0.0204205
0.00322352
-0.0170704
-0.0111242
0.00955772
0.00489514
0.00517997
0.00950178
-0.00446468
-0.00396676
0.00158931
0.00429786
0.0155308
0.0226997
0.00409743
-0.0322116
-0.0268031
-0.0336764
-0.00605053
-0.0179023
-0.00836686
-0.0234275
0.000720053
0.00252463
0.00405256
0.0111282
-0.00201742
0.00100701
0.0125567
-0.00863987
0.00304371
0.00687794
-0.00218803
-0.00419942
-0.0191433
0.0131232
-0.00147106
-0.00918776
0.000593777
-0.00476988
-0.00545581
-0.0150855
-0.0249462
-0.0325425
-0.0513002
-0.0321599
-0.0261883
-0.0251825
-0.00254606
0.00652873
0.0115881
0.0161465
0.032876
0.0166335
0.00366681
0.0134129
0.00585261
0.00679143
0.0045859
0.0212051
0.0109346
0.00856274
-0.0117763
0.00535137
-0.0116376
0.0009532
-0.000436165
-0.0188629
-0.0339273
-0.011011
-0.0549015
-0.0577204
-0.0550953
-0.0292119
-0.00718647
-0.0129785
-0.0126597
0.0142692
0.015735
0.0389265
0.00677602
0.00277009
-0.0268068
-0.0021836
0.00124481
0.000889712
0.00163353
-0.0130597
-0.0149021
0.010627
0.00742067
-0.0040872
0.011775
0.0093502
-0.00887344
-0.0122274
-0.0412645
-0.0383452
-0.0501509
-0.0593931
-0.047605
-0.00890369
-0.0112539
-0.0204548
0.0114619
0.0117013
0.000330166
0.0227184
-0.00871418
0.00576117
0.0114816
-0.0210085
-0.0121522
-0.00254537
0.00317165
0.00942807
0.00320646
0.0114555
-0.0157574
0.00859458
0.00611578
-0.00104405
0.000209674
-0.0081238
-0.0279433
-0.0256778
-0.0549869
-0.0455042
-0.0387271
0.000378227
-0.0110083
-0.00726515
-0.00226469
0.0261642
0.0130585
0.00773147
0.00528187
0.0119393
-0.00850912
0.0160409
-0.0111456
-0.00925286
-0.000185405
0.0148611
0.00702431
-0.00251226
-0.00314401
-0.0071195
-0.00752296
0.00485345
0.00341099
-0.0161205
0.000762038
-0.0172216
0.000813676
-0.0122084
-0.0118809
0.00680222
0.00272129
-0.00293365
0.0022228
-0.00980364
-0.0221201
-0.00968723
0.00246528
0.000340134
0.0102235
0.00553202
-0.0173043
0.0103391
0.00892664
0.00355167
0.0128023
-0.00577158
-0.00510031
-0.00238194
-0.00103507
0.00204427
0.0253995
0.0209264
0.0145676
0.000383199
0.00951855
0.00647029
0.0285733
0.0140966
-0.00587933
-0.00672441
-0.00653862
-0.00128643
-0.0272979
-0.0090726
0.00774587
-0.0182188
-0.0212147
-0.00866079
-0.00669111
0.00756852
-0.00562685
0.00889959
-0.013885
0.0161863
-0.0127293
-0.0145182
0.0220949
0.00611749
-0.00626758
-0.0032708
0.00257951
0.0252236
0.0320315
0.016418
-0.00194192
0.00333294
-0.00663993
-0.00612152
0.00719492
-0.0134562
-0.0282496
-0.0285579
-0.00456811
0.0113967
-0.0116849
-0.0103183
0.0106872
-0.0181403
-0.00170205
-0.0143083
-0.0103502
-0.0157474
-0.0400691
-0.016954
-0.00168033
0.00444651
0.000986913
0.00446654
0.00536791
0.0218542
0.0290793
0.0279353
0.00954945
0.00410456
0.0136927
0.0284212
0.0343034
0.000457077
-0.013165
-0.0123152
0.0199619
-0.0249526
0.0021808
-0.0082233
-0.00718403
0.00142236
0.0166262
-0.00220449
-0.00531634
-0.00369711
0.00830006
-0.013975
0.00291379
-0.000122122
-0.0104435
0.00131507
-0.00676283
0.0106506
-0.00922538
0.0160375
0.0193502
0.011779
0.0097449
0.0183489
0.032325
-0.00617625
-0.00347834
0.00205334
-0.00822669
-0.0201613
-0.00954252
-0.0162752
-0.00716042
-0.0105314
0.0216544
-0.00238702
-0.00572603
-1.81119e-05
0.0159626
-0.00982843
0.00515447
-0.0103867
0.0224307
-0.006996
0.0109684
0.0174209
0.00953969
0.0165848
-0.0179795
-0.0105034
0.0070984
0.00075075
0.0082482
-0.00426997
0.00465365
7.8832e-06
-0.0148847
-6.82433e-05
0.000363413
-0.0152761
0.00467495
-0.0150076
0.00469909
-0.0123772
0.0167892
-0.000663183
0.00238603
-0.00181868
0.00710047
0.0170909
0.00416049
0.00520827
0.00424063
0.0112313
0.000976972
0.0224742
0.000331299
0.000940899
0.0185934
0.0277499
-0.000442882
-0.00727114
-0.0045816
-0.00614742
0.00233355
0.00631742
-0.00116534
-0.00169994
-0.00656136
-0.0122249
-0.0112577
-0.0118997
0.01411
-0.00784806
-0.0048966
0.0107742
-0.0213607
0.00283261
-0.00525123
0.0102254
0.00657109
0.00138109
0.00889996
0.00854889
0.00724933
0.00838018
-0.00142823
0.00544147
-0.00074319
0.0230471
-0.00222432
-0.0087389
-0.00174885
0.0189421
0.0203614
0.00555454
-0.00992847
-0.010524
0.00290685
-0.0203979
0.00423464
0.0111164
0.0116207
0.0146587
0.00287424
-0.00834193
0.000941554
0.00130078
0.00234018
-0.000171485
-0.00696214
0.0191256
-0.0165066
0.00329345
-0.0232661
-0.0166285
-0.00869001
0.0286696
0.000671236
-0.00996797
-0.00360328
-0.00725554
0.0152623
-0.00191508
0.0138095
0.00354205
-0.00747165
-0.00166035
-0.00388977
0.0191208
0.00895686
0.0107338
0.00573937
-0.00286696
-0.00928458
0.00762486
0.0206933
0.00149305
-0.00122229
0.0132418
-0.0039361
0.00894615
0.00127359
-0.00103743
-0.00469541
-0.00521665
-0.00392581
0.0107113
-0.00446864
0.0038476
-0.00882592
0.0052958
-0.00075131
0.0140432
-0.0178147
-0.00491011
0.00152439
0.00658618
-0.0100924
-0.0101846
0.000109465
-0.00387027
-0.00788457
0.00131527
0.0064393
-0.00367512
0.00351288
0.00215751
-0.0126052
-0.0015153
0.010223
-0.0107501
0.0133488
0.0070041
-0.00393856
0.00197439
0.0156855
0.00706488
0.0118076
-0.00123569
-0.0113701
-0.00546289
-0.0113281
0.0058576
-0.0174204
0.00841897
-0.0121179
-0.0113418
-0.00372353
-0.00541256
-0.00565827
0.0140833
-0.00536066
-0.00663328
-0.00591605
0.0038546
0.00564925
-0.0073667
-0.013222
0.0101003
0.00268763
-0.00673497
-0.0182695
0.00503971
0.00419044
0.00242407
0.0070291
0.00533603
0.00790942
0.000292208
-0.0025259
-0.00069922
-0.00937267
-0.0102794
0.00272821
-0.000927299
-0.00232601
0.00372837
-0.00237972
-0.00549211
0.0111194
0.0078049
-0.0175257
-0.0054572
0.000818749
-0.00193951
0.00244998
-0.00142112
-0.00312564
0.00410639
-0.0171345
0.0053268
-0.000541844
-0.0101248
0.000289359
0.00352198
-0.017605
4.22479e-05
0.0103919
0.00762022
0.016131
-0.011051
0.00318604
0.00417796
0.0158695
0.00572143
0.0155744
0.00518323
0.0247752
-0.016319
0.00205686
-0.00608368
0.00204158
0.00785875
-0.00356656
0.0199919
0.000337452
-0.00444716
-0.0110333
-0.0104022
-0.0037347
0.00831864
0.00272314
0.00233773
0.00748424
0.000914054
-0.00302791
0.00466137
-0.00796349
0.00796599
0.00347594
-0.00726456
0.00925605
0.00556369
-0.00522638
-0.0156444
-0.00091722
0.00735035
-0.0103734
0.00301844
0.0112054
0.00596924
0.00574628
0.0112628
-0.00124271
0.0110028
0.00362648
0.0113579
0.0135291
-0.0050057
-0.00224189
0.0144944
0.00970332
-0.0012666
0.00688279
-0.00188188
-0.00435049
-0.0105904
0.017247
0.014811
-0.00888484
0.00357354
0.0166744
-0.0097205
-0.0152447
-0.00271971
0.00179417
0.00642576
-0.00567388
-0.0163378
0.016419
-0.0048775
-0.000205531
-0.0039388
0.0245554
-0.0106625
0.00204503
-0.0109
0.00960599
-0.00636789
-0.0299181
-0.00480956
0.0155101
0.0172613
0.00329344
0.00740941
-0.00668699
-0.0302041
0.00113493
0.00275367
-0.00389719
-0.00715246
0.020395
0.00922124
-0.000508374
0.000404504
0.0173767
0.00850757
-0.00690545
0.0142746
0.00991853
0.0146746
0.0243848
-0.0019575
0.00170965
-0.0167553
-0.029987
0.00424386
0.0121183
-0.0113316
-0.00932484
0.00510887
-0.0101545
-0.00449067
0.0082832
-0.000364232
-0.0117465
-0.0198035
-0.0135092
0.00161487
-0.0162633
0.0143354
0.00259406
-0.014802
-0.00504793
-0.0182235
0.00909335
0.00532488
-0.00207357
0.00659243
0.00833631
0.0162331
-0.00404084
0.0138656
0.00134723
0.0106983
-0.014612
0.00838958
-0.00587319
-0.0147292
-0.020534
-0.00142105
0.0190551
0.0160503
-0.00417335
0.00374449
-0.0032798
-0.00989557
0.0237764
-0.00345744
-0.000205404
0.0112076
0.00330761
0.00832291
0.0170677
5.41584e-05
0.0111276
0.00112902
0.00664739
-0.0137864
0.00405366
0.0121227
0.0185866
0.00835309
-0.0101132
-0.014416
0.00573525
0.00495215
0.00989351
-0.00644768
-0.0195973
0.00380589
-0.015124
0.017766
-0.0100281
0.0117589
0.0050573
-0.0137828
0.00895104
-0.00146807
0.00435203
0.0178613
-0.00471402
0.01328
0.0117383
-0.000162942
0.00267463
0.0225381
0.00256758
-0.0159568
0.0145523
0.00462994
-0.0018994
-0.0114364
0.0131998
-0.0095979
-0.000714533
0.00249522
0.00528143
0.00245008
-0.016029
0.0067325
0.00983695
0.0120183
-0.000147513
0.0025028
0.00541707
-0.00857514
0.00189889
0.00169986
-0.00427876
-0.00161711
-0.00579847
0.0153003
0.000401623
0.0188195
0.0156716
0.00995832
0.00587648
0.000921162
0.00806738
0.00910891
-0.0119529
-0.000221967
-0.00339643
0.0135171
0.00422086
-0.000867709
-0.0153357
-0.00217318
-0.0147968
-0.0120518
-0.00576119
-0.00710975
0.00426038
-0.00376629
0.0232028
0.00820103
-0.00251842
-0.00888928
0.0146791
-0.00754635
-0.0122352
0.00972376
0.012176
0.00870364
0.00505613
-0.00563025
-0.0122273
0.00895292
0.00147965
0.00226066
-0.00088228
0.0157363
-0.0234232
-0.00799793
0.0102974
0.00901449
0.0042886
0.00546265
0.0110229
0.0151657
-0.0123867
0.00813045
0.0107443
0.00758952
0.0117995
-0.00865513
0.00369535
0.00630562
0.00254225
0.00777181
0.00879674
0.00422546
0.00684975
0.000749438
-0.00275244
0.019889
0.0093522
-0.0007724
0.000958481
0.00872675
0.00913404
0.00519244
-0.00592769
-0.00215094
-0.0181229
0.00830281
0.004335
0.00628873
0.0145037
0.000957722
0.00502489
0.0124931
-0.00264907
0.00973135
0.00229423
0.000601828
0.00337565
0.00489919
-0.0028769
0.0169678
0.00284799
0.00294458
0.000200421
-0.00612993
-0.0251598
-0.00805352
0.0122638
0.0138704
-0.00163297
0.00325384
-0.00452285
-0.0145741
0.00888319
0.00363039
0.00498476
-0.000288823
-0.00947198
0.00056689
-0.00231162
0.0143702
0.00998811
0.00611562
-0.00300113
0.0102798
0.0124314
0.0081802
0.0216194
-0.000448295
-0.017097
0.00674095
0.00422953
-0.00233776
-0.0104114
0.00929173
0.0192093
-0.00906643
0.00355094
-0.00810669
-0.00612755
0.0262804
0.0131438
0.012361
0.0185248
0.00291063
-0.000354409
0.00474011
-0.00715076
0.00330977
-0.00449537
0.00352873
-0.0088476
0.00549809
-0.00992234
0.00579801
-0.000954581
-0.0070301
0.00321403
0.00588935
-0.000666446
-0.00565729
0.00349725
0.00294442
0.00545624
-0.00442117
-0.00403761
0.00233934
-0.00253906
0.00483184
0.014591
